digraph Tree {
node [shape=box, style="filled", color="black", fontname="helvetica"] ;
edge [fontname="helvetica"] ;
0 [label="HbA1c_level <= 1.095\ngini = 0.156\nsamples = 80000\nvalue = [73200, 6800]\nclass = 0", fillcolor="#e78d4b"] ;
1 [label="blood_glucose_level <= 1.767\ngini = 0.091\nsamples = 76860\nvalue = [73200, 3660]\nclass = 0", fillcolor="#e68743"] ;
0 -> 1 [labeldistance=2.5, labelangle=45, headlabel="True"] ;
2 [label="age <= 53.5\ngini = 0.057\nsamples = 75428\nvalue = [73200, 2228]\nclass = 0", fillcolor="#e6853f"] ;
1 -> 2 ;
3 [label="bmi <= 0.775\ngini = 0.024\nsamples = 51762\nvalue = [51143, 619]\nclass = 0", fillcolor="#e5833b"] ;
2 -> 3 ;
4 [label="hypertension <= 0.5\ngini = 0.014\nsamples = 44606\nvalue = [44288, 318]\nclass = 0", fillcolor="#e5823a"] ;
3 -> 4 ;
5 [label="HbA1c_level <= -0.166\ngini = 0.012\nsamples = 43747\nvalue = [43474, 273]\nclass = 0", fillcolor="#e5823a"] ;
4 -> 5 ;
6 [label="gini = 0.0\nsamples = 17946\nvalue = [17946, 0]\nclass = 0", fillcolor="#e58139"] ;
5 -> 6 ;
7 [label="age <= 38.5\ngini = 0.021\nsamples = 25801\nvalue = [25528, 273]\nclass = 0", fillcolor="#e5823b"] ;
5 -> 7 ;
8 [label="blood_glucose_level <= -0.616\ngini = 0.01\nsamples = 18379\nvalue = [18284, 95]\nclass = 0", fillcolor="#e5823a"] ;
7 -> 8 ;
9 [label="gini = 0.0\nsamples = 5624\nvalue = [5624, 0]\nclass = 0", fillcolor="#e58139"] ;
8 -> 9 ;
10 [label="age <= 13.5\ngini = 0.015\nsamples = 12755\nvalue = [12660, 95]\nclass = 0", fillcolor="#e5823a"] ;
8 -> 10 ;
11 [label="age <= 9.5\ngini = 0.003\nsamples = 4354\nvalue = [4347, 7]\nclass = 0", fillcolor="#e58139"] ;
10 -> 11 ;
12 [label="bmi <= -1.45\ngini = 0.002\nsamples = 3183\nvalue = [3180, 3]\nclass = 0", fillcolor="#e58139"] ;
11 -> 12 ;
13 [label="bmi <= -1.452\ngini = 0.003\nsamples = 1721\nvalue = [1718, 3]\nclass = 0", fillcolor="#e58139"] ;
12 -> 13 ;
14 [label="blood_glucose_level <= 1.03\ngini = 0.002\nsamples = 1719\nvalue = [1717, 2]\nclass = 0", fillcolor="#e58139"] ;
13 -> 14 ;
15 [label="bmi <= -1.798\ngini = 0.001\nsamples = 1535\nvalue = [1534, 1]\nclass = 0", fillcolor="#e58139"] ;
14 -> 15 ;
16 [label="bmi <= -1.8\ngini = 0.004\nsamples = 516\nvalue = [515, 1]\nclass = 0", fillcolor="#e58139"] ;
15 -> 16 ;
17 [label="gini = 0.0\nsamples = 514\nvalue = [514, 0]\nclass = 0", fillcolor="#e58139"] ;
16 -> 17 ;
18 [label="blood_glucose_level <= 0.281\ngini = 0.5\nsamples = 2\nvalue = [1, 1]\nclass = 0", fillcolor="#ffffff"] ;
16 -> 18 ;
19 [label="gini = 0.0\nsamples = 1\nvalue = [0, 1]\nclass = 1", fillcolor="#399de5"] ;
18 -> 19 ;
20 [label="gini = 0.0\nsamples = 1\nvalue = [1, 0]\nclass = 0", fillcolor="#e58139"] ;
18 -> 20 ;
21 [label="gini = 0.0\nsamples = 1019\nvalue = [1019, 0]\nclass = 0", fillcolor="#e58139"] ;
15 -> 21 ;
22 [label="bmi <= -1.526\ngini = 0.011\nsamples = 184\nvalue = [183, 1]\nclass = 0", fillcolor="#e5823a"] ;
14 -> 22 ;
23 [label="gini = 0.0\nsamples = 160\nvalue = [160, 0]\nclass = 0", fillcolor="#e58139"] ;
22 -> 23 ;
24 [label="bmi <= -1.518\ngini = 0.08\nsamples = 24\nvalue = [23, 1]\nclass = 0", fillcolor="#e68642"] ;
22 -> 24 ;
25 [label="age <= 3.5\ngini = 0.444\nsamples = 3\nvalue = [2, 1]\nclass = 0", fillcolor="#f2c09c"] ;
24 -> 25 ;
26 [label="gini = 0.0\nsamples = 2\nvalue = [2, 0]\nclass = 0", fillcolor="#e58139"] ;
25 -> 26 ;
27 [label="gini = 0.0\nsamples = 1\nvalue = [0, 1]\nclass = 1", fillcolor="#399de5"] ;
25 -> 27 ;
28 [label="gini = 0.0\nsamples = 21\nvalue = [21, 0]\nclass = 0", fillcolor="#e58139"] ;
24 -> 28 ;
29 [label="blood_glucose_level <= 0.785\ngini = 0.5\nsamples = 2\nvalue = [1, 1]\nclass = 0", fillcolor="#ffffff"] ;
13 -> 29 ;
30 [label="gini = 0.0\nsamples = 1\nvalue = [0, 1]\nclass = 1", fillcolor="#399de5"] ;
29 -> 30 ;
31 [label="gini = 0.0\nsamples = 1\nvalue = [1, 0]\nclass = 0", fillcolor="#e58139"] ;
29 -> 31 ;
32 [label="gini = 0.0\nsamples = 1462\nvalue = [1462, 0]\nclass = 0", fillcolor="#e58139"] ;
12 -> 32 ;
33 [label="blood_glucose_level <= 0.453\ngini = 0.007\nsamples = 1171\nvalue = [1167, 4]\nclass = 0", fillcolor="#e5813a"] ;
11 -> 33 ;
34 [label="blood_glucose_level <= -0.075\ngini = 0.012\nsamples = 659\nvalue = [655, 4]\nclass = 0", fillcolor="#e5823a"] ;
33 -> 34 ;
35 [label="gini = 0.0\nsamples = 274\nvalue = [274, 0]\nclass = 0", fillcolor="#e58139"] ;
34 -> 35 ;
36 [label="smoking_history <= 0.5\ngini = 0.021\nsamples = 385\nvalue = [381, 4]\nclass = 0", fillcolor="#e5823b"] ;
34 -> 36 ;
37 [label="age <= 12.5\ngini = 0.028\nsamples = 283\nvalue = [279, 4]\nclass = 0", fillcolor="#e5833c"] ;
36 -> 37 ;
38 [label="HbA1c_level <= 0.488\ngini = 0.037\nsamples = 215\nvalue = [211, 4]\nclass = 0", fillcolor="#e5833d"] ;
37 -> 38 ;
39 [label="age <= 11.5\ngini = 0.056\nsamples = 105\nvalue = [102, 3]\nclass = 0", fillcolor="#e6853f"] ;
38 -> 39 ;
40 [label="blood_glucose_level <= 0.109\ngini = 0.026\nsamples = 75\nvalue = [74, 1]\nclass = 0", fillcolor="#e5833c"] ;
39 -> 40 ;
41 [label="bmi <= -0.412\ngini = 0.087\nsamples = 22\nvalue = [21, 1]\nclass = 0", fillcolor="#e68742"] ;
40 -> 41 ;
42 [label="gini = 0.0\nsamples = 18\nvalue = [18, 0]\nclass = 0", fillcolor="#e58139"] ;
41 -> 42 ;
43 [label="gender <= 0.5\ngini = 0.375\nsamples = 4\nvalue = [3, 1]\nclass = 0", fillcolor="#eeab7b"] ;
41 -> 43 ;
44 [label="gini = 0.0\nsamples = 3\nvalue = [3, 0]\nclass = 0", fillcolor="#e58139"] ;
43 -> 44 ;
45 [label="gini = 0.0\nsamples = 1\nvalue = [0, 1]\nclass = 1", fillcolor="#399de5"] ;
43 -> 45 ;
46 [label="gini = 0.0\nsamples = 53\nvalue = [53, 0]\nclass = 0", fillcolor="#e58139"] ;
40 -> 46 ;
47 [label="HbA1c_level <= 0.208\ngini = 0.124\nsamples = 30\nvalue = [28, 2]\nclass = 0", fillcolor="#e78a47"] ;
39 -> 47 ;
48 [label="gini = 0.0\nsamples = 11\nvalue = [11, 0]\nclass = 0", fillcolor="#e58139"] ;
47 -> 48 ;
49 [label="bmi <= -1.163\ngini = 0.188\nsamples = 19\nvalue = [17, 2]\nclass = 0", fillcolor="#e89050"] ;
47 -> 49 ;
50 [label="gini = 0.0\nsamples = 8\nvalue = [8, 0]\nclass = 0", fillcolor="#e58139"] ;
49 -> 50 ;
51 [label="bmi <= -0.953\ngini = 0.298\nsamples = 11\nvalue = [9, 2]\nclass = 0", fillcolor="#eb9d65"] ;
49 -> 51 ;
52 [label="gini = 0.0\nsamples = 1\nvalue = [0, 1]\nclass = 1", fillcolor="#399de5"] ;
51 -> 52 ;
53 [label="blood_glucose_level <= 0.293\ngini = 0.18\nsamples = 10\nvalue = [9, 1]\nclass = 0", fillcolor="#e88f4f"] ;
51 -> 53 ;
54 [label="gini = 0.0\nsamples = 6\nvalue = [6, 0]\nclass = 0", fillcolor="#e58139"] ;
53 -> 54 ;
55 [label="bmi <= -0.178\ngini = 0.375\nsamples = 4\nvalue = [3, 1]\nclass = 0", fillcolor="#eeab7b"] ;
53 -> 55 ;
56 [label="gini = 0.0\nsamples = 3\nvalue = [3, 0]\nclass = 0", fillcolor="#e58139"] ;
55 -> 56 ;
57 [label="gini = 0.0\nsamples = 1\nvalue = [0, 1]\nclass = 1", fillcolor="#399de5"] ;
55 -> 57 ;
58 [label="HbA1c_level <= 0.955\ngini = 0.018\nsamples = 110\nvalue = [109, 1]\nclass = 0", fillcolor="#e5823b"] ;
38 -> 58 ;
59 [label="gini = 0.0\nsamples = 87\nvalue = [87, 0]\nclass = 0", fillcolor="#e58139"] ;
58 -> 59 ;
60 [label="bmi <= -1.426\ngini = 0.083\nsamples = 23\nvalue = [22, 1]\nclass = 0", fillcolor="#e68742"] ;
58 -> 60 ;
61 [label="bmi <= -1.601\ngini = 0.32\nsamples = 5\nvalue = [4, 1]\nclass = 0", fillcolor="#eca06a"] ;
60 -> 61 ;
62 [label="gini = 0.0\nsamples = 4\nvalue = [4, 0]\nclass = 0", fillcolor="#e58139"] ;
61 -> 62 ;
63 [label="gini = 0.0\nsamples = 1\nvalue = [0, 1]\nclass = 1", fillcolor="#399de5"] ;
61 -> 63 ;
64 [label="gini = 0.0\nsamples = 18\nvalue = [18, 0]\nclass = 0", fillcolor="#e58139"] ;
60 -> 64 ;
65 [label="gini = 0.0\nsamples = 68\nvalue = [68, 0]\nclass = 0", fillcolor="#e58139"] ;
37 -> 65 ;
66 [label="gini = 0.0\nsamples = 102\nvalue = [102, 0]\nclass = 0", fillcolor="#e58139"] ;
36 -> 66 ;
67 [label="gini = 0.0\nsamples = 512\nvalue = [512, 0]\nclass = 0", fillcolor="#e58139"] ;
33 -> 67 ;
68 [label="bmi <= 0.468\ngini = 0.021\nsamples = 8401\nvalue = [8313, 88]\nclass = 0", fillcolor="#e5823b"] ;
10 -> 68 ;
69 [label="smoking_history <= 4.5\ngini = 0.019\nsamples = 7917\nvalue = [7841, 76]\nclass = 0", fillcolor="#e5823b"] ;
68 -> 69 ;
70 [label="bmi <= -2.011\ngini = 0.017\nsamples = 7443\nvalue = [7378, 65]\nclass = 0", fillcolor="#e5823b"] ;
69 -> 70 ;
71 [label="blood_glucose_level <= 0.527\ngini = 0.165\nsamples = 11\nvalue = [10, 1]\nclass = 0", fillcolor="#e88e4d"] ;
70 -> 71 ;
72 [label="gini = 0.0\nsamples = 10\nvalue = [10, 0]\nclass = 0", fillcolor="#e58139"] ;
71 -> 72 ;
73 [label="gini = 0.0\nsamples = 1\nvalue = [0, 1]\nclass = 1", fillcolor="#399de5"] ;
71 -> 73 ;
74 [label="gender <= 0.5\ngini = 0.017\nsamples = 7432\nvalue = [7368, 64]\nclass = 0", fillcolor="#e5823b"] ;
70 -> 74 ;
75 [label="age <= 15.5\ngini = 0.012\nsamples = 4612\nvalue = [4583, 29]\nclass = 0", fillcolor="#e5823a"] ;
74 -> 75 ;
76 [label="blood_glucose_level <= -0.247\ngini = 0.038\nsamples = 256\nvalue = [251, 5]\nclass = 0", fillcolor="#e6843d"] ;
75 -> 76 ;
77 [label="bmi <= -0.342\ngini = 0.175\nsamples = 31\nvalue = [28, 3]\nclass = 0", fillcolor="#e88e4e"] ;
76 -> 77 ;
78 [label="bmi <= -0.99\ngini = 0.32\nsamples = 15\nvalue = [12, 3]\nclass = 0", fillcolor="#eca06a"] ;
77 -> 78 ;
79 [label="gini = 0.0\nsamples = 8\nvalue = [8, 0]\nclass = 0", fillcolor="#e58139"] ;
78 -> 79 ;
80 [label="HbA1c_level <= 0.488\ngini = 0.49\nsamples = 7\nvalue = [4, 3]\nclass = 0", fillcolor="#f8e0ce"] ;
78 -> 80 ;
81 [label="gini = 0.0\nsamples = 3\nvalue = [3, 0]\nclass = 0", fillcolor="#e58139"] ;
80 -> 81 ;
82 [label="age <= 14.5\ngini = 0.375\nsamples = 4\nvalue = [1, 3]\nclass = 1", fillcolor="#7bbeee"] ;
80 -> 82 ;
83 [label="bmi <= -0.918\ngini = 0.5\nsamples = 2\nvalue = [1, 1]\nclass = 0", fillcolor="#ffffff"] ;
82 -> 83 ;
84 [label="gini = 0.0\nsamples = 1\nvalue = [0, 1]\nclass = 1", fillcolor="#399de5"] ;
83 -> 84 ;
85 [label="gini = 0.0\nsamples = 1\nvalue = [1, 0]\nclass = 0", fillcolor="#e58139"] ;
83 -> 85 ;
86 [label="gini = 0.0\nsamples = 2\nvalue = [0, 2]\nclass = 1", fillcolor="#399de5"] ;
82 -> 86 ;
87 [label="gini = 0.0\nsamples = 16\nvalue = [16, 0]\nclass = 0", fillcolor="#e58139"] ;
77 -> 87 ;
88 [label="bmi <= -1.119\ngini = 0.018\nsamples = 225\nvalue = [223, 2]\nclass = 0", fillcolor="#e5823b"] ;
76 -> 88 ;
89 [label="bmi <= -1.122\ngini = 0.068\nsamples = 57\nvalue = [55, 2]\nclass = 0", fillcolor="#e68640"] ;
88 -> 89 ;
90 [label="blood_glucose_level <= 0.502\ngini = 0.035\nsamples = 56\nvalue = [55, 1]\nclass = 0", fillcolor="#e5833d"] ;
89 -> 90 ;
91 [label="gini = 0.0\nsamples = 37\nvalue = [37, 0]\nclass = 0", fillcolor="#e58139"] ;
90 -> 91 ;
92 [label="bmi <= -1.334\ngini = 0.1\nsamples = 19\nvalue = [18, 1]\nclass = 0", fillcolor="#e68844"] ;
90 -> 92 ;
93 [label="bmi <= -1.349\ngini = 0.198\nsamples = 9\nvalue = [8, 1]\nclass = 0", fillcolor="#e89152"] ;
92 -> 93 ;
94 [label="gini = 0.0\nsamples = 8\nvalue = [8, 0]\nclass = 0", fillcolor="#e58139"] ;
93 -> 94 ;
95 [label="gini = 0.0\nsamples = 1\nvalue = [0, 1]\nclass = 1", fillcolor="#399de5"] ;
93 -> 95 ;
96 [label="gini = 0.0\nsamples = 10\nvalue = [10, 0]\nclass = 0", fillcolor="#e58139"] ;
92 -> 96 ;
97 [label="gini = 0.0\nsamples = 1\nvalue = [0, 1]\nclass = 1", fillcolor="#399de5"] ;
89 -> 97 ;
98 [label="gini = 0.0\nsamples = 168\nvalue = [168, 0]\nclass = 0", fillcolor="#e58139"] ;
88 -> 98 ;
99 [label="bmi <= 0.189\ngini = 0.011\nsamples = 4356\nvalue = [4332, 24]\nclass = 0", fillcolor="#e5823a"] ;
75 -> 99 ;
100 [label="blood_glucose_level <= 0.293\ngini = 0.01\nsamples = 4073\nvalue = [4053, 20]\nclass = 0", fillcolor="#e5823a"] ;
99 -> 100 ;
101 [label="age <= 29.5\ngini = 0.014\nsamples = 1822\nvalue = [1809, 13]\nclass = 0", fillcolor="#e5823a"] ;
100 -> 101 ;
102 [label="age <= 27.5\ngini = 0.021\nsamples = 1138\nvalue = [1126, 12]\nclass = 0", fillcolor="#e5823b"] ;
101 -> 102 ;
103 [label="HbA1c_level <= 0.955\ngini = 0.01\nsamples = 973\nvalue = [968, 5]\nclass = 0", fillcolor="#e5823a"] ;
102 -> 103 ;
104 [label="age <= 26.5\ngini = 0.007\nsamples = 839\nvalue = [836, 3]\nclass = 0", fillcolor="#e5813a"] ;
103 -> 104 ;
105 [label="bmi <= -0.665\ngini = 0.005\nsamples = 770\nvalue = [768, 2]\nclass = 0", fillcolor="#e5813a"] ;
104 -> 105 ;
106 [label="bmi <= -0.667\ngini = 0.015\nsamples = 268\nvalue = [266, 2]\nclass = 0", fillcolor="#e5823a"] ;
105 -> 106 ;
107 [label="bmi <= -0.783\ngini = 0.007\nsamples = 266\nvalue = [265, 1]\nclass = 0", fillcolor="#e5813a"] ;
106 -> 107 ;
108 [label="gini = 0.0\nsamples = 222\nvalue = [222, 0]\nclass = 0", fillcolor="#e58139"] ;
107 -> 108 ;
109 [label="bmi <= -0.776\ngini = 0.044\nsamples = 44\nvalue = [43, 1]\nclass = 0", fillcolor="#e6843e"] ;
107 -> 109 ;
110 [label="age <= 20.5\ngini = 0.444\nsamples = 3\nvalue = [2, 1]\nclass = 0", fillcolor="#f2c09c"] ;
109 -> 110 ;
111 [label="gini = 0.0\nsamples = 2\nvalue = [2, 0]\nclass = 0", fillcolor="#e58139"] ;
110 -> 111 ;
112 [label="gini = 0.0\nsamples = 1\nvalue = [0, 1]\nclass = 1", fillcolor="#399de5"] ;
110 -> 112 ;
113 [label="gini = 0.0\nsamples = 41\nvalue = [41, 0]\nclass = 0", fillcolor="#e58139"] ;
109 -> 113 ;
114 [label="HbA1c_level <= 0.488\ngini = 0.5\nsamples = 2\nvalue = [1, 1]\nclass = 0", fillcolor="#ffffff"] ;
106 -> 114 ;
115 [label="gini = 0.0\nsamples = 1\nvalue = [1, 0]\nclass = 0", fillcolor="#e58139"] ;
114 -> 115 ;
116 [label="gini = 0.0\nsamples = 1\nvalue = [0, 1]\nclass = 1", fillcolor="#399de5"] ;
114 -> 116 ;
117 [label="gini = 0.0\nsamples = 502\nvalue = [502, 0]\nclass = 0", fillcolor="#e58139"] ;
105 -> 117 ;
118 [label="HbA1c_level <= 0.208\ngini = 0.029\nsamples = 69\nvalue = [68, 1]\nclass = 0", fillcolor="#e5833c"] ;
104 -> 118 ;
119 [label="bmi <= -0.077\ngini = 0.165\nsamples = 11\nvalue = [10, 1]\nclass = 0", fillcolor="#e88e4d"] ;
118 -> 119 ;
120 [label="gini = 0.0\nsamples = 8\nvalue = [8, 0]\nclass = 0", fillcolor="#e58139"] ;
119 -> 120 ;
121 [label="blood_glucose_level <= 0.109\ngini = 0.444\nsamples = 3\nvalue = [2, 1]\nclass = 0", fillcolor="#f2c09c"] ;
119 -> 121 ;
122 [label="gini = 0.0\nsamples = 2\nvalue = [2, 0]\nclass = 0", fillcolor="#e58139"] ;
121 -> 122 ;
123 [label="gini = 0.0\nsamples = 1\nvalue = [0, 1]\nclass = 1", fillcolor="#399de5"] ;
121 -> 123 ;
124 [label="gini = 0.0\nsamples = 58\nvalue = [58, 0]\nclass = 0", fillcolor="#e58139"] ;
118 -> 124 ;
125 [label="blood_glucose_level <= -0.075\ngini = 0.029\nsamples = 134\nvalue = [132, 2]\nclass = 0", fillcolor="#e5833c"] ;
103 -> 125 ;
126 [label="gini = 0.0\nsamples = 67\nvalue = [67, 0]\nclass = 0", fillcolor="#e58139"] ;
125 -> 126 ;
127 [label="smoking_history <= 3.5\ngini = 0.058\nsamples = 67\nvalue = [65, 2]\nclass = 0", fillcolor="#e6853f"] ;
125 -> 127 ;
128 [label="gini = 0.0\nsamples = 33\nvalue = [33, 0]\nclass = 0", fillcolor="#e58139"] ;
127 -> 128 ;
129 [label="bmi <= -0.973\ngini = 0.111\nsamples = 34\nvalue = [32, 2]\nclass = 0", fillcolor="#e78945"] ;
127 -> 129 ;
130 [label="gini = 0.0\nsamples = 12\nvalue = [12, 0]\nclass = 0", fillcolor="#e58139"] ;
129 -> 130 ;
131 [label="bmi <= -0.94\ngini = 0.165\nsamples = 22\nvalue = [20, 2]\nclass = 0", fillcolor="#e88e4d"] ;
129 -> 131 ;
132 [label="gini = 0.0\nsamples = 1\nvalue = [0, 1]\nclass = 1", fillcolor="#399de5"] ;
131 -> 132 ;
133 [label="bmi <= -0.095\ngini = 0.091\nsamples = 21\nvalue = [20, 1]\nclass = 0", fillcolor="#e68743"] ;
131 -> 133 ;
134 [label="gini = 0.0\nsamples = 13\nvalue = [13, 0]\nclass = 0", fillcolor="#e58139"] ;
133 -> 134 ;
135 [label="age <= 23.5\ngini = 0.219\nsamples = 8\nvalue = [7, 1]\nclass = 0", fillcolor="#e99355"] ;
133 -> 135 ;
136 [label="gini = 0.0\nsamples = 5\nvalue = [5, 0]\nclass = 0", fillcolor="#e58139"] ;
135 -> 136 ;
137 [label="age <= 24.5\ngini = 0.444\nsamples = 3\nvalue = [2, 1]\nclass = 0", fillcolor="#f2c09c"] ;
135 -> 137 ;
138 [label="gini = 0.0\nsamples = 1\nvalue = [0, 1]\nclass = 1", fillcolor="#399de5"] ;
137 -> 138 ;
139 [label="gini = 0.0\nsamples = 2\nvalue = [2, 0]\nclass = 0", fillcolor="#e58139"] ;
137 -> 139 ;
140 [label="HbA1c_level <= 0.768\ngini = 0.081\nsamples = 165\nvalue = [158, 7]\nclass = 0", fillcolor="#e68742"] ;
102 -> 140 ;
141 [label="blood_glucose_level <= -0.247\ngini = 0.111\nsamples = 119\nvalue = [112, 7]\nclass = 0", fillcolor="#e78945"] ;
140 -> 141 ;
142 [label="smoking_history <= 1.5\ngini = 0.219\nsamples = 24\nvalue = [21, 3]\nclass = 0", fillcolor="#e99355"] ;
141 -> 142 ;
143 [label="gini = 0.0\nsamples = 7\nvalue = [7, 0]\nclass = 0", fillcolor="#e58139"] ;
142 -> 143 ;
144 [label="bmi <= -0.94\ngini = 0.291\nsamples = 17\nvalue = [14, 3]\nclass = 0", fillcolor="#eb9c63"] ;
142 -> 144 ;
145 [label="gini = 0.0\nsamples = 6\nvalue = [6, 0]\nclass = 0", fillcolor="#e58139"] ;
144 -> 145 ;
146 [label="bmi <= -0.847\ngini = 0.397\nsamples = 11\nvalue = [8, 3]\nclass = 0", fillcolor="#efb083"] ;
144 -> 146 ;
147 [label="gini = 0.0\nsamples = 1\nvalue = [0, 1]\nclass = 1", fillcolor="#399de5"] ;
146 -> 147 ;
148 [label="bmi <= -0.309\ngini = 0.32\nsamples = 10\nvalue = [8, 2]\nclass = 0", fillcolor="#eca06a"] ;
146 -> 148 ;
149 [label="gini = 0.0\nsamples = 4\nvalue = [4, 0]\nclass = 0", fillcolor="#e58139"] ;
148 -> 149 ;
150 [label="bmi <= -0.185\ngini = 0.444\nsamples = 6\nvalue = [4, 2]\nclass = 0", fillcolor="#f2c09c"] ;
148 -> 150 ;
151 [label="gini = 0.0\nsamples = 1\nvalue = [0, 1]\nclass = 1", fillcolor="#399de5"] ;
150 -> 151 ;
152 [label="age <= 28.5\ngini = 0.32\nsamples = 5\nvalue = [4, 1]\nclass = 0", fillcolor="#eca06a"] ;
150 -> 152 ;
153 [label="gini = 0.0\nsamples = 2\nvalue = [2, 0]\nclass = 0", fillcolor="#e58139"] ;
152 -> 153 ;
154 [label="smoking_history <= 3.5\ngini = 0.444\nsamples = 3\nvalue = [2, 1]\nclass = 0", fillcolor="#f2c09c"] ;
152 -> 154 ;
155 [label="gini = 0.0\nsamples = 2\nvalue = [2, 0]\nclass = 0", fillcolor="#e58139"] ;
154 -> 155 ;
156 [label="gini = 0.0\nsamples = 1\nvalue = [0, 1]\nclass = 1", fillcolor="#399de5"] ;
154 -> 156 ;
157 [label="smoking_history <= 2.5\ngini = 0.081\nsamples = 95\nvalue = [91, 4]\nclass = 0", fillcolor="#e68742"] ;
141 -> 157 ;
158 [label="smoking_history <= 1.5\ngini = 0.156\nsamples = 47\nvalue = [43, 4]\nclass = 0", fillcolor="#e78d4b"] ;
157 -> 158 ;
159 [label="bmi <= -0.023\ngini = 0.127\nsamples = 44\nvalue = [41, 3]\nclass = 0", fillcolor="#e78a47"] ;
158 -> 159 ;
160 [label="gini = 0.0\nsamples = 25\nvalue = [25, 0]\nclass = 0", fillcolor="#e58139"] ;
159 -> 160 ;
161 [label="HbA1c_level <= 0.488\ngini = 0.266\nsamples = 19\nvalue = [16, 3]\nclass = 0", fillcolor="#ea995e"] ;
159 -> 161 ;
162 [label="HbA1c_level <= 0.348\ngini = 0.397\nsamples = 11\nvalue = [8, 3]\nclass = 0", fillcolor="#efb083"] ;
161 -> 162 ;
163 [label="blood_glucose_level <= 0.109\ngini = 0.219\nsamples = 8\nvalue = [7, 1]\nclass = 0", fillcolor="#e99355"] ;
162 -> 163 ;
164 [label="gini = 0.0\nsamples = 5\nvalue = [5, 0]\nclass = 0", fillcolor="#e58139"] ;
163 -> 164 ;
165 [label="age <= 28.5\ngini = 0.444\nsamples = 3\nvalue = [2, 1]\nclass = 0", fillcolor="#f2c09c"] ;
163 -> 165 ;
166 [label="gini = 0.0\nsamples = 1\nvalue = [0, 1]\nclass = 1", fillcolor="#399de5"] ;
165 -> 166 ;
167 [label="gini = 0.0\nsamples = 2\nvalue = [2, 0]\nclass = 0", fillcolor="#e58139"] ;
165 -> 167 ;
168 [label="smoking_history <= 0.5\ngini = 0.444\nsamples = 3\nvalue = [1, 2]\nclass = 1", fillcolor="#9ccef2"] ;
162 -> 168 ;
169 [label="gini = 0.5\nsamples = 2\nvalue = [1, 1]\nclass = 0", fillcolor="#ffffff"] ;
168 -> 169 ;
170 [label="gini = 0.0\nsamples = 1\nvalue = [0, 1]\nclass = 1", fillcolor="#399de5"] ;
168 -> 170 ;
171 [label="gini = 0.0\nsamples = 8\nvalue = [8, 0]\nclass = 0", fillcolor="#e58139"] ;
161 -> 171 ;
172 [label="HbA1c_level <= 0.395\ngini = 0.444\nsamples = 3\nvalue = [2, 1]\nclass = 0", fillcolor="#f2c09c"] ;
158 -> 172 ;
173 [label="gini = 0.0\nsamples = 2\nvalue = [2, 0]\nclass = 0", fillcolor="#e58139"] ;
172 -> 173 ;
174 [label="gini = 0.0\nsamples = 1\nvalue = [0, 1]\nclass = 1", fillcolor="#399de5"] ;
172 -> 174 ;
175 [label="gini = 0.0\nsamples = 48\nvalue = [48, 0]\nclass = 0", fillcolor="#e58139"] ;
157 -> 175 ;
176 [label="gini = 0.0\nsamples = 46\nvalue = [46, 0]\nclass = 0", fillcolor="#e58139"] ;
140 -> 176 ;
177 [label="bmi <= -1.458\ngini = 0.003\nsamples = 684\nvalue = [683, 1]\nclass = 0", fillcolor="#e58139"] ;
101 -> 177 ;
178 [label="bmi <= -1.465\ngini = 0.278\nsamples = 6\nvalue = [5, 1]\nclass = 0", fillcolor="#ea9a61"] ;
177 -> 178 ;
179 [label="gini = 0.0\nsamples = 5\nvalue = [5, 0]\nclass = 0", fillcolor="#e58139"] ;
178 -> 179 ;
180 [label="gini = 0.0\nsamples = 1\nvalue = [0, 1]\nclass = 1", fillcolor="#399de5"] ;
178 -> 180 ;
181 [label="gini = 0.0\nsamples = 678\nvalue = [678, 0]\nclass = 0", fillcolor="#e58139"] ;
177 -> 181 ;
182 [label="bmi <= -0.689\ngini = 0.006\nsamples = 2251\nvalue = [2244, 7]\nclass = 0", fillcolor="#e5813a"] ;
100 -> 182 ;
183 [label="gini = 0.0\nsamples = 699\nvalue = [699, 0]\nclass = 0", fillcolor="#e58139"] ;
182 -> 183 ;
184 [label="bmi <= -0.688\ngini = 0.009\nsamples = 1552\nvalue = [1545, 7]\nclass = 0", fillcolor="#e5823a"] ;
182 -> 184 ;
185 [label="gini = 0.0\nsamples = 1\nvalue = [0, 1]\nclass = 1", fillcolor="#399de5"] ;
184 -> 185 ;
186 [label="age <= 28.5\ngini = 0.008\nsamples = 1551\nvalue = [1545, 6]\nclass = 0", fillcolor="#e5813a"] ;
184 -> 186 ;
187 [label="blood_glucose_level <= 0.527\ngini = 0.002\nsamples = 866\nvalue = [865, 1]\nclass = 0", fillcolor="#e58139"] ;
186 -> 187 ;
188 [label="gini = 0.0\nsamples = 531\nvalue = [531, 0]\nclass = 0", fillcolor="#e58139"] ;
187 -> 188 ;
189 [label="HbA1c_level <= 0.488\ngini = 0.006\nsamples = 335\nvalue = [334, 1]\nclass = 0", fillcolor="#e5813a"] ;
187 -> 189 ;
190 [label="HbA1c_level <= 0.348\ngini = 0.013\nsamples = 150\nvalue = [149, 1]\nclass = 0", fillcolor="#e5823a"] ;
189 -> 190 ;
191 [label="gini = 0.0\nsamples = 96\nvalue = [96, 0]\nclass = 0", fillcolor="#e58139"] ;
190 -> 191 ;
192 [label="blood_glucose_level <= 1.03\ngini = 0.036\nsamples = 54\nvalue = [53, 1]\nclass = 0", fillcolor="#e5833d"] ;
190 -> 192 ;
193 [label="bmi <= -0.024\ngini = 0.08\nsamples = 24\nvalue = [23, 1]\nclass = 0", fillcolor="#e68642"] ;
192 -> 193 ;
194 [label="gini = 0.0\nsamples = 16\nvalue = [16, 0]\nclass = 0", fillcolor="#e58139"] ;
193 -> 194 ;
195 [label="age <= 22.5\ngini = 0.219\nsamples = 8\nvalue = [7, 1]\nclass = 0", fillcolor="#e99355"] ;
193 -> 195 ;
196 [label="smoking_history <= 0.5\ngini = 0.444\nsamples = 3\nvalue = [2, 1]\nclass = 0", fillcolor="#f2c09c"] ;
195 -> 196 ;
197 [label="gini = 0.0\nsamples = 2\nvalue = [2, 0]\nclass = 0", fillcolor="#e58139"] ;
196 -> 197 ;
198 [label="gini = 0.0\nsamples = 1\nvalue = [0, 1]\nclass = 1", fillcolor="#399de5"] ;
196 -> 198 ;
199 [label="gini = 0.0\nsamples = 5\nvalue = [5, 0]\nclass = 0", fillcolor="#e58139"] ;
195 -> 199 ;
200 [label="gini = 0.0\nsamples = 30\nvalue = [30, 0]\nclass = 0", fillcolor="#e58139"] ;
192 -> 200 ;
201 [label="gini = 0.0\nsamples = 185\nvalue = [185, 0]\nclass = 0", fillcolor="#e58139"] ;
189 -> 201 ;
202 [label="HbA1c_level <= 0.488\ngini = 0.014\nsamples = 685\nvalue = [680, 5]\nclass = 0", fillcolor="#e5823a"] ;
186 -> 202 ;
203 [label="gini = 0.0\nsamples = 293\nvalue = [293, 0]\nclass = 0", fillcolor="#e58139"] ;
202 -> 203 ;
204 [label="bmi <= 0.056\ngini = 0.025\nsamples = 392\nvalue = [387, 5]\nclass = 0", fillcolor="#e5833c"] ;
202 -> 204 ;
205 [label="blood_glucose_level <= 0.453\ngini = 0.022\nsamples = 367\nvalue = [363, 4]\nclass = 0", fillcolor="#e5823b"] ;
204 -> 205 ;
206 [label="age <= 33.5\ngini = 0.046\nsamples = 84\nvalue = [82, 2]\nclass = 0", fillcolor="#e6843e"] ;
205 -> 206 ;
207 [label="gini = 0.0\nsamples = 40\nvalue = [40, 0]\nclass = 0", fillcolor="#e58139"] ;
206 -> 207 ;
208 [label="bmi <= -0.022\ngini = 0.087\nsamples = 44\nvalue = [42, 2]\nclass = 0", fillcolor="#e68742"] ;
206 -> 208 ;
209 [label="gini = 0.0\nsamples = 18\nvalue = [18, 0]\nclass = 0", fillcolor="#e58139"] ;
208 -> 209 ;
210 [label="bmi <= -0.003\ngini = 0.142\nsamples = 26\nvalue = [24, 2]\nclass = 0", fillcolor="#e78c49"] ;
208 -> 210 ;
211 [label="gini = 0.0\nsamples = 1\nvalue = [0, 1]\nclass = 1", fillcolor="#399de5"] ;
210 -> 211 ;
212 [label="HbA1c_level <= 0.581\ngini = 0.077\nsamples = 25\nvalue = [24, 1]\nclass = 0", fillcolor="#e68641"] ;
210 -> 212 ;
213 [label="age <= 36.5\ngini = 0.278\nsamples = 6\nvalue = [5, 1]\nclass = 0", fillcolor="#ea9a61"] ;
212 -> 213 ;
214 [label="gini = 0.0\nsamples = 3\nvalue = [3, 0]\nclass = 0", fillcolor="#e58139"] ;
213 -> 214 ;
215 [label="gini = 0.444\nsamples = 3\nvalue = [2, 1]\nclass = 0", fillcolor="#f2c09c"] ;
213 -> 215 ;
216 [label="gini = 0.0\nsamples = 19\nvalue = [19, 0]\nclass = 0", fillcolor="#e58139"] ;
212 -> 216 ;
217 [label="smoking_history <= 1.5\ngini = 0.014\nsamples = 283\nvalue = [281, 2]\nclass = 0", fillcolor="#e5823a"] ;
205 -> 217 ;
218 [label="bmi <= -0.399\ngini = 0.027\nsamples = 147\nvalue = [145, 2]\nclass = 0", fillcolor="#e5833c"] ;
217 -> 218 ;
219 [label="bmi <= -0.408\ngini = 0.1\nsamples = 19\nvalue = [18, 1]\nclass = 0", fillcolor="#e68844"] ;
218 -> 219 ;
220 [label="gini = 0.0\nsamples = 18\nvalue = [18, 0]\nclass = 0", fillcolor="#e58139"] ;
219 -> 220 ;
221 [label="gini = 0.0\nsamples = 1\nvalue = [0, 1]\nclass = 1", fillcolor="#399de5"] ;
219 -> 221 ;
222 [label="smoking_history <= 0.5\ngini = 0.016\nsamples = 128\nvalue = [127, 1]\nclass = 0", fillcolor="#e5823b"] ;
218 -> 222 ;
223 [label="gini = 0.0\nsamples = 103\nvalue = [103, 0]\nclass = 0", fillcolor="#e58139"] ;
222 -> 223 ;
224 [label="blood_glucose_level <= 1.03\ngini = 0.077\nsamples = 25\nvalue = [24, 1]\nclass = 0", fillcolor="#e68641"] ;
222 -> 224 ;
225 [label="gini = 0.0\nsamples = 20\nvalue = [20, 0]\nclass = 0", fillcolor="#e58139"] ;
224 -> 225 ;
226 [label="age <= 30.0\ngini = 0.32\nsamples = 5\nvalue = [4, 1]\nclass = 0", fillcolor="#eca06a"] ;
224 -> 226 ;
227 [label="gini = 0.0\nsamples = 2\nvalue = [2, 0]\nclass = 0", fillcolor="#e58139"] ;
226 -> 227 ;
228 [label="HbA1c_level <= 0.581\ngini = 0.444\nsamples = 3\nvalue = [2, 1]\nclass = 0", fillcolor="#f2c09c"] ;
226 -> 228 ;
229 [label="gini = 0.0\nsamples = 1\nvalue = [1, 0]\nclass = 0", fillcolor="#e58139"] ;
228 -> 229 ;
230 [label="age <= 34.0\ngini = 0.5\nsamples = 2\nvalue = [1, 1]\nclass = 0", fillcolor="#ffffff"] ;
228 -> 230 ;
231 [label="gini = 0.0\nsamples = 1\nvalue = [0, 1]\nclass = 1", fillcolor="#399de5"] ;
230 -> 231 ;
232 [label="gini = 0.0\nsamples = 1\nvalue = [1, 0]\nclass = 0", fillcolor="#e58139"] ;
230 -> 232 ;
233 [label="gini = 0.0\nsamples = 136\nvalue = [136, 0]\nclass = 0", fillcolor="#e58139"] ;
217 -> 233 ;
234 [label="bmi <= 0.068\ngini = 0.077\nsamples = 25\nvalue = [24, 1]\nclass = 0", fillcolor="#e68641"] ;
204 -> 234 ;
235 [label="blood_glucose_level <= 1.03\ngini = 0.5\nsamples = 2\nvalue = [1, 1]\nclass = 0", fillcolor="#ffffff"] ;
234 -> 235 ;
236 [label="gini = 0.0\nsamples = 1\nvalue = [0, 1]\nclass = 1", fillcolor="#399de5"] ;
235 -> 236 ;
237 [label="gini = 0.0\nsamples = 1\nvalue = [1, 0]\nclass = 0", fillcolor="#e58139"] ;
235 -> 237 ;
238 [label="gini = 0.0\nsamples = 23\nvalue = [23, 0]\nclass = 0", fillcolor="#e58139"] ;
234 -> 238 ;
239 [label="bmi <= 0.192\ngini = 0.028\nsamples = 283\nvalue = [279, 4]\nclass = 0", fillcolor="#e5833c"] ;
99 -> 239 ;
240 [label="smoking_history <= 2.5\ngini = 0.5\nsamples = 2\nvalue = [1, 1]\nclass = 0", fillcolor="#ffffff"] ;
239 -> 240 ;
241 [label="gini = 0.0\nsamples = 1\nvalue = [1, 0]\nclass = 0", fillcolor="#e58139"] ;
240 -> 241 ;
242 [label="gini = 0.0\nsamples = 1\nvalue = [0, 1]\nclass = 1", fillcolor="#399de5"] ;
240 -> 242 ;
243 [label="age <= 35.5\ngini = 0.021\nsamples = 281\nvalue = [278, 3]\nclass = 0", fillcolor="#e5823b"] ;
239 -> 243 ;
244 [label="age <= 18.5\ngini = 0.009\nsamples = 234\nvalue = [233, 1]\nclass = 0", fillcolor="#e5823a"] ;
243 -> 244 ;
245 [label="bmi <= 0.386\ngini = 0.083\nsamples = 23\nvalue = [22, 1]\nclass = 0", fillcolor="#e68742"] ;
244 -> 245 ;
246 [label="gini = 0.0\nsamples = 17\nvalue = [17, 0]\nclass = 0", fillcolor="#e58139"] ;
245 -> 246 ;
247 [label="bmi <= 0.4\ngini = 0.278\nsamples = 6\nvalue = [5, 1]\nclass = 0", fillcolor="#ea9a61"] ;
245 -> 247 ;
248 [label="gini = 0.0\nsamples = 1\nvalue = [0, 1]\nclass = 1", fillcolor="#399de5"] ;
247 -> 248 ;
249 [label="gini = 0.0\nsamples = 5\nvalue = [5, 0]\nclass = 0", fillcolor="#e58139"] ;
247 -> 249 ;
250 [label="gini = 0.0\nsamples = 211\nvalue = [211, 0]\nclass = 0", fillcolor="#e58139"] ;
244 -> 250 ;
251 [label="bmi <= 0.253\ngini = 0.081\nsamples = 47\nvalue = [45, 2]\nclass = 0", fillcolor="#e68742"] ;
243 -> 251 ;
252 [label="HbA1c_level <= 0.348\ngini = 0.245\nsamples = 14\nvalue = [12, 2]\nclass = 0", fillcolor="#e9965a"] ;
251 -> 252 ;
253 [label="HbA1c_level <= 0.208\ngini = 0.5\nsamples = 4\nvalue = [2, 2]\nclass = 0", fillcolor="#ffffff"] ;
252 -> 253 ;
254 [label="gini = 0.0\nsamples = 2\nvalue = [2, 0]\nclass = 0", fillcolor="#e58139"] ;
253 -> 254 ;
255 [label="gini = 0.0\nsamples = 2\nvalue = [0, 2]\nclass = 1", fillcolor="#399de5"] ;
253 -> 255 ;
256 [label="gini = 0.0\nsamples = 10\nvalue = [10, 0]\nclass = 0", fillcolor="#e58139"] ;
252 -> 256 ;
257 [label="gini = 0.0\nsamples = 33\nvalue = [33, 0]\nclass = 0", fillcolor="#e58139"] ;
251 -> 257 ;
258 [label="smoking_history <= 1.5\ngini = 0.025\nsamples = 2820\nvalue = [2785, 35]\nclass = 0", fillcolor="#e5833b"] ;
74 -> 258 ;
259 [label="age <= 22.5\ngini = 0.014\nsamples = 1565\nvalue = [1554, 11]\nclass = 0", fillcolor="#e5823a"] ;
258 -> 259 ;
260 [label="bmi <= -1.236\ngini = 0.003\nsamples = 656\nvalue = [655, 1]\nclass = 0", fillcolor="#e58139"] ;
259 -> 260 ;
261 [label="bmi <= -1.24\ngini = 0.033\nsamples = 60\nvalue = [59, 1]\nclass = 0", fillcolor="#e5833c"] ;
260 -> 261 ;
262 [label="gini = 0.0\nsamples = 59\nvalue = [59, 0]\nclass = 0", fillcolor="#e58139"] ;
261 -> 262 ;
263 [label="gini = 0.0\nsamples = 1\nvalue = [0, 1]\nclass = 1", fillcolor="#399de5"] ;
261 -> 263 ;
264 [label="gini = 0.0\nsamples = 596\nvalue = [596, 0]\nclass = 0", fillcolor="#e58139"] ;
260 -> 264 ;
265 [label="bmi <= -1.201\ngini = 0.022\nsamples = 909\nvalue = [899, 10]\nclass = 0", fillcolor="#e5823b"] ;
259 -> 265 ;
266 [label="bmi <= -1.215\ngini = 0.165\nsamples = 11\nvalue = [10, 1]\nclass = 0", fillcolor="#e88e4d"] ;
265 -> 266 ;
267 [label="gini = 0.0\nsamples = 10\nvalue = [10, 0]\nclass = 0", fillcolor="#e58139"] ;
266 -> 267 ;
268 [label="gini = 0.0\nsamples = 1\nvalue = [0, 1]\nclass = 1", fillcolor="#399de5"] ;
266 -> 268 ;
269 [label="age <= 32.5\ngini = 0.02\nsamples = 898\nvalue = [889, 9]\nclass = 0", fillcolor="#e5823b"] ;
265 -> 269 ;
270 [label="blood_glucose_level <= 0.453\ngini = 0.03\nsamples = 585\nvalue = [576, 9]\nclass = 0", fillcolor="#e5833c"] ;
269 -> 270 ;
271 [label="HbA1c_level <= 0.208\ngini = 0.05\nsamples = 313\nvalue = [305, 8]\nclass = 0", fillcolor="#e6843e"] ;
270 -> 271 ;
272 [label="bmi <= 0.006\ngini = 0.142\nsamples = 39\nvalue = [36, 3]\nclass = 0", fillcolor="#e78c49"] ;
271 -> 272 ;
273 [label="blood_glucose_level <= 0.293\ngini = 0.185\nsamples = 29\nvalue = [26, 3]\nclass = 0", fillcolor="#e89050"] ;
272 -> 273 ;
274 [label="blood_glucose_level <= -0.247\ngini = 0.236\nsamples = 22\nvalue = [19, 3]\nclass = 0", fillcolor="#e99558"] ;
273 -> 274 ;
275 [label="gini = 0.0\nsamples = 6\nvalue = [6, 0]\nclass = 0", fillcolor="#e58139"] ;
274 -> 275 ;
276 [label="age <= 30.5\ngini = 0.305\nsamples = 16\nvalue = [13, 3]\nclass = 0", fillcolor="#eb9e67"] ;
274 -> 276 ;
277 [label="age <= 28.5\ngini = 0.337\nsamples = 14\nvalue = [11, 3]\nclass = 0", fillcolor="#eca36f"] ;
276 -> 277 ;
278 [label="smoking_history <= 0.5\ngini = 0.26\nsamples = 13\nvalue = [11, 2]\nclass = 0", fillcolor="#ea985d"] ;
277 -> 278 ;
279 [label="age <= 26.5\ngini = 0.408\nsamples = 7\nvalue = [5, 2]\nclass = 0", fillcolor="#efb388"] ;
278 -> 279 ;
280 [label="age <= 25.0\ngini = 0.5\nsamples = 4\nvalue = [2, 2]\nclass = 0", fillcolor="#ffffff"] ;
279 -> 280 ;
281 [label="blood_glucose_level <= 0.109\ngini = 0.444\nsamples = 3\nvalue = [2, 1]\nclass = 0", fillcolor="#f2c09c"] ;
280 -> 281 ;
282 [label="gini = 0.0\nsamples = 2\nvalue = [2, 0]\nclass = 0", fillcolor="#e58139"] ;
281 -> 282 ;
283 [label="gini = 0.0\nsamples = 1\nvalue = [0, 1]\nclass = 1", fillcolor="#399de5"] ;
281 -> 283 ;
284 [label="gini = 0.0\nsamples = 1\nvalue = [0, 1]\nclass = 1", fillcolor="#399de5"] ;
280 -> 284 ;
285 [label="gini = 0.0\nsamples = 3\nvalue = [3, 0]\nclass = 0", fillcolor="#e58139"] ;
279 -> 285 ;
286 [label="gini = 0.0\nsamples = 6\nvalue = [6, 0]\nclass = 0", fillcolor="#e58139"] ;
278 -> 286 ;
287 [label="gini = 0.0\nsamples = 1\nvalue = [0, 1]\nclass = 1", fillcolor="#399de5"] ;
277 -> 287 ;
288 [label="gini = 0.0\nsamples = 2\nvalue = [2, 0]\nclass = 0", fillcolor="#e58139"] ;
276 -> 288 ;
289 [label="gini = 0.0\nsamples = 7\nvalue = [7, 0]\nclass = 0", fillcolor="#e58139"] ;
273 -> 289 ;
290 [label="gini = 0.0\nsamples = 10\nvalue = [10, 0]\nclass = 0", fillcolor="#e58139"] ;
272 -> 290 ;
291 [label="HbA1c_level <= 0.348\ngini = 0.036\nsamples = 274\nvalue = [269, 5]\nclass = 0", fillcolor="#e5833d"] ;
271 -> 291 ;
292 [label="gini = 0.0\nsamples = 53\nvalue = [53, 0]\nclass = 0", fillcolor="#e58139"] ;
291 -> 292 ;
293 [label="age <= 24.5\ngini = 0.044\nsamples = 221\nvalue = [216, 5]\nclass = 0", fillcolor="#e6843e"] ;
291 -> 293 ;
294 [label="gini = 0.0\nsamples = 42\nvalue = [42, 0]\nclass = 0", fillcolor="#e58139"] ;
293 -> 294 ;
295 [label="age <= 28.5\ngini = 0.054\nsamples = 179\nvalue = [174, 5]\nclass = 0", fillcolor="#e6853f"] ;
293 -> 295 ;
296 [label="blood_glucose_level <= -0.075\ngini = 0.087\nsamples = 88\nvalue = [84, 4]\nclass = 0", fillcolor="#e68742"] ;
295 -> 296 ;
297 [label="gini = 0.0\nsamples = 35\nvalue = [35, 0]\nclass = 0", fillcolor="#e58139"] ;
296 -> 297 ;
298 [label="HbA1c_level <= 0.768\ngini = 0.14\nsamples = 53\nvalue = [49, 4]\nclass = 0", fillcolor="#e78b49"] ;
296 -> 298 ;
299 [label="age <= 27.5\ngini = 0.208\nsamples = 34\nvalue = [30, 4]\nclass = 0", fillcolor="#e89253"] ;
298 -> 299 ;
300 [label="HbA1c_level <= 0.581\ngini = 0.142\nsamples = 26\nvalue = [24, 2]\nclass = 0", fillcolor="#e78c49"] ;
299 -> 300 ;
301 [label="bmi <= -0.434\ngini = 0.087\nsamples = 22\nvalue = [21, 1]\nclass = 0", fillcolor="#e68742"] ;
300 -> 301 ;
302 [label="bmi <= -0.571\ngini = 0.375\nsamples = 4\nvalue = [3, 1]\nclass = 0", fillcolor="#eeab7b"] ;
301 -> 302 ;
303 [label="gini = 0.0\nsamples = 3\nvalue = [3, 0]\nclass = 0", fillcolor="#e58139"] ;
302 -> 303 ;
304 [label="gini = 0.0\nsamples = 1\nvalue = [0, 1]\nclass = 1", fillcolor="#399de5"] ;
302 -> 304 ;
305 [label="gini = 0.0\nsamples = 18\nvalue = [18, 0]\nclass = 0", fillcolor="#e58139"] ;
301 -> 305 ;
306 [label="age <= 25.5\ngini = 0.375\nsamples = 4\nvalue = [3, 1]\nclass = 0", fillcolor="#eeab7b"] ;
300 -> 306 ;
307 [label="gini = 0.0\nsamples = 1\nvalue = [0, 1]\nclass = 1", fillcolor="#399de5"] ;
306 -> 307 ;
308 [label="gini = 0.0\nsamples = 3\nvalue = [3, 0]\nclass = 0", fillcolor="#e58139"] ;
306 -> 308 ;
309 [label="bmi <= -0.086\ngini = 0.375\nsamples = 8\nvalue = [6, 2]\nclass = 0", fillcolor="#eeab7b"] ;
299 -> 309 ;
310 [label="gini = 0.0\nsamples = 4\nvalue = [4, 0]\nclass = 0", fillcolor="#e58139"] ;
309 -> 310 ;
311 [label="blood_glucose_level <= 0.109\ngini = 0.5\nsamples = 4\nvalue = [2, 2]\nclass = 0", fillcolor="#ffffff"] ;
309 -> 311 ;
312 [label="HbA1c_level <= 0.581\ngini = 0.444\nsamples = 3\nvalue = [1, 2]\nclass = 1", fillcolor="#9ccef2"] ;
311 -> 312 ;
313 [label="gini = 0.0\nsamples = 2\nvalue = [0, 2]\nclass = 1", fillcolor="#399de5"] ;
312 -> 313 ;
314 [label="gini = 0.0\nsamples = 1\nvalue = [1, 0]\nclass = 0", fillcolor="#e58139"] ;
312 -> 314 ;
315 [label="gini = 0.0\nsamples = 1\nvalue = [1, 0]\nclass = 0", fillcolor="#e58139"] ;
311 -> 315 ;
316 [label="gini = 0.0\nsamples = 19\nvalue = [19, 0]\nclass = 0", fillcolor="#e58139"] ;
298 -> 316 ;
317 [label="HbA1c_level <= 0.955\ngini = 0.022\nsamples = 91\nvalue = [90, 1]\nclass = 0", fillcolor="#e5823b"] ;
295 -> 317 ;
318 [label="gini = 0.0\nsamples = 73\nvalue = [73, 0]\nclass = 0", fillcolor="#e58139"] ;
317 -> 318 ;
319 [label="smoking_history <= 0.5\ngini = 0.105\nsamples = 18\nvalue = [17, 1]\nclass = 0", fillcolor="#e78845"] ;
317 -> 319 ;
320 [label="gini = 0.0\nsamples = 13\nvalue = [13, 0]\nclass = 0", fillcolor="#e58139"] ;
319 -> 320 ;
321 [label="bmi <= -0.228\ngini = 0.32\nsamples = 5\nvalue = [4, 1]\nclass = 0", fillcolor="#eca06a"] ;
319 -> 321 ;
322 [label="gini = 0.0\nsamples = 2\nvalue = [2, 0]\nclass = 0", fillcolor="#e58139"] ;
321 -> 322 ;
323 [label="bmi <= 0.103\ngini = 0.444\nsamples = 3\nvalue = [2, 1]\nclass = 0", fillcolor="#f2c09c"] ;
321 -> 323 ;
324 [label="age <= 31.0\ngini = 0.5\nsamples = 2\nvalue = [1, 1]\nclass = 0", fillcolor="#ffffff"] ;
323 -> 324 ;
325 [label="gini = 0.0\nsamples = 1\nvalue = [1, 0]\nclass = 0", fillcolor="#e58139"] ;
324 -> 325 ;
326 [label="gini = 0.0\nsamples = 1\nvalue = [0, 1]\nclass = 1", fillcolor="#399de5"] ;
324 -> 326 ;
327 [label="gini = 0.0\nsamples = 1\nvalue = [1, 0]\nclass = 0", fillcolor="#e58139"] ;
323 -> 327 ;
328 [label="age <= 31.5\ngini = 0.007\nsamples = 272\nvalue = [271, 1]\nclass = 0", fillcolor="#e5813a"] ;
270 -> 328 ;
329 [label="gini = 0.0\nsamples = 246\nvalue = [246, 0]\nclass = 0", fillcolor="#e58139"] ;
328 -> 329 ;
330 [label="HbA1c_level <= 0.768\ngini = 0.074\nsamples = 26\nvalue = [25, 1]\nclass = 0", fillcolor="#e68641"] ;
328 -> 330 ;
331 [label="gini = 0.0\nsamples = 17\nvalue = [17, 0]\nclass = 0", fillcolor="#e58139"] ;
330 -> 331 ;
332 [label="blood_glucose_level <= 1.03\ngini = 0.198\nsamples = 9\nvalue = [8, 1]\nclass = 0", fillcolor="#e89152"] ;
330 -> 332 ;
333 [label="blood_glucose_level <= 0.514\ngini = 0.375\nsamples = 4\nvalue = [3, 1]\nclass = 0", fillcolor="#eeab7b"] ;
332 -> 333 ;
334 [label="gini = 0.0\nsamples = 1\nvalue = [1, 0]\nclass = 0", fillcolor="#e58139"] ;
333 -> 334 ;
335 [label="HbA1c_level <= 0.955\ngini = 0.444\nsamples = 3\nvalue = [2, 1]\nclass = 0", fillcolor="#f2c09c"] ;
333 -> 335 ;
336 [label="gini = 0.5\nsamples = 2\nvalue = [1, 1]\nclass = 0", fillcolor="#ffffff"] ;
335 -> 336 ;
337 [label="gini = 0.0\nsamples = 1\nvalue = [1, 0]\nclass = 0", fillcolor="#e58139"] ;
335 -> 337 ;
338 [label="gini = 0.0\nsamples = 5\nvalue = [5, 0]\nclass = 0", fillcolor="#e58139"] ;
332 -> 338 ;
339 [label="gini = 0.0\nsamples = 313\nvalue = [313, 0]\nclass = 0", fillcolor="#e58139"] ;
269 -> 339 ;
340 [label="HbA1c_level <= 0.955\ngini = 0.038\nsamples = 1255\nvalue = [1231, 24]\nclass = 0", fillcolor="#e6833d"] ;
258 -> 340 ;
341 [label="age <= 33.5\ngini = 0.03\nsamples = 1062\nvalue = [1046, 16]\nclass = 0", fillcolor="#e5833c"] ;
340 -> 341 ;
342 [label="blood_glucose_level <= 0.527\ngini = 0.021\nsamples = 848\nvalue = [839, 9]\nclass = 0", fillcolor="#e5823b"] ;
341 -> 342 ;
343 [label="bmi <= -0.729\ngini = 0.012\nsamples = 640\nvalue = [636, 4]\nclass = 0", fillcolor="#e5823a"] ;
342 -> 343 ;
344 [label="bmi <= -0.735\ngini = 0.039\nsamples = 149\nvalue = [146, 3]\nclass = 0", fillcolor="#e6843d"] ;
343 -> 344 ;
345 [label="age <= 23.5\ngini = 0.027\nsamples = 148\nvalue = [146, 2]\nclass = 0", fillcolor="#e5833c"] ;
344 -> 345 ;
346 [label="gini = 0.0\nsamples = 112\nvalue = [112, 0]\nclass = 0", fillcolor="#e58139"] ;
345 -> 346 ;
347 [label="age <= 25.5\ngini = 0.105\nsamples = 36\nvalue = [34, 2]\nclass = 0", fillcolor="#e78845"] ;
345 -> 347 ;
348 [label="HbA1c_level <= 0.208\ngini = 0.26\nsamples = 13\nvalue = [11, 2]\nclass = 0", fillcolor="#ea985d"] ;
347 -> 348 ;
349 [label="gini = 0.0\nsamples = 1\nvalue = [0, 1]\nclass = 1", fillcolor="#399de5"] ;
348 -> 349 ;
350 [label="HbA1c_level <= 0.768\ngini = 0.153\nsamples = 12\nvalue = [11, 1]\nclass = 0", fillcolor="#e78c4b"] ;
348 -> 350 ;
351 [label="gini = 0.0\nsamples = 8\nvalue = [8, 0]\nclass = 0", fillcolor="#e58139"] ;
350 -> 351 ;
352 [label="blood_glucose_level <= 0.33\ngini = 0.375\nsamples = 4\nvalue = [3, 1]\nclass = 0", fillcolor="#eeab7b"] ;
350 -> 352 ;
353 [label="gini = 0.0\nsamples = 1\nvalue = [0, 1]\nclass = 1", fillcolor="#399de5"] ;
352 -> 353 ;
354 [label="gini = 0.0\nsamples = 3\nvalue = [3, 0]\nclass = 0", fillcolor="#e58139"] ;
352 -> 354 ;
355 [label="gini = 0.0\nsamples = 23\nvalue = [23, 0]\nclass = 0", fillcolor="#e58139"] ;
347 -> 355 ;
356 [label="gini = 0.0\nsamples = 1\nvalue = [0, 1]\nclass = 1", fillcolor="#399de5"] ;
344 -> 356 ;
357 [label="bmi <= 0.189\ngini = 0.004\nsamples = 491\nvalue = [490, 1]\nclass = 0", fillcolor="#e58139"] ;
343 -> 357 ;
358 [label="gini = 0.0\nsamples = 434\nvalue = [434, 0]\nclass = 0", fillcolor="#e58139"] ;
357 -> 358 ;
359 [label="bmi <= 0.192\ngini = 0.034\nsamples = 57\nvalue = [56, 1]\nclass = 0", fillcolor="#e5833d"] ;
357 -> 359 ;
360 [label="gini = 0.0\nsamples = 1\nvalue = [0, 1]\nclass = 1", fillcolor="#399de5"] ;
359 -> 360 ;
361 [label="gini = 0.0\nsamples = 56\nvalue = [56, 0]\nclass = 0", fillcolor="#e58139"] ;
359 -> 361 ;
362 [label="HbA1c_level <= 0.768\ngini = 0.047\nsamples = 208\nvalue = [203, 5]\nclass = 0", fillcolor="#e6843e"] ;
342 -> 362 ;
363 [label="age <= 21.5\ngini = 0.032\nsamples = 185\nvalue = [182, 3]\nclass = 0", fillcolor="#e5833c"] ;
362 -> 363 ;
364 [label="age <= 19.5\ngini = 0.071\nsamples = 81\nvalue = [78, 3]\nclass = 0", fillcolor="#e68641"] ;
363 -> 364 ;
365 [label="HbA1c_level <= 0.208\ngini = 0.034\nsamples = 57\nvalue = [56, 1]\nclass = 0", fillcolor="#e5833d"] ;
364 -> 365 ;
366 [label="age <= 16.5\ngini = 0.142\nsamples = 13\nvalue = [12, 1]\nclass = 0", fillcolor="#e78c49"] ;
365 -> 366 ;
367 [label="age <= 15.5\ngini = 0.278\nsamples = 6\nvalue = [5, 1]\nclass = 0", fillcolor="#ea9a61"] ;
366 -> 367 ;
368 [label="gini = 0.0\nsamples = 5\nvalue = [5, 0]\nclass = 0", fillcolor="#e58139"] ;
367 -> 368 ;
369 [label="gini = 0.0\nsamples = 1\nvalue = [0, 1]\nclass = 1", fillcolor="#399de5"] ;
367 -> 369 ;
370 [label="gini = 0.0\nsamples = 7\nvalue = [7, 0]\nclass = 0", fillcolor="#e58139"] ;
366 -> 370 ;
371 [label="gini = 0.0\nsamples = 44\nvalue = [44, 0]\nclass = 0", fillcolor="#e58139"] ;
365 -> 371 ;
372 [label="blood_glucose_level <= 1.03\ngini = 0.153\nsamples = 24\nvalue = [22, 2]\nclass = 0", fillcolor="#e78c4b"] ;
364 -> 372 ;
373 [label="gini = 0.0\nsamples = 11\nvalue = [11, 0]\nclass = 0", fillcolor="#e58139"] ;
372 -> 373 ;
374 [label="bmi <= 0.096\ngini = 0.26\nsamples = 13\nvalue = [11, 2]\nclass = 0", fillcolor="#ea985d"] ;
372 -> 374 ;
375 [label="age <= 20.5\ngini = 0.165\nsamples = 11\nvalue = [10, 1]\nclass = 0", fillcolor="#e88e4d"] ;
374 -> 375 ;
376 [label="gini = 0.0\nsamples = 8\nvalue = [8, 0]\nclass = 0", fillcolor="#e58139"] ;
375 -> 376 ;
377 [label="bmi <= -0.406\ngini = 0.444\nsamples = 3\nvalue = [2, 1]\nclass = 0", fillcolor="#f2c09c"] ;
375 -> 377 ;
378 [label="gini = 0.0\nsamples = 2\nvalue = [2, 0]\nclass = 0", fillcolor="#e58139"] ;
377 -> 378 ;
379 [label="gini = 0.0\nsamples = 1\nvalue = [0, 1]\nclass = 1", fillcolor="#399de5"] ;
377 -> 379 ;
380 [label="bmi <= 0.283\ngini = 0.5\nsamples = 2\nvalue = [1, 1]\nclass = 0", fillcolor="#ffffff"] ;
374 -> 380 ;
381 [label="gini = 0.0\nsamples = 1\nvalue = [0, 1]\nclass = 1", fillcolor="#399de5"] ;
380 -> 381 ;
382 [label="gini = 0.0\nsamples = 1\nvalue = [1, 0]\nclass = 0", fillcolor="#e58139"] ;
380 -> 382 ;
383 [label="gini = 0.0\nsamples = 104\nvalue = [104, 0]\nclass = 0", fillcolor="#e58139"] ;
363 -> 383 ;
384 [label="age <= 15.5\ngini = 0.159\nsamples = 23\nvalue = [21, 2]\nclass = 0", fillcolor="#e78d4c"] ;
362 -> 384 ;
385 [label="gini = 0.0\nsamples = 1\nvalue = [0, 1]\nclass = 1", fillcolor="#399de5"] ;
384 -> 385 ;
386 [label="age <= 30.5\ngini = 0.087\nsamples = 22\nvalue = [21, 1]\nclass = 0", fillcolor="#e68742"] ;
384 -> 386 ;
387 [label="gini = 0.0\nsamples = 21\nvalue = [21, 0]\nclass = 0", fillcolor="#e58139"] ;
386 -> 387 ;
388 [label="gini = 0.0\nsamples = 1\nvalue = [0, 1]\nclass = 1", fillcolor="#399de5"] ;
386 -> 388 ;
389 [label="blood_glucose_level <= 0.453\ngini = 0.063\nsamples = 214\nvalue = [207, 7]\nclass = 0", fillcolor="#e68540"] ;
341 -> 389 ;
390 [label="smoking_history <= 3.5\ngini = 0.113\nsamples = 116\nvalue = [109, 7]\nclass = 0", fillcolor="#e78946"] ;
389 -> 390 ;
391 [label="bmi <= -0.238\ngini = 0.287\nsamples = 23\nvalue = [19, 4]\nclass = 0", fillcolor="#ea9c63"] ;
390 -> 391 ;
392 [label="HbA1c_level <= 0.768\ngini = 0.49\nsamples = 7\nvalue = [4, 3]\nclass = 0", fillcolor="#f8e0ce"] ;
391 -> 392 ;
393 [label="HbA1c_level <= 0.395\ngini = 0.48\nsamples = 5\nvalue = [2, 3]\nclass = 1", fillcolor="#bddef6"] ;
392 -> 393 ;
394 [label="bmi <= -0.335\ngini = 0.444\nsamples = 3\nvalue = [2, 1]\nclass = 0", fillcolor="#f2c09c"] ;
393 -> 394 ;
395 [label="gini = 0.0\nsamples = 2\nvalue = [2, 0]\nclass = 0", fillcolor="#e58139"] ;
394 -> 395 ;
396 [label="gini = 0.0\nsamples = 1\nvalue = [0, 1]\nclass = 1", fillcolor="#399de5"] ;
394 -> 396 ;
397 [label="gini = 0.0\nsamples = 2\nvalue = [0, 2]\nclass = 1", fillcolor="#399de5"] ;
393 -> 397 ;
398 [label="gini = 0.0\nsamples = 2\nvalue = [2, 0]\nclass = 0", fillcolor="#e58139"] ;
392 -> 398 ;
399 [label="HbA1c_level <= 0.348\ngini = 0.117\nsamples = 16\nvalue = [15, 1]\nclass = 0", fillcolor="#e78946"] ;
391 -> 399 ;
400 [label="smoking_history <= 2.5\ngini = 0.32\nsamples = 5\nvalue = [4, 1]\nclass = 0", fillcolor="#eca06a"] ;
399 -> 400 ;
401 [label="blood_glucose_level <= -0.014\ngini = 0.5\nsamples = 2\nvalue = [1, 1]\nclass = 0", fillcolor="#ffffff"] ;
400 -> 401 ;
402 [label="gini = 0.0\nsamples = 1\nvalue = [1, 0]\nclass = 0", fillcolor="#e58139"] ;
401 -> 402 ;
403 [label="gini = 0.0\nsamples = 1\nvalue = [0, 1]\nclass = 1", fillcolor="#399de5"] ;
401 -> 403 ;
404 [label="gini = 0.0\nsamples = 3\nvalue = [3, 0]\nclass = 0", fillcolor="#e58139"] ;
400 -> 404 ;
405 [label="gini = 0.0\nsamples = 11\nvalue = [11, 0]\nclass = 0", fillcolor="#e58139"] ;
399 -> 405 ;
406 [label="age <= 37.5\ngini = 0.062\nsamples = 93\nvalue = [90, 3]\nclass = 0", fillcolor="#e68540"] ;
390 -> 406 ;
407 [label="bmi <= -0.481\ngini = 0.028\nsamples = 71\nvalue = [70, 1]\nclass = 0", fillcolor="#e5833c"] ;
406 -> 407 ;
408 [label="bmi <= -0.485\ngini = 0.133\nsamples = 14\nvalue = [13, 1]\nclass = 0", fillcolor="#e78b48"] ;
407 -> 408 ;
409 [label="gini = 0.0\nsamples = 13\nvalue = [13, 0]\nclass = 0", fillcolor="#e58139"] ;
408 -> 409 ;
410 [label="gini = 0.0\nsamples = 1\nvalue = [0, 1]\nclass = 1", fillcolor="#399de5"] ;
408 -> 410 ;
411 [label="gini = 0.0\nsamples = 57\nvalue = [57, 0]\nclass = 0", fillcolor="#e58139"] ;
407 -> 411 ;
412 [label="blood_glucose_level <= 0.293\ngini = 0.165\nsamples = 22\nvalue = [20, 2]\nclass = 0", fillcolor="#e88e4d"] ;
406 -> 412 ;
413 [label="HbA1c_level <= 0.208\ngini = 0.095\nsamples = 20\nvalue = [19, 1]\nclass = 0", fillcolor="#e68843"] ;
412 -> 413 ;
414 [label="bmi <= -0.252\ngini = 0.278\nsamples = 6\nvalue = [5, 1]\nclass = 0", fillcolor="#ea9a61"] ;
413 -> 414 ;
415 [label="gini = 0.0\nsamples = 3\nvalue = [3, 0]\nclass = 0", fillcolor="#e58139"] ;
414 -> 415 ;
416 [label="bmi <= -0.049\ngini = 0.444\nsamples = 3\nvalue = [2, 1]\nclass = 0", fillcolor="#f2c09c"] ;
414 -> 416 ;
417 [label="gini = 0.0\nsamples = 1\nvalue = [0, 1]\nclass = 1", fillcolor="#399de5"] ;
416 -> 417 ;
418 [label="gini = 0.0\nsamples = 2\nvalue = [2, 0]\nclass = 0", fillcolor="#e58139"] ;
416 -> 418 ;
419 [label="gini = 0.0\nsamples = 14\nvalue = [14, 0]\nclass = 0", fillcolor="#e58139"] ;
413 -> 419 ;
420 [label="bmi <= 0.151\ngini = 0.5\nsamples = 2\nvalue = [1, 1]\nclass = 0", fillcolor="#ffffff"] ;
412 -> 420 ;
421 [label="gini = 0.0\nsamples = 1\nvalue = [0, 1]\nclass = 1", fillcolor="#399de5"] ;
420 -> 421 ;
422 [label="gini = 0.0\nsamples = 1\nvalue = [1, 0]\nclass = 0", fillcolor="#e58139"] ;
420 -> 422 ;
423 [label="gini = 0.0\nsamples = 98\nvalue = [98, 0]\nclass = 0", fillcolor="#e58139"] ;
389 -> 423 ;
424 [label="age <= 14.5\ngini = 0.079\nsamples = 193\nvalue = [185, 8]\nclass = 0", fillcolor="#e68642"] ;
340 -> 424 ;
425 [label="blood_glucose_level <= 0.465\ngini = 0.375\nsamples = 8\nvalue = [6, 2]\nclass = 0", fillcolor="#eeab7b"] ;
424 -> 425 ;
426 [label="gini = 0.0\nsamples = 5\nvalue = [5, 0]\nclass = 0", fillcolor="#e58139"] ;
425 -> 426 ;
427 [label="bmi <= -1.074\ngini = 0.444\nsamples = 3\nvalue = [1, 2]\nclass = 1", fillcolor="#9ccef2"] ;
425 -> 427 ;
428 [label="gini = 0.0\nsamples = 1\nvalue = [1, 0]\nclass = 0", fillcolor="#e58139"] ;
427 -> 428 ;
429 [label="gini = 0.0\nsamples = 2\nvalue = [0, 2]\nclass = 1", fillcolor="#399de5"] ;
427 -> 429 ;
430 [label="bmi <= 0.307\ngini = 0.063\nsamples = 185\nvalue = [179, 6]\nclass = 0", fillcolor="#e68540"] ;
424 -> 430 ;
431 [label="bmi <= -0.786\ngini = 0.045\nsamples = 175\nvalue = [171, 4]\nclass = 0", fillcolor="#e6843e"] ;
430 -> 431 ;
432 [label="bmi <= -0.793\ngini = 0.137\nsamples = 27\nvalue = [25, 2]\nclass = 0", fillcolor="#e78b49"] ;
431 -> 432 ;
433 [label="bmi <= -0.867\ngini = 0.074\nsamples = 26\nvalue = [25, 1]\nclass = 0", fillcolor="#e68641"] ;
432 -> 433 ;
434 [label="gini = 0.0\nsamples = 21\nvalue = [21, 0]\nclass = 0", fillcolor="#e58139"] ;
433 -> 434 ;
435 [label="bmi <= -0.854\ngini = 0.32\nsamples = 5\nvalue = [4, 1]\nclass = 0", fillcolor="#eca06a"] ;
433 -> 435 ;
436 [label="gini = 0.0\nsamples = 1\nvalue = [0, 1]\nclass = 1", fillcolor="#399de5"] ;
435 -> 436 ;
437 [label="gini = 0.0\nsamples = 4\nvalue = [4, 0]\nclass = 0", fillcolor="#e58139"] ;
435 -> 437 ;
438 [label="gini = 0.0\nsamples = 1\nvalue = [0, 1]\nclass = 1", fillcolor="#399de5"] ;
432 -> 438 ;
439 [label="bmi <= 0.115\ngini = 0.027\nsamples = 148\nvalue = [146, 2]\nclass = 0", fillcolor="#e5833c"] ;
431 -> 439 ;
440 [label="blood_glucose_level <= 0.293\ngini = 0.015\nsamples = 132\nvalue = [131, 1]\nclass = 0", fillcolor="#e5823b"] ;
439 -> 440 ;
441 [label="blood_glucose_level <= 0.109\ngini = 0.035\nsamples = 56\nvalue = [55, 1]\nclass = 0", fillcolor="#e5833d"] ;
440 -> 441 ;
442 [label="gini = 0.0\nsamples = 48\nvalue = [48, 0]\nclass = 0", fillcolor="#e58139"] ;
441 -> 442 ;
443 [label="bmi <= -0.055\ngini = 0.219\nsamples = 8\nvalue = [7, 1]\nclass = 0", fillcolor="#e99355"] ;
441 -> 443 ;
444 [label="gini = 0.0\nsamples = 6\nvalue = [6, 0]\nclass = 0", fillcolor="#e58139"] ;
443 -> 444 ;
445 [label="age <= 32.5\ngini = 0.5\nsamples = 2\nvalue = [1, 1]\nclass = 0", fillcolor="#ffffff"] ;
443 -> 445 ;
446 [label="gini = 0.0\nsamples = 1\nvalue = [0, 1]\nclass = 1", fillcolor="#399de5"] ;
445 -> 446 ;
447 [label="gini = 0.0\nsamples = 1\nvalue = [1, 0]\nclass = 0", fillcolor="#e58139"] ;
445 -> 447 ;
448 [label="gini = 0.0\nsamples = 76\nvalue = [76, 0]\nclass = 0", fillcolor="#e58139"] ;
440 -> 448 ;
449 [label="bmi <= 0.132\ngini = 0.117\nsamples = 16\nvalue = [15, 1]\nclass = 0", fillcolor="#e78946"] ;
439 -> 449 ;
450 [label="smoking_history <= 3.0\ngini = 0.5\nsamples = 2\nvalue = [1, 1]\nclass = 0", fillcolor="#ffffff"] ;
449 -> 450 ;
451 [label="gini = 0.0\nsamples = 1\nvalue = [1, 0]\nclass = 0", fillcolor="#e58139"] ;
450 -> 451 ;
452 [label="gini = 0.0\nsamples = 1\nvalue = [0, 1]\nclass = 1", fillcolor="#399de5"] ;
450 -> 452 ;
453 [label="gini = 0.0\nsamples = 14\nvalue = [14, 0]\nclass = 0", fillcolor="#e58139"] ;
449 -> 453 ;
454 [label="age <= 31.5\ngini = 0.32\nsamples = 10\nvalue = [8, 2]\nclass = 0", fillcolor="#eca06a"] ;
430 -> 454 ;
455 [label="gini = 0.0\nsamples = 8\nvalue = [8, 0]\nclass = 0", fillcolor="#e58139"] ;
454 -> 455 ;
456 [label="gini = 0.0\nsamples = 2\nvalue = [0, 2]\nclass = 1", fillcolor="#399de5"] ;
454 -> 456 ;
457 [label="HbA1c_level <= 0.581\ngini = 0.045\nsamples = 474\nvalue = [463, 11]\nclass = 0", fillcolor="#e6843e"] ;
69 -> 457 ;
458 [label="age <= 16.5\ngini = 0.016\nsamples = 256\nvalue = [254, 2]\nclass = 0", fillcolor="#e5823b"] ;
457 -> 458 ;
459 [label="gender <= 0.5\ngini = 0.298\nsamples = 11\nvalue = [9, 2]\nclass = 0", fillcolor="#eb9d65"] ;
458 -> 459 ;
460 [label="blood_glucose_level <= 0.478\ngini = 0.444\nsamples = 6\nvalue = [4, 2]\nclass = 0", fillcolor="#f2c09c"] ;
459 -> 460 ;
461 [label="gini = 0.0\nsamples = 3\nvalue = [3, 0]\nclass = 0", fillcolor="#e58139"] ;
460 -> 461 ;
462 [label="bmi <= -0.9\ngini = 0.444\nsamples = 3\nvalue = [1, 2]\nclass = 1", fillcolor="#9ccef2"] ;
460 -> 462 ;
463 [label="gini = 0.0\nsamples = 1\nvalue = [1, 0]\nclass = 0", fillcolor="#e58139"] ;
462 -> 463 ;
464 [label="gini = 0.0\nsamples = 2\nvalue = [0, 2]\nclass = 1", fillcolor="#399de5"] ;
462 -> 464 ;
465 [label="gini = 0.0\nsamples = 5\nvalue = [5, 0]\nclass = 0", fillcolor="#e58139"] ;
459 -> 465 ;
466 [label="gini = 0.0\nsamples = 245\nvalue = [245, 0]\nclass = 0", fillcolor="#e58139"] ;
458 -> 466 ;
467 [label="age <= 33.5\ngini = 0.079\nsamples = 218\nvalue = [209, 9]\nclass = 0", fillcolor="#e68642"] ;
457 -> 467 ;
468 [label="blood_glucose_level <= 0.109\ngini = 0.054\nsamples = 179\nvalue = [174, 5]\nclass = 0", fillcolor="#e6853f"] ;
467 -> 468 ;
469 [label="HbA1c_level <= 0.768\ngini = 0.116\nsamples = 65\nvalue = [61, 4]\nclass = 0", fillcolor="#e78946"] ;
468 -> 469 ;
470 [label="bmi <= -0.601\ngini = 0.227\nsamples = 23\nvalue = [20, 3]\nclass = 0", fillcolor="#e99457"] ;
469 -> 470 ;
471 [label="bmi <= -0.873\ngini = 0.444\nsamples = 6\nvalue = [4, 2]\nclass = 0", fillcolor="#f2c09c"] ;
470 -> 471 ;
472 [label="gini = 0.0\nsamples = 4\nvalue = [4, 0]\nclass = 0", fillcolor="#e58139"] ;
471 -> 472 ;
473 [label="gini = 0.0\nsamples = 2\nvalue = [0, 2]\nclass = 1", fillcolor="#399de5"] ;
471 -> 473 ;
474 [label="blood_glucose_level <= -0.247\ngini = 0.111\nsamples = 17\nvalue = [16, 1]\nclass = 0", fillcolor="#e78945"] ;
470 -> 474 ;
475 [label="gender <= 0.5\ngini = 0.245\nsamples = 7\nvalue = [6, 1]\nclass = 0", fillcolor="#e9965a"] ;
474 -> 475 ;
476 [label="gini = 0.0\nsamples = 4\nvalue = [4, 0]\nclass = 0", fillcolor="#e58139"] ;
475 -> 476 ;
477 [label="age <= 22.5\ngini = 0.444\nsamples = 3\nvalue = [2, 1]\nclass = 0", fillcolor="#f2c09c"] ;
475 -> 477 ;
478 [label="gini = 0.0\nsamples = 2\nvalue = [2, 0]\nclass = 0", fillcolor="#e58139"] ;
477 -> 478 ;
479 [label="gini = 0.0\nsamples = 1\nvalue = [0, 1]\nclass = 1", fillcolor="#399de5"] ;
477 -> 479 ;
480 [label="gini = 0.0\nsamples = 10\nvalue = [10, 0]\nclass = 0", fillcolor="#e58139"] ;
474 -> 480 ;
481 [label="age <= 19.5\ngini = 0.046\nsamples = 42\nvalue = [41, 1]\nclass = 0", fillcolor="#e6843e"] ;
469 -> 481 ;
482 [label="blood_glucose_level <= -0.247\ngini = 0.165\nsamples = 11\nvalue = [10, 1]\nclass = 0", fillcolor="#e88e4d"] ;
481 -> 482 ;
483 [label="gender <= 0.5\ngini = 0.444\nsamples = 3\nvalue = [2, 1]\nclass = 0", fillcolor="#f2c09c"] ;
482 -> 483 ;
484 [label="gini = 0.0\nsamples = 1\nvalue = [0, 1]\nclass = 1", fillcolor="#399de5"] ;
483 -> 484 ;
485 [label="gini = 0.0\nsamples = 2\nvalue = [2, 0]\nclass = 0", fillcolor="#e58139"] ;
483 -> 485 ;
486 [label="gini = 0.0\nsamples = 8\nvalue = [8, 0]\nclass = 0", fillcolor="#e58139"] ;
482 -> 486 ;
487 [label="gini = 0.0\nsamples = 31\nvalue = [31, 0]\nclass = 0", fillcolor="#e58139"] ;
481 -> 487 ;
488 [label="bmi <= -0.708\ngini = 0.017\nsamples = 114\nvalue = [113, 1]\nclass = 0", fillcolor="#e5823b"] ;
468 -> 488 ;
489 [label="bmi <= -0.745\ngini = 0.074\nsamples = 26\nvalue = [25, 1]\nclass = 0", fillcolor="#e68641"] ;
488 -> 489 ;
490 [label="gini = 0.0\nsamples = 25\nvalue = [25, 0]\nclass = 0", fillcolor="#e58139"] ;
489 -> 490 ;
491 [label="gini = 0.0\nsamples = 1\nvalue = [0, 1]\nclass = 1", fillcolor="#399de5"] ;
489 -> 491 ;
492 [label="gini = 0.0\nsamples = 88\nvalue = [88, 0]\nclass = 0", fillcolor="#e58139"] ;
488 -> 492 ;
493 [label="blood_glucose_level <= 0.502\ngini = 0.184\nsamples = 39\nvalue = [35, 4]\nclass = 0", fillcolor="#e88f50"] ;
467 -> 493 ;
494 [label="bmi <= -0.42\ngini = 0.062\nsamples = 31\nvalue = [30, 1]\nclass = 0", fillcolor="#e68540"] ;
493 -> 494 ;
495 [label="bmi <= -0.524\ngini = 0.18\nsamples = 10\nvalue = [9, 1]\nclass = 0", fillcolor="#e88f4f"] ;
494 -> 495 ;
496 [label="gini = 0.0\nsamples = 9\nvalue = [9, 0]\nclass = 0", fillcolor="#e58139"] ;
495 -> 496 ;
497 [label="gini = 0.0\nsamples = 1\nvalue = [0, 1]\nclass = 1", fillcolor="#399de5"] ;
495 -> 497 ;
498 [label="gini = 0.0\nsamples = 21\nvalue = [21, 0]\nclass = 0", fillcolor="#e58139"] ;
494 -> 498 ;
499 [label="bmi <= -0.045\ngini = 0.469\nsamples = 8\nvalue = [5, 3]\nclass = 0", fillcolor="#f5cdb0"] ;
493 -> 499 ;
500 [label="gini = 0.0\nsamples = 2\nvalue = [2, 0]\nclass = 0", fillcolor="#e58139"] ;
499 -> 500 ;
501 [label="age <= 35.5\ngini = 0.5\nsamples = 6\nvalue = [3, 3]\nclass = 0", fillcolor="#ffffff"] ;
499 -> 501 ;
502 [label="gini = 0.0\nsamples = 2\nvalue = [0, 2]\nclass = 1", fillcolor="#399de5"] ;
501 -> 502 ;
503 [label="blood_glucose_level <= 0.527\ngini = 0.375\nsamples = 4\nvalue = [3, 1]\nclass = 0", fillcolor="#eeab7b"] ;
501 -> 503 ;
504 [label="bmi <= 0.122\ngini = 0.5\nsamples = 2\nvalue = [1, 1]\nclass = 0", fillcolor="#ffffff"] ;
503 -> 504 ;
505 [label="gini = 0.0\nsamples = 1\nvalue = [0, 1]\nclass = 1", fillcolor="#399de5"] ;
504 -> 505 ;
506 [label="gini = 0.0\nsamples = 1\nvalue = [1, 0]\nclass = 0", fillcolor="#e58139"] ;
504 -> 506 ;
507 [label="gini = 0.0\nsamples = 2\nvalue = [2, 0]\nclass = 0", fillcolor="#e58139"] ;
503 -> 507 ;
508 [label="bmi <= 0.469\ngini = 0.048\nsamples = 484\nvalue = [472, 12]\nclass = 0", fillcolor="#e6843e"] ;
68 -> 508 ;
509 [label="HbA1c_level <= 0.208\ngini = 0.375\nsamples = 4\nvalue = [3, 1]\nclass = 0", fillcolor="#eeab7b"] ;
508 -> 509 ;
510 [label="gini = 0.0\nsamples = 1\nvalue = [0, 1]\nclass = 1", fillcolor="#399de5"] ;
509 -> 510 ;
511 [label="gini = 0.0\nsamples = 3\nvalue = [3, 0]\nclass = 0", fillcolor="#e58139"] ;
509 -> 511 ;
512 [label="smoking_history <= 3.5\ngini = 0.045\nsamples = 480\nvalue = [469, 11]\nclass = 0", fillcolor="#e6843e"] ;
508 -> 512 ;
513 [label="smoking_history <= 1.5\ngini = 0.073\nsamples = 238\nvalue = [229, 9]\nclass = 0", fillcolor="#e68641"] ;
512 -> 513 ;
514 [label="age <= 36.5\ngini = 0.043\nsamples = 182\nvalue = [178, 4]\nclass = 0", fillcolor="#e6843d"] ;
513 -> 514 ;
515 [label="bmi <= 0.74\ngini = 0.024\nsamples = 166\nvalue = [164, 2]\nclass = 0", fillcolor="#e5833b"] ;
514 -> 515 ;
516 [label="HbA1c_level <= 0.348\ngini = 0.013\nsamples = 154\nvalue = [153, 1]\nclass = 0", fillcolor="#e5823a"] ;
515 -> 516 ;
517 [label="age <= 28.5\ngini = 0.04\nsamples = 49\nvalue = [48, 1]\nclass = 0", fillcolor="#e6843d"] ;
516 -> 517 ;
518 [label="gini = 0.0\nsamples = 32\nvalue = [32, 0]\nclass = 0", fillcolor="#e58139"] ;
517 -> 518 ;
519 [label="bmi <= 0.596\ngini = 0.111\nsamples = 17\nvalue = [16, 1]\nclass = 0", fillcolor="#e78945"] ;
517 -> 519 ;
520 [label="bmi <= 0.566\ngini = 0.375\nsamples = 4\nvalue = [3, 1]\nclass = 0", fillcolor="#eeab7b"] ;
519 -> 520 ;
521 [label="gini = 0.0\nsamples = 3\nvalue = [3, 0]\nclass = 0", fillcolor="#e58139"] ;
520 -> 521 ;
522 [label="gini = 0.0\nsamples = 1\nvalue = [0, 1]\nclass = 1", fillcolor="#399de5"] ;
520 -> 522 ;
523 [label="gini = 0.0\nsamples = 13\nvalue = [13, 0]\nclass = 0", fillcolor="#e58139"] ;
519 -> 523 ;
524 [label="gini = 0.0\nsamples = 105\nvalue = [105, 0]\nclass = 0", fillcolor="#e58139"] ;
516 -> 524 ;
525 [label="bmi <= 0.742\ngini = 0.153\nsamples = 12\nvalue = [11, 1]\nclass = 0", fillcolor="#e78c4b"] ;
515 -> 525 ;
526 [label="gini = 0.0\nsamples = 1\nvalue = [0, 1]\nclass = 1", fillcolor="#399de5"] ;
525 -> 526 ;
527 [label="gini = 0.0\nsamples = 11\nvalue = [11, 0]\nclass = 0", fillcolor="#e58139"] ;
525 -> 527 ;
528 [label="smoking_history <= 0.5\ngini = 0.219\nsamples = 16\nvalue = [14, 2]\nclass = 0", fillcolor="#e99355"] ;
514 -> 528 ;
529 [label="HbA1c_level <= 0.955\ngini = 0.346\nsamples = 9\nvalue = [7, 2]\nclass = 0", fillcolor="#eca572"] ;
528 -> 529 ;
530 [label="blood_glucose_level <= -0.075\ngini = 0.219\nsamples = 8\nvalue = [7, 1]\nclass = 0", fillcolor="#e99355"] ;
529 -> 530 ;
531 [label="HbA1c_level <= 0.301\ngini = 0.444\nsamples = 3\nvalue = [2, 1]\nclass = 0", fillcolor="#f2c09c"] ;
530 -> 531 ;
532 [label="gini = 0.0\nsamples = 2\nvalue = [2, 0]\nclass = 0", fillcolor="#e58139"] ;
531 -> 532 ;
533 [label="gini = 0.0\nsamples = 1\nvalue = [0, 1]\nclass = 1", fillcolor="#399de5"] ;
531 -> 533 ;
534 [label="gini = 0.0\nsamples = 5\nvalue = [5, 0]\nclass = 0", fillcolor="#e58139"] ;
530 -> 534 ;
535 [label="gini = 0.0\nsamples = 1\nvalue = [0, 1]\nclass = 1", fillcolor="#399de5"] ;
529 -> 535 ;
536 [label="gini = 0.0\nsamples = 7\nvalue = [7, 0]\nclass = 0", fillcolor="#e58139"] ;
528 -> 536 ;
537 [label="bmi <= 0.636\ngini = 0.163\nsamples = 56\nvalue = [51, 5]\nclass = 0", fillcolor="#e88d4c"] ;
513 -> 537 ;
538 [label="bmi <= 0.626\ngini = 0.293\nsamples = 28\nvalue = [23, 5]\nclass = 0", fillcolor="#eb9c64"] ;
537 -> 538 ;
539 [label="blood_glucose_level <= -0.075\ngini = 0.211\nsamples = 25\nvalue = [22, 3]\nclass = 0", fillcolor="#e99254"] ;
538 -> 539 ;
540 [label="gender <= 0.5\ngini = 0.5\nsamples = 4\nvalue = [2, 2]\nclass = 0", fillcolor="#ffffff"] ;
539 -> 540 ;
541 [label="gini = 0.0\nsamples = 2\nvalue = [2, 0]\nclass = 0", fillcolor="#e58139"] ;
540 -> 541 ;
542 [label="gini = 0.0\nsamples = 2\nvalue = [0, 2]\nclass = 1", fillcolor="#399de5"] ;
540 -> 542 ;
543 [label="bmi <= 0.585\ngini = 0.091\nsamples = 21\nvalue = [20, 1]\nclass = 0", fillcolor="#e68743"] ;
539 -> 543 ;
544 [label="gini = 0.0\nsamples = 16\nvalue = [16, 0]\nclass = 0", fillcolor="#e58139"] ;
543 -> 544 ;
545 [label="bmi <= 0.591\ngini = 0.32\nsamples = 5\nvalue = [4, 1]\nclass = 0", fillcolor="#eca06a"] ;
543 -> 545 ;
546 [label="gini = 0.0\nsamples = 1\nvalue = [0, 1]\nclass = 1", fillcolor="#399de5"] ;
545 -> 546 ;
547 [label="gini = 0.0\nsamples = 4\nvalue = [4, 0]\nclass = 0", fillcolor="#e58139"] ;
545 -> 547 ;
548 [label="age <= 21.5\ngini = 0.444\nsamples = 3\nvalue = [1, 2]\nclass = 1", fillcolor="#9ccef2"] ;
538 -> 548 ;
549 [label="gini = 0.0\nsamples = 1\nvalue = [1, 0]\nclass = 0", fillcolor="#e58139"] ;
548 -> 549 ;
550 [label="gini = 0.0\nsamples = 2\nvalue = [0, 2]\nclass = 1", fillcolor="#399de5"] ;
548 -> 550 ;
551 [label="gini = 0.0\nsamples = 28\nvalue = [28, 0]\nclass = 0", fillcolor="#e58139"] ;
537 -> 551 ;
552 [label="blood_glucose_level <= -0.247\ngini = 0.016\nsamples = 242\nvalue = [240, 2]\nclass = 0", fillcolor="#e5823b"] ;
512 -> 552 ;
553 [label="HbA1c_level <= 0.955\ngini = 0.124\nsamples = 30\nvalue = [28, 2]\nclass = 0", fillcolor="#e78a47"] ;
552 -> 553 ;
554 [label="HbA1c_level <= 0.768\ngini = 0.069\nsamples = 28\nvalue = [27, 1]\nclass = 0", fillcolor="#e68640"] ;
553 -> 554 ;
555 [label="gini = 0.0\nsamples = 20\nvalue = [20, 0]\nclass = 0", fillcolor="#e58139"] ;
554 -> 555 ;
556 [label="age <= 27.0\ngini = 0.219\nsamples = 8\nvalue = [7, 1]\nclass = 0", fillcolor="#e99355"] ;
554 -> 556 ;
557 [label="age <= 23.5\ngini = 0.444\nsamples = 3\nvalue = [2, 1]\nclass = 0", fillcolor="#f2c09c"] ;
556 -> 557 ;
558 [label="gini = 0.0\nsamples = 2\nvalue = [2, 0]\nclass = 0", fillcolor="#e58139"] ;
557 -> 558 ;
559 [label="gini = 0.0\nsamples = 1\nvalue = [0, 1]\nclass = 1", fillcolor="#399de5"] ;
557 -> 559 ;
560 [label="gini = 0.0\nsamples = 5\nvalue = [5, 0]\nclass = 0", fillcolor="#e58139"] ;
556 -> 560 ;
561 [label="age <= 35.5\ngini = 0.5\nsamples = 2\nvalue = [1, 1]\nclass = 0", fillcolor="#ffffff"] ;
553 -> 561 ;
562 [label="gini = 0.0\nsamples = 1\nvalue = [0, 1]\nclass = 1", fillcolor="#399de5"] ;
561 -> 562 ;
563 [label="gini = 0.0\nsamples = 1\nvalue = [1, 0]\nclass = 0", fillcolor="#e58139"] ;
561 -> 563 ;
564 [label="gini = 0.0\nsamples = 212\nvalue = [212, 0]\nclass = 0", fillcolor="#e58139"] ;
552 -> 564 ;
565 [label="blood_glucose_level <= -0.616\ngini = 0.047\nsamples = 7422\nvalue = [7244, 178]\nclass = 0", fillcolor="#e6843e"] ;
7 -> 565 ;
566 [label="gini = 0.0\nsamples = 2175\nvalue = [2175, 0]\nclass = 0", fillcolor="#e58139"] ;
565 -> 566 ;
567 [label="heart_disease <= 0.5\ngini = 0.066\nsamples = 5247\nvalue = [5069, 178]\nclass = 0", fillcolor="#e68540"] ;
565 -> 567 ;
568 [label="bmi <= 0.252\ngini = 0.063\nsamples = 5176\nvalue = [5008, 168]\nclass = 0", fillcolor="#e68540"] ;
567 -> 568 ;
569 [label="bmi <= -0.1\ngini = 0.053\nsamples = 4344\nvalue = [4226, 118]\nclass = 0", fillcolor="#e6853f"] ;
568 -> 569 ;
570 [label="gender <= 0.5\ngini = 0.034\nsamples = 1814\nvalue = [1783, 31]\nclass = 0", fillcolor="#e5833c"] ;
569 -> 570 ;
571 [label="smoking_history <= 4.5\ngini = 0.019\nsamples = 1270\nvalue = [1258, 12]\nclass = 0", fillcolor="#e5823b"] ;
570 -> 571 ;
572 [label="HbA1c_level <= 0.955\ngini = 0.015\nsamples = 1198\nvalue = [1189, 9]\nclass = 0", fillcolor="#e5823a"] ;
571 -> 572 ;
573 [label="HbA1c_level <= 0.581\ngini = 0.012\nsamples = 1027\nvalue = [1021, 6]\nclass = 0", fillcolor="#e5823a"] ;
572 -> 573 ;
574 [label="blood_glucose_level <= -0.247\ngini = 0.018\nsamples = 674\nvalue = [668, 6]\nclass = 0", fillcolor="#e5823b"] ;
573 -> 574 ;
575 [label="bmi <= -0.208\ngini = 0.05\nsamples = 78\nvalue = [76, 2]\nclass = 0", fillcolor="#e6843e"] ;
574 -> 575 ;
576 [label="HbA1c_level <= 0.208\ngini = 0.027\nsamples = 72\nvalue = [71, 1]\nclass = 0", fillcolor="#e5833c"] ;
575 -> 576 ;
577 [label="age <= 49.5\ngini = 0.117\nsamples = 16\nvalue = [15, 1]\nclass = 0", fillcolor="#e78946"] ;
576 -> 577 ;
578 [label="gini = 0.0\nsamples = 12\nvalue = [12, 0]\nclass = 0", fillcolor="#e58139"] ;
577 -> 578 ;
579 [label="smoking_history <= 2.5\ngini = 0.375\nsamples = 4\nvalue = [3, 1]\nclass = 0", fillcolor="#eeab7b"] ;
577 -> 579 ;
580 [label="gini = 0.0\nsamples = 2\nvalue = [2, 0]\nclass = 0", fillcolor="#e58139"] ;
579 -> 580 ;
581 [label="bmi <= -0.909\ngini = 0.5\nsamples = 2\nvalue = [1, 1]\nclass = 0", fillcolor="#ffffff"] ;
579 -> 581 ;
582 [label="gini = 0.0\nsamples = 1\nvalue = [1, 0]\nclass = 0", fillcolor="#e58139"] ;
581 -> 582 ;
583 [label="gini = 0.0\nsamples = 1\nvalue = [0, 1]\nclass = 1", fillcolor="#399de5"] ;
581 -> 583 ;
584 [label="gini = 0.0\nsamples = 56\nvalue = [56, 0]\nclass = 0", fillcolor="#e58139"] ;
576 -> 584 ;
585 [label="HbA1c_level <= 0.488\ngini = 0.278\nsamples = 6\nvalue = [5, 1]\nclass = 0", fillcolor="#ea9a61"] ;
575 -> 585 ;
586 [label="gini = 0.0\nsamples = 5\nvalue = [5, 0]\nclass = 0", fillcolor="#e58139"] ;
585 -> 586 ;
587 [label="gini = 0.0\nsamples = 1\nvalue = [0, 1]\nclass = 1", fillcolor="#399de5"] ;
585 -> 587 ;
588 [label="age <= 45.5\ngini = 0.013\nsamples = 596\nvalue = [592, 4]\nclass = 0", fillcolor="#e5823a"] ;
574 -> 588 ;
589 [label="age <= 43.5\ngini = 0.028\nsamples = 278\nvalue = [274, 4]\nclass = 0", fillcolor="#e5833c"] ;
588 -> 589 ;
590 [label="blood_glucose_level <= 1.03\ngini = 0.01\nsamples = 200\nvalue = [199, 1]\nclass = 0", fillcolor="#e5823a"] ;
589 -> 590 ;
591 [label="gini = 0.0\nsamples = 176\nvalue = [176, 0]\nclass = 0", fillcolor="#e58139"] ;
590 -> 591 ;
592 [label="bmi <= -0.264\ngini = 0.08\nsamples = 24\nvalue = [23, 1]\nclass = 0", fillcolor="#e68642"] ;
590 -> 592 ;
593 [label="gini = 0.0\nsamples = 21\nvalue = [21, 0]\nclass = 0", fillcolor="#e58139"] ;
592 -> 593 ;
594 [label="bmi <= -0.26\ngini = 0.444\nsamples = 3\nvalue = [2, 1]\nclass = 0", fillcolor="#f2c09c"] ;
592 -> 594 ;
595 [label="gini = 0.0\nsamples = 1\nvalue = [0, 1]\nclass = 1", fillcolor="#399de5"] ;
594 -> 595 ;
596 [label="gini = 0.0\nsamples = 2\nvalue = [2, 0]\nclass = 0", fillcolor="#e58139"] ;
594 -> 596 ;
597 [label="smoking_history <= 3.5\ngini = 0.074\nsamples = 78\nvalue = [75, 3]\nclass = 0", fillcolor="#e68641"] ;
589 -> 597 ;
598 [label="gini = 0.0\nsamples = 44\nvalue = [44, 0]\nclass = 0", fillcolor="#e58139"] ;
597 -> 598 ;
599 [label="blood_glucose_level <= 0.453\ngini = 0.161\nsamples = 34\nvalue = [31, 3]\nclass = 0", fillcolor="#e88d4c"] ;
597 -> 599 ;
600 [label="blood_glucose_level <= 0.109\ngini = 0.266\nsamples = 19\nvalue = [16, 3]\nclass = 0", fillcolor="#ea995e"] ;
599 -> 600 ;
601 [label="gini = 0.0\nsamples = 10\nvalue = [10, 0]\nclass = 0", fillcolor="#e58139"] ;
600 -> 601 ;
602 [label="bmi <= -1.051\ngini = 0.444\nsamples = 9\nvalue = [6, 3]\nclass = 0", fillcolor="#f2c09c"] ;
600 -> 602 ;
603 [label="gini = 0.0\nsamples = 2\nvalue = [2, 0]\nclass = 0", fillcolor="#e58139"] ;
602 -> 603 ;
604 [label="bmi <= -0.5\ngini = 0.49\nsamples = 7\nvalue = [4, 3]\nclass = 0", fillcolor="#f8e0ce"] ;
602 -> 604 ;
605 [label="blood_glucose_level <= 0.293\ngini = 0.48\nsamples = 5\nvalue = [2, 3]\nclass = 1", fillcolor="#bddef6"] ;
604 -> 605 ;
606 [label="bmi <= -1.018\ngini = 0.444\nsamples = 3\nvalue = [2, 1]\nclass = 0", fillcolor="#f2c09c"] ;
605 -> 606 ;
607 [label="gini = 0.0\nsamples = 1\nvalue = [0, 1]\nclass = 1", fillcolor="#399de5"] ;
606 -> 607 ;
608 [label="gini = 0.0\nsamples = 2\nvalue = [2, 0]\nclass = 0", fillcolor="#e58139"] ;
606 -> 608 ;
609 [label="gini = 0.0\nsamples = 2\nvalue = [0, 2]\nclass = 1", fillcolor="#399de5"] ;
605 -> 609 ;
610 [label="gini = 0.0\nsamples = 2\nvalue = [2, 0]\nclass = 0", fillcolor="#e58139"] ;
604 -> 610 ;
611 [label="gini = 0.0\nsamples = 15\nvalue = [15, 0]\nclass = 0", fillcolor="#e58139"] ;
599 -> 611 ;
612 [label="gini = 0.0\nsamples = 318\nvalue = [318, 0]\nclass = 0", fillcolor="#e58139"] ;
588 -> 612 ;
613 [label="gini = 0.0\nsamples = 353\nvalue = [353, 0]\nclass = 0", fillcolor="#e58139"] ;
573 -> 613 ;
614 [label="age <= 46.5\ngini = 0.034\nsamples = 171\nvalue = [168, 3]\nclass = 0", fillcolor="#e5833d"] ;
572 -> 614 ;
615 [label="gini = 0.0\nsamples = 82\nvalue = [82, 0]\nclass = 0", fillcolor="#e58139"] ;
614 -> 615 ;
616 [label="age <= 50.5\ngini = 0.065\nsamples = 89\nvalue = [86, 3]\nclass = 0", fillcolor="#e68540"] ;
614 -> 616 ;
617 [label="blood_glucose_level <= 0.109\ngini = 0.107\nsamples = 53\nvalue = [50, 3]\nclass = 0", fillcolor="#e78945"] ;
616 -> 617 ;
618 [label="bmi <= -0.754\ngini = 0.219\nsamples = 16\nvalue = [14, 2]\nclass = 0", fillcolor="#e99355"] ;
617 -> 618 ;
619 [label="age <= 48.0\ngini = 0.5\nsamples = 2\nvalue = [1, 1]\nclass = 0", fillcolor="#ffffff"] ;
618 -> 619 ;
620 [label="gini = 0.0\nsamples = 1\nvalue = [0, 1]\nclass = 1", fillcolor="#399de5"] ;
619 -> 620 ;
621 [label="gini = 0.0\nsamples = 1\nvalue = [1, 0]\nclass = 0", fillcolor="#e58139"] ;
619 -> 621 ;
622 [label="bmi <= -0.482\ngini = 0.133\nsamples = 14\nvalue = [13, 1]\nclass = 0", fillcolor="#e78b48"] ;
618 -> 622 ;
623 [label="gini = 0.0\nsamples = 11\nvalue = [11, 0]\nclass = 0", fillcolor="#e58139"] ;
622 -> 623 ;
624 [label="age <= 48.0\ngini = 0.444\nsamples = 3\nvalue = [2, 1]\nclass = 0", fillcolor="#f2c09c"] ;
622 -> 624 ;
625 [label="gini = 0.0\nsamples = 2\nvalue = [2, 0]\nclass = 0", fillcolor="#e58139"] ;
624 -> 625 ;
626 [label="gini = 0.0\nsamples = 1\nvalue = [0, 1]\nclass = 1", fillcolor="#399de5"] ;
624 -> 626 ;
627 [label="age <= 49.5\ngini = 0.053\nsamples = 37\nvalue = [36, 1]\nclass = 0", fillcolor="#e6843e"] ;
617 -> 627 ;
628 [label="gini = 0.0\nsamples = 31\nvalue = [31, 0]\nclass = 0", fillcolor="#e58139"] ;
627 -> 628 ;
629 [label="bmi <= -0.331\ngini = 0.278\nsamples = 6\nvalue = [5, 1]\nclass = 0", fillcolor="#ea9a61"] ;
627 -> 629 ;
630 [label="bmi <= -0.469\ngini = 0.444\nsamples = 3\nvalue = [2, 1]\nclass = 0", fillcolor="#f2c09c"] ;
629 -> 630 ;
631 [label="gini = 0.0\nsamples = 2\nvalue = [2, 0]\nclass = 0", fillcolor="#e58139"] ;
630 -> 631 ;
632 [label="gini = 0.0\nsamples = 1\nvalue = [0, 1]\nclass = 1", fillcolor="#399de5"] ;
630 -> 632 ;
633 [label="gini = 0.0\nsamples = 3\nvalue = [3, 0]\nclass = 0", fillcolor="#e58139"] ;
629 -> 633 ;
634 [label="gini = 0.0\nsamples = 36\nvalue = [36, 0]\nclass = 0", fillcolor="#e58139"] ;
616 -> 634 ;
635 [label="blood_glucose_level <= -0.075\ngini = 0.08\nsamples = 72\nvalue = [69, 3]\nclass = 0", fillcolor="#e68642"] ;
571 -> 635 ;
636 [label="HbA1c_level <= 0.955\ngini = 0.208\nsamples = 17\nvalue = [15, 2]\nclass = 0", fillcolor="#e89253"] ;
635 -> 636 ;
637 [label="bmi <= -0.274\ngini = 0.124\nsamples = 15\nvalue = [14, 1]\nclass = 0", fillcolor="#e78a47"] ;
636 -> 637 ;
638 [label="gini = 0.0\nsamples = 10\nvalue = [10, 0]\nclass = 0", fillcolor="#e58139"] ;
637 -> 638 ;
639 [label="bmi <= -0.202\ngini = 0.32\nsamples = 5\nvalue = [4, 1]\nclass = 0", fillcolor="#eca06a"] ;
637 -> 639 ;
640 [label="gini = 0.0\nsamples = 1\nvalue = [0, 1]\nclass = 1", fillcolor="#399de5"] ;
639 -> 640 ;
641 [label="gini = 0.0\nsamples = 4\nvalue = [4, 0]\nclass = 0", fillcolor="#e58139"] ;
639 -> 641 ;
642 [label="bmi <= -0.273\ngini = 0.5\nsamples = 2\nvalue = [1, 1]\nclass = 0", fillcolor="#ffffff"] ;
636 -> 642 ;
643 [label="gini = 0.0\nsamples = 1\nvalue = [0, 1]\nclass = 1", fillcolor="#399de5"] ;
642 -> 643 ;
644 [label="gini = 0.0\nsamples = 1\nvalue = [1, 0]\nclass = 0", fillcolor="#e58139"] ;
642 -> 644 ;
645 [label="HbA1c_level <= 0.768\ngini = 0.036\nsamples = 55\nvalue = [54, 1]\nclass = 0", fillcolor="#e5833d"] ;
635 -> 645 ;
646 [label="gini = 0.0\nsamples = 40\nvalue = [40, 0]\nclass = 0", fillcolor="#e58139"] ;
645 -> 646 ;
647 [label="blood_glucose_level <= 0.527\ngini = 0.124\nsamples = 15\nvalue = [14, 1]\nclass = 0", fillcolor="#e78a47"] ;
645 -> 647 ;
648 [label="gini = 0.0\nsamples = 10\nvalue = [10, 0]\nclass = 0", fillcolor="#e58139"] ;
647 -> 648 ;
649 [label="age <= 45.5\ngini = 0.32\nsamples = 5\nvalue = [4, 1]\nclass = 0", fillcolor="#eca06a"] ;
647 -> 649 ;
650 [label="gini = 0.0\nsamples = 2\nvalue = [2, 0]\nclass = 0", fillcolor="#e58139"] ;
649 -> 650 ;
651 [label="age <= 47.5\ngini = 0.444\nsamples = 3\nvalue = [2, 1]\nclass = 0", fillcolor="#f2c09c"] ;
649 -> 651 ;
652 [label="bmi <= -0.511\ngini = 0.5\nsamples = 2\nvalue = [1, 1]\nclass = 0", fillcolor="#ffffff"] ;
651 -> 652 ;
653 [label="gini = 0.0\nsamples = 1\nvalue = [0, 1]\nclass = 1", fillcolor="#399de5"] ;
652 -> 653 ;
654 [label="gini = 0.0\nsamples = 1\nvalue = [1, 0]\nclass = 0", fillcolor="#e58139"] ;
652 -> 654 ;
655 [label="gini = 0.0\nsamples = 1\nvalue = [1, 0]\nclass = 0", fillcolor="#e58139"] ;
651 -> 655 ;
656 [label="bmi <= -0.873\ngini = 0.067\nsamples = 544\nvalue = [525, 19]\nclass = 0", fillcolor="#e68640"] ;
570 -> 656 ;
657 [label="bmi <= -0.876\ngini = 0.15\nsamples = 61\nvalue = [56, 5]\nclass = 0", fillcolor="#e78c4b"] ;
656 -> 657 ;
658 [label="HbA1c_level <= 0.768\ngini = 0.124\nsamples = 60\nvalue = [56, 4]\nclass = 0", fillcolor="#e78a47"] ;
657 -> 658 ;
659 [label="smoking_history <= 2.5\ngini = 0.043\nsamples = 46\nvalue = [45, 1]\nclass = 0", fillcolor="#e6843d"] ;
658 -> 659 ;
660 [label="gini = 0.0\nsamples = 32\nvalue = [32, 0]\nclass = 0", fillcolor="#e58139"] ;
659 -> 660 ;
661 [label="smoking_history <= 3.5\ngini = 0.133\nsamples = 14\nvalue = [13, 1]\nclass = 0", fillcolor="#e78b48"] ;
659 -> 661 ;
662 [label="bmi <= -1.053\ngini = 0.32\nsamples = 5\nvalue = [4, 1]\nclass = 0", fillcolor="#eca06a"] ;
661 -> 662 ;
663 [label="gini = 0.0\nsamples = 4\nvalue = [4, 0]\nclass = 0", fillcolor="#e58139"] ;
662 -> 663 ;
664 [label="gini = 0.0\nsamples = 1\nvalue = [0, 1]\nclass = 1", fillcolor="#399de5"] ;
662 -> 664 ;
665 [label="gini = 0.0\nsamples = 9\nvalue = [9, 0]\nclass = 0", fillcolor="#e58139"] ;
661 -> 665 ;
666 [label="blood_glucose_level <= 0.478\ngini = 0.337\nsamples = 14\nvalue = [11, 3]\nclass = 0", fillcolor="#eca36f"] ;
658 -> 666 ;
667 [label="blood_glucose_level <= -0.247\ngini = 0.18\nsamples = 10\nvalue = [9, 1]\nclass = 0", fillcolor="#e88f4f"] ;
666 -> 667 ;
668 [label="bmi <= -1.145\ngini = 0.444\nsamples = 3\nvalue = [2, 1]\nclass = 0", fillcolor="#f2c09c"] ;
667 -> 668 ;
669 [label="gini = 0.0\nsamples = 1\nvalue = [0, 1]\nclass = 1", fillcolor="#399de5"] ;
668 -> 669 ;
670 [label="gini = 0.0\nsamples = 2\nvalue = [2, 0]\nclass = 0", fillcolor="#e58139"] ;
668 -> 670 ;
671 [label="gini = 0.0\nsamples = 7\nvalue = [7, 0]\nclass = 0", fillcolor="#e58139"] ;
667 -> 671 ;
672 [label="bmi <= -0.937\ngini = 0.5\nsamples = 4\nvalue = [2, 2]\nclass = 0", fillcolor="#ffffff"] ;
666 -> 672 ;
673 [label="gini = 0.0\nsamples = 2\nvalue = [2, 0]\nclass = 0", fillcolor="#e58139"] ;
672 -> 673 ;
674 [label="gini = 0.0\nsamples = 2\nvalue = [0, 2]\nclass = 1", fillcolor="#399de5"] ;
672 -> 674 ;
675 [label="gini = 0.0\nsamples = 1\nvalue = [0, 1]\nclass = 1", fillcolor="#399de5"] ;
657 -> 675 ;
676 [label="blood_glucose_level <= 0.453\ngini = 0.056\nsamples = 483\nvalue = [469, 14]\nclass = 0", fillcolor="#e6853f"] ;
656 -> 676 ;
677 [label="HbA1c_level <= 0.955\ngini = 0.084\nsamples = 251\nvalue = [240, 11]\nclass = 0", fillcolor="#e68742"] ;
676 -> 677 ;
678 [label="age <= 43.5\ngini = 0.07\nsamples = 221\nvalue = [213, 8]\nclass = 0", fillcolor="#e68640"] ;
677 -> 678 ;
679 [label="bmi <= -0.257\ngini = 0.133\nsamples = 70\nvalue = [65, 5]\nclass = 0", fillcolor="#e78b48"] ;
678 -> 679 ;
680 [label="bmi <= -0.272\ngini = 0.18\nsamples = 50\nvalue = [45, 5]\nclass = 0", fillcolor="#e88f4f"] ;
679 -> 680 ;
681 [label="HbA1c_level <= 0.348\ngini = 0.15\nsamples = 49\nvalue = [45, 4]\nclass = 0", fillcolor="#e78c4b"] ;
680 -> 681 ;
682 [label="bmi <= -0.31\ngini = 0.305\nsamples = 16\nvalue = [13, 3]\nclass = 0", fillcolor="#eb9e67"] ;
681 -> 682 ;
683 [label="age <= 40.5\ngini = 0.231\nsamples = 15\nvalue = [13, 2]\nclass = 0", fillcolor="#e99457"] ;
682 -> 683 ;
684 [label="age <= 39.5\ngini = 0.444\nsamples = 6\nvalue = [4, 2]\nclass = 0", fillcolor="#f2c09c"] ;
683 -> 684 ;
685 [label="gini = 0.0\nsamples = 3\nvalue = [3, 0]\nclass = 0", fillcolor="#e58139"] ;
684 -> 685 ;
686 [label="smoking_history <= 3.5\ngini = 0.444\nsamples = 3\nvalue = [1, 2]\nclass = 1", fillcolor="#9ccef2"] ;
684 -> 686 ;
687 [label="gini = 0.0\nsamples = 2\nvalue = [0, 2]\nclass = 1", fillcolor="#399de5"] ;
686 -> 687 ;
688 [label="gini = 0.0\nsamples = 1\nvalue = [1, 0]\nclass = 0", fillcolor="#e58139"] ;
686 -> 688 ;
689 [label="gini = 0.0\nsamples = 9\nvalue = [9, 0]\nclass = 0", fillcolor="#e58139"] ;
683 -> 689 ;
690 [label="gini = 0.0\nsamples = 1\nvalue = [0, 1]\nclass = 1", fillcolor="#399de5"] ;
682 -> 690 ;
691 [label="HbA1c_level <= 0.768\ngini = 0.059\nsamples = 33\nvalue = [32, 1]\nclass = 0", fillcolor="#e6853f"] ;
681 -> 691 ;
692 [label="gini = 0.0\nsamples = 25\nvalue = [25, 0]\nclass = 0", fillcolor="#e58139"] ;
691 -> 692 ;
693 [label="bmi <= -0.543\ngini = 0.219\nsamples = 8\nvalue = [7, 1]\nclass = 0", fillcolor="#e99355"] ;
691 -> 693 ;
694 [label="gini = 0.0\nsamples = 6\nvalue = [6, 0]\nclass = 0", fillcolor="#e58139"] ;
693 -> 694 ;
695 [label="bmi <= -0.498\ngini = 0.5\nsamples = 2\nvalue = [1, 1]\nclass = 0", fillcolor="#ffffff"] ;
693 -> 695 ;
696 [label="gini = 0.0\nsamples = 1\nvalue = [0, 1]\nclass = 1", fillcolor="#399de5"] ;
695 -> 696 ;
697 [label="gini = 0.0\nsamples = 1\nvalue = [1, 0]\nclass = 0", fillcolor="#e58139"] ;
695 -> 697 ;
698 [label="gini = 0.0\nsamples = 1\nvalue = [0, 1]\nclass = 1", fillcolor="#399de5"] ;
680 -> 698 ;
699 [label="gini = 0.0\nsamples = 20\nvalue = [20, 0]\nclass = 0", fillcolor="#e58139"] ;
679 -> 699 ;
700 [label="bmi <= -0.122\ngini = 0.039\nsamples = 151\nvalue = [148, 3]\nclass = 0", fillcolor="#e6843d"] ;
678 -> 700 ;
701 [label="HbA1c_level <= 0.208\ngini = 0.027\nsamples = 144\nvalue = [142, 2]\nclass = 0", fillcolor="#e5833c"] ;
700 -> 701 ;
702 [label="age <= 50.5\ngini = 0.133\nsamples = 28\nvalue = [26, 2]\nclass = 0", fillcolor="#e78b48"] ;
701 -> 702 ;
703 [label="gini = 0.0\nsamples = 20\nvalue = [20, 0]\nclass = 0", fillcolor="#e58139"] ;
702 -> 703 ;
704 [label="bmi <= -0.442\ngini = 0.375\nsamples = 8\nvalue = [6, 2]\nclass = 0", fillcolor="#eeab7b"] ;
702 -> 704 ;
705 [label="gini = 0.0\nsamples = 1\nvalue = [0, 1]\nclass = 1", fillcolor="#399de5"] ;
704 -> 705 ;
706 [label="smoking_history <= 2.5\ngini = 0.245\nsamples = 7\nvalue = [6, 1]\nclass = 0", fillcolor="#e9965a"] ;
704 -> 706 ;
707 [label="gini = 0.0\nsamples = 1\nvalue = [0, 1]\nclass = 1", fillcolor="#399de5"] ;
706 -> 707 ;
708 [label="gini = 0.0\nsamples = 6\nvalue = [6, 0]\nclass = 0", fillcolor="#e58139"] ;
706 -> 708 ;
709 [label="gini = 0.0\nsamples = 116\nvalue = [116, 0]\nclass = 0", fillcolor="#e58139"] ;
701 -> 709 ;
710 [label="bmi <= -0.12\ngini = 0.245\nsamples = 7\nvalue = [6, 1]\nclass = 0", fillcolor="#e9965a"] ;
700 -> 710 ;
711 [label="gini = 0.0\nsamples = 1\nvalue = [0, 1]\nclass = 1", fillcolor="#399de5"] ;
710 -> 711 ;
712 [label="gini = 0.0\nsamples = 6\nvalue = [6, 0]\nclass = 0", fillcolor="#e58139"] ;
710 -> 712 ;
713 [label="bmi <= -0.161\ngini = 0.18\nsamples = 30\nvalue = [27, 3]\nclass = 0", fillcolor="#e88f4f"] ;
677 -> 713 ;
714 [label="age <= 52.0\ngini = 0.133\nsamples = 28\nvalue = [26, 2]\nclass = 0", fillcolor="#e78b48"] ;
713 -> 714 ;
715 [label="blood_glucose_level <= 0.109\ngini = 0.077\nsamples = 25\nvalue = [24, 1]\nclass = 0", fillcolor="#e68641"] ;
714 -> 715 ;
716 [label="gini = 0.0\nsamples = 16\nvalue = [16, 0]\nclass = 0", fillcolor="#e58139"] ;
715 -> 716 ;
717 [label="bmi <= -0.401\ngini = 0.198\nsamples = 9\nvalue = [8, 1]\nclass = 0", fillcolor="#e89152"] ;
715 -> 717 ;
718 [label="blood_glucose_level <= 0.293\ngini = 0.444\nsamples = 3\nvalue = [2, 1]\nclass = 0", fillcolor="#f2c09c"] ;
717 -> 718 ;
719 [label="gini = 0.0\nsamples = 1\nvalue = [0, 1]\nclass = 1", fillcolor="#399de5"] ;
718 -> 719 ;
720 [label="gini = 0.0\nsamples = 2\nvalue = [2, 0]\nclass = 0", fillcolor="#e58139"] ;
718 -> 720 ;
721 [label="gini = 0.0\nsamples = 6\nvalue = [6, 0]\nclass = 0", fillcolor="#e58139"] ;
717 -> 721 ;
722 [label="smoking_history <= 1.5\ngini = 0.444\nsamples = 3\nvalue = [2, 1]\nclass = 0", fillcolor="#f2c09c"] ;
714 -> 722 ;
723 [label="gini = 0.0\nsamples = 1\nvalue = [0, 1]\nclass = 1", fillcolor="#399de5"] ;
722 -> 723 ;
724 [label="gini = 0.0\nsamples = 2\nvalue = [2, 0]\nclass = 0", fillcolor="#e58139"] ;
722 -> 724 ;
725 [label="bmi <= -0.137\ngini = 0.5\nsamples = 2\nvalue = [1, 1]\nclass = 0", fillcolor="#ffffff"] ;
713 -> 725 ;
726 [label="gini = 0.0\nsamples = 1\nvalue = [0, 1]\nclass = 1", fillcolor="#399de5"] ;
725 -> 726 ;
727 [label="gini = 0.0\nsamples = 1\nvalue = [1, 0]\nclass = 0", fillcolor="#e58139"] ;
725 -> 727 ;
728 [label="HbA1c_level <= 0.488\ngini = 0.026\nsamples = 232\nvalue = [229, 3]\nclass = 0", fillcolor="#e5833c"] ;
676 -> 728 ;
729 [label="gini = 0.0\nsamples = 95\nvalue = [95, 0]\nclass = 0", fillcolor="#e58139"] ;
728 -> 729 ;
730 [label="HbA1c_level <= 0.768\ngini = 0.043\nsamples = 137\nvalue = [134, 3]\nclass = 0", fillcolor="#e6843d"] ;
728 -> 730 ;
731 [label="age <= 39.5\ngini = 0.083\nsamples = 69\nvalue = [66, 3]\nclass = 0", fillcolor="#e68742"] ;
730 -> 731 ;
732 [label="smoking_history <= 2.5\ngini = 0.219\nsamples = 8\nvalue = [7, 1]\nclass = 0", fillcolor="#e99355"] ;
731 -> 732 ;
733 [label="bmi <= -0.505\ngini = 0.444\nsamples = 3\nvalue = [2, 1]\nclass = 0", fillcolor="#f2c09c"] ;
732 -> 733 ;
734 [label="gini = 0.0\nsamples = 1\nvalue = [1, 0]\nclass = 0", fillcolor="#e58139"] ;
733 -> 734 ;
735 [label="bmi <= -0.34\ngini = 0.5\nsamples = 2\nvalue = [1, 1]\nclass = 0", fillcolor="#ffffff"] ;
733 -> 735 ;
736 [label="gini = 0.0\nsamples = 1\nvalue = [0, 1]\nclass = 1", fillcolor="#399de5"] ;
735 -> 736 ;
737 [label="gini = 0.0\nsamples = 1\nvalue = [1, 0]\nclass = 0", fillcolor="#e58139"] ;
735 -> 737 ;
738 [label="gini = 0.0\nsamples = 5\nvalue = [5, 0]\nclass = 0", fillcolor="#e58139"] ;
732 -> 738 ;
739 [label="HbA1c_level <= 0.581\ngini = 0.063\nsamples = 61\nvalue = [59, 2]\nclass = 0", fillcolor="#e68540"] ;
731 -> 739 ;
740 [label="age <= 46.5\ngini = 0.121\nsamples = 31\nvalue = [29, 2]\nclass = 0", fillcolor="#e78a47"] ;
739 -> 740 ;
741 [label="gini = 0.0\nsamples = 12\nvalue = [12, 0]\nclass = 0", fillcolor="#e58139"] ;
740 -> 741 ;
742 [label="age <= 47.5\ngini = 0.188\nsamples = 19\nvalue = [17, 2]\nclass = 0", fillcolor="#e89050"] ;
740 -> 742 ;
743 [label="gini = 0.0\nsamples = 1\nvalue = [0, 1]\nclass = 1", fillcolor="#399de5"] ;
742 -> 743 ;
744 [label="smoking_history <= 1.5\ngini = 0.105\nsamples = 18\nvalue = [17, 1]\nclass = 0", fillcolor="#e78845"] ;
742 -> 744 ;
745 [label="age <= 51.0\ngini = 0.32\nsamples = 5\nvalue = [4, 1]\nclass = 0", fillcolor="#eca06a"] ;
744 -> 745 ;
746 [label="gini = 0.0\nsamples = 4\nvalue = [4, 0]\nclass = 0", fillcolor="#e58139"] ;
745 -> 746 ;
747 [label="gini = 0.0\nsamples = 1\nvalue = [0, 1]\nclass = 1", fillcolor="#399de5"] ;
745 -> 747 ;
748 [label="gini = 0.0\nsamples = 13\nvalue = [13, 0]\nclass = 0", fillcolor="#e58139"] ;
744 -> 748 ;
749 [label="gini = 0.0\nsamples = 30\nvalue = [30, 0]\nclass = 0", fillcolor="#e58139"] ;
739 -> 749 ;
750 [label="gini = 0.0\nsamples = 68\nvalue = [68, 0]\nclass = 0", fillcolor="#e58139"] ;
730 -> 750 ;
751 [label="smoking_history <= 0.5\ngini = 0.066\nsamples = 2530\nvalue = [2443, 87]\nclass = 0", fillcolor="#e68540"] ;
569 -> 751 ;
752 [label="blood_glucose_level <= -0.247\ngini = 0.04\nsamples = 989\nvalue = [969, 20]\nclass = 0", fillcolor="#e6843d"] ;
751 -> 752 ;
753 [label="HbA1c_level <= 0.488\ngini = 0.109\nsamples = 121\nvalue = [114, 7]\nclass = 0", fillcolor="#e78945"] ;
752 -> 753 ;
754 [label="age <= 51.5\ngini = 0.185\nsamples = 58\nvalue = [52, 6]\nclass = 0", fillcolor="#e89050"] ;
753 -> 754 ;
755 [label="age <= 50.5\ngini = 0.219\nsamples = 48\nvalue = [42, 6]\nclass = 0", fillcolor="#e99355"] ;
754 -> 755 ;
756 [label="age <= 40.5\ngini = 0.176\nsamples = 41\nvalue = [37, 4]\nclass = 0", fillcolor="#e88f4e"] ;
755 -> 756 ;
757 [label="HbA1c_level <= 0.208\ngini = 0.375\nsamples = 4\nvalue = [3, 1]\nclass = 0", fillcolor="#eeab7b"] ;
756 -> 757 ;
758 [label="gini = 0.0\nsamples = 2\nvalue = [2, 0]\nclass = 0", fillcolor="#e58139"] ;
757 -> 758 ;
759 [label="gini = 0.5\nsamples = 2\nvalue = [1, 1]\nclass = 0", fillcolor="#ffffff"] ;
757 -> 759 ;
760 [label="age <= 42.5\ngini = 0.149\nsamples = 37\nvalue = [34, 3]\nclass = 0", fillcolor="#e78c4a"] ;
756 -> 760 ;
761 [label="gini = 0.0\nsamples = 11\nvalue = [11, 0]\nclass = 0", fillcolor="#e58139"] ;
760 -> 761 ;
762 [label="age <= 48.0\ngini = 0.204\nsamples = 26\nvalue = [23, 3]\nclass = 0", fillcolor="#e89153"] ;
760 -> 762 ;
763 [label="age <= 44.5\ngini = 0.266\nsamples = 19\nvalue = [16, 3]\nclass = 0", fillcolor="#ea995e"] ;
762 -> 763 ;
764 [label="age <= 43.5\ngini = 0.153\nsamples = 12\nvalue = [11, 1]\nclass = 0", fillcolor="#e78c4b"] ;
763 -> 764 ;
765 [label="HbA1c_level <= 0.208\ngini = 0.32\nsamples = 5\nvalue = [4, 1]\nclass = 0", fillcolor="#eca06a"] ;
764 -> 765 ;
766 [label="gini = 0.0\nsamples = 2\nvalue = [2, 0]\nclass = 0", fillcolor="#e58139"] ;
765 -> 766 ;
767 [label="bmi <= 0.082\ngini = 0.444\nsamples = 3\nvalue = [2, 1]\nclass = 0", fillcolor="#f2c09c"] ;
765 -> 767 ;
768 [label="gender <= 0.5\ngini = 0.5\nsamples = 2\nvalue = [1, 1]\nclass = 0", fillcolor="#ffffff"] ;
767 -> 768 ;
769 [label="gini = 0.0\nsamples = 1\nvalue = [1, 0]\nclass = 0", fillcolor="#e58139"] ;
768 -> 769 ;
770 [label="gini = 0.0\nsamples = 1\nvalue = [0, 1]\nclass = 1", fillcolor="#399de5"] ;
768 -> 770 ;
771 [label="gini = 0.0\nsamples = 1\nvalue = [1, 0]\nclass = 0", fillcolor="#e58139"] ;
767 -> 771 ;
772 [label="gini = 0.0\nsamples = 7\nvalue = [7, 0]\nclass = 0", fillcolor="#e58139"] ;
764 -> 772 ;
773 [label="gender <= 0.5\ngini = 0.408\nsamples = 7\nvalue = [5, 2]\nclass = 0", fillcolor="#efb388"] ;
763 -> 773 ;
774 [label="HbA1c_level <= 0.208\ngini = 0.48\nsamples = 5\nvalue = [3, 2]\nclass = 0", fillcolor="#f6d5bd"] ;
773 -> 774 ;
775 [label="gini = 0.0\nsamples = 1\nvalue = [0, 1]\nclass = 1", fillcolor="#399de5"] ;
774 -> 775 ;
776 [label="HbA1c_level <= 0.348\ngini = 0.375\nsamples = 4\nvalue = [3, 1]\nclass = 0", fillcolor="#eeab7b"] ;
774 -> 776 ;
777 [label="gini = 0.0\nsamples = 2\nvalue = [2, 0]\nclass = 0", fillcolor="#e58139"] ;
776 -> 777 ;
778 [label="gini = 0.5\nsamples = 2\nvalue = [1, 1]\nclass = 0", fillcolor="#ffffff"] ;
776 -> 778 ;
779 [label="gini = 0.0\nsamples = 2\nvalue = [2, 0]\nclass = 0", fillcolor="#e58139"] ;
773 -> 779 ;
780 [label="gini = 0.0\nsamples = 7\nvalue = [7, 0]\nclass = 0", fillcolor="#e58139"] ;
762 -> 780 ;
781 [label="HbA1c_level <= 0.208\ngini = 0.408\nsamples = 7\nvalue = [5, 2]\nclass = 0", fillcolor="#efb388"] ;
755 -> 781 ;
782 [label="gini = 0.0\nsamples = 1\nvalue = [0, 1]\nclass = 1", fillcolor="#399de5"] ;
781 -> 782 ;
783 [label="gender <= 0.5\ngini = 0.278\nsamples = 6\nvalue = [5, 1]\nclass = 0", fillcolor="#ea9a61"] ;
781 -> 783 ;
784 [label="gini = 0.0\nsamples = 3\nvalue = [3, 0]\nclass = 0", fillcolor="#e58139"] ;
783 -> 784 ;
785 [label="HbA1c_level <= 0.348\ngini = 0.444\nsamples = 3\nvalue = [2, 1]\nclass = 0", fillcolor="#f2c09c"] ;
783 -> 785 ;
786 [label="gini = 0.0\nsamples = 1\nvalue = [1, 0]\nclass = 0", fillcolor="#e58139"] ;
785 -> 786 ;
787 [label="gini = 0.5\nsamples = 2\nvalue = [1, 1]\nclass = 0", fillcolor="#ffffff"] ;
785 -> 787 ;
788 [label="gini = 0.0\nsamples = 10\nvalue = [10, 0]\nclass = 0", fillcolor="#e58139"] ;
754 -> 788 ;
789 [label="age <= 51.5\ngini = 0.031\nsamples = 63\nvalue = [62, 1]\nclass = 0", fillcolor="#e5833c"] ;
753 -> 789 ;
790 [label="gini = 0.0\nsamples = 49\nvalue = [49, 0]\nclass = 0", fillcolor="#e58139"] ;
789 -> 790 ;
791 [label="HbA1c_level <= 0.955\ngini = 0.133\nsamples = 14\nvalue = [13, 1]\nclass = 0", fillcolor="#e78b48"] ;
789 -> 791 ;
792 [label="gini = 0.0\nsamples = 11\nvalue = [11, 0]\nclass = 0", fillcolor="#e58139"] ;
791 -> 792 ;
793 [label="age <= 52.5\ngini = 0.444\nsamples = 3\nvalue = [2, 1]\nclass = 0", fillcolor="#f2c09c"] ;
791 -> 793 ;
794 [label="gender <= 0.5\ngini = 0.5\nsamples = 2\nvalue = [1, 1]\nclass = 0", fillcolor="#ffffff"] ;
793 -> 794 ;
795 [label="gini = 0.0\nsamples = 1\nvalue = [0, 1]\nclass = 1", fillcolor="#399de5"] ;
794 -> 795 ;
796 [label="gini = 0.0\nsamples = 1\nvalue = [1, 0]\nclass = 0", fillcolor="#e58139"] ;
794 -> 796 ;
797 [label="gini = 0.0\nsamples = 1\nvalue = [1, 0]\nclass = 0", fillcolor="#e58139"] ;
793 -> 797 ;
798 [label="HbA1c_level <= 0.208\ngini = 0.03\nsamples = 868\nvalue = [855, 13]\nclass = 0", fillcolor="#e5833c"] ;
752 -> 798 ;
799 [label="age <= 52.5\ngini = 0.069\nsamples = 112\nvalue = [108, 4]\nclass = 0", fillcolor="#e68640"] ;
798 -> 799 ;
800 [label="blood_glucose_level <= 1.03\ngini = 0.038\nsamples = 104\nvalue = [102, 2]\nclass = 0", fillcolor="#e6833d"] ;
799 -> 800 ;
801 [label="blood_glucose_level <= -0.075\ngini = 0.022\nsamples = 88\nvalue = [87, 1]\nclass = 0", fillcolor="#e5823b"] ;
800 -> 801 ;
802 [label="age <= 43.5\ngini = 0.1\nsamples = 19\nvalue = [18, 1]\nclass = 0", fillcolor="#e68844"] ;
801 -> 802 ;
803 [label="age <= 41.0\ngini = 0.32\nsamples = 5\nvalue = [4, 1]\nclass = 0", fillcolor="#eca06a"] ;
802 -> 803 ;
804 [label="gini = 0.0\nsamples = 3\nvalue = [3, 0]\nclass = 0", fillcolor="#e58139"] ;
803 -> 804 ;
805 [label="gender <= 0.5\ngini = 0.5\nsamples = 2\nvalue = [1, 1]\nclass = 0", fillcolor="#ffffff"] ;
803 -> 805 ;
806 [label="gini = 0.0\nsamples = 1\nvalue = [0, 1]\nclass = 1", fillcolor="#399de5"] ;
805 -> 806 ;
807 [label="gini = 0.0\nsamples = 1\nvalue = [1, 0]\nclass = 0", fillcolor="#e58139"] ;
805 -> 807 ;
808 [label="gini = 0.0\nsamples = 14\nvalue = [14, 0]\nclass = 0", fillcolor="#e58139"] ;
802 -> 808 ;
809 [label="gini = 0.0\nsamples = 69\nvalue = [69, 0]\nclass = 0", fillcolor="#e58139"] ;
801 -> 809 ;
810 [label="age <= 49.5\ngini = 0.117\nsamples = 16\nvalue = [15, 1]\nclass = 0", fillcolor="#e78946"] ;
800 -> 810 ;
811 [label="gini = 0.0\nsamples = 12\nvalue = [12, 0]\nclass = 0", fillcolor="#e58139"] ;
810 -> 811 ;
812 [label="age <= 50.5\ngini = 0.375\nsamples = 4\nvalue = [3, 1]\nclass = 0", fillcolor="#eeab7b"] ;
810 -> 812 ;
813 [label="gini = 0.444\nsamples = 3\nvalue = [2, 1]\nclass = 0", fillcolor="#f2c09c"] ;
812 -> 813 ;
814 [label="gini = 0.0\nsamples = 1\nvalue = [1, 0]\nclass = 0", fillcolor="#e58139"] ;
812 -> 814 ;
815 [label="blood_glucose_level <= 0.969\ngini = 0.375\nsamples = 8\nvalue = [6, 2]\nclass = 0", fillcolor="#eeab7b"] ;
799 -> 815 ;
816 [label="blood_glucose_level <= 0.293\ngini = 0.48\nsamples = 5\nvalue = [3, 2]\nclass = 0", fillcolor="#f6d5bd"] ;
815 -> 816 ;
817 [label="blood_glucose_level <= 0.109\ngini = 0.375\nsamples = 4\nvalue = [3, 1]\nclass = 0", fillcolor="#eeab7b"] ;
816 -> 817 ;
818 [label="gender <= 0.5\ngini = 0.444\nsamples = 3\nvalue = [2, 1]\nclass = 0", fillcolor="#f2c09c"] ;
817 -> 818 ;
819 [label="gini = 0.0\nsamples = 1\nvalue = [1, 0]\nclass = 0", fillcolor="#e58139"] ;
818 -> 819 ;
820 [label="gini = 0.5\nsamples = 2\nvalue = [1, 1]\nclass = 0", fillcolor="#ffffff"] ;
818 -> 820 ;
821 [label="gini = 0.0\nsamples = 1\nvalue = [1, 0]\nclass = 0", fillcolor="#e58139"] ;
817 -> 821 ;
822 [label="gini = 0.0\nsamples = 1\nvalue = [0, 1]\nclass = 1", fillcolor="#399de5"] ;
816 -> 822 ;
823 [label="gini = 0.0\nsamples = 3\nvalue = [3, 0]\nclass = 0", fillcolor="#e58139"] ;
815 -> 823 ;
824 [label="bmi <= 0.212\ngini = 0.024\nsamples = 756\nvalue = [747, 9]\nclass = 0", fillcolor="#e5833b"] ;
798 -> 824 ;
825 [label="blood_glucose_level <= 0.527\ngini = 0.021\nsamples = 743\nvalue = [735, 8]\nclass = 0", fillcolor="#e5823b"] ;
824 -> 825 ;
826 [label="age <= 40.5\ngini = 0.014\nsamples = 567\nvalue = [563, 4]\nclass = 0", fillcolor="#e5823a"] ;
825 -> 826 ;
827 [label="bmi <= 0.051\ngini = 0.061\nsamples = 63\nvalue = [61, 2]\nclass = 0", fillcolor="#e6853f"] ;
826 -> 827 ;
828 [label="HbA1c_level <= 0.488\ngini = 0.033\nsamples = 60\nvalue = [59, 1]\nclass = 0", fillcolor="#e5833c"] ;
827 -> 828 ;
829 [label="age <= 39.5\ngini = 0.153\nsamples = 12\nvalue = [11, 1]\nclass = 0", fillcolor="#e78c4b"] ;
828 -> 829 ;
830 [label="gini = 0.0\nsamples = 7\nvalue = [7, 0]\nclass = 0", fillcolor="#e58139"] ;
829 -> 830 ;
831 [label="blood_glucose_level <= 0.453\ngini = 0.32\nsamples = 5\nvalue = [4, 1]\nclass = 0", fillcolor="#eca06a"] ;
829 -> 831 ;
832 [label="HbA1c_level <= 0.348\ngini = 0.5\nsamples = 2\nvalue = [1, 1]\nclass = 0", fillcolor="#ffffff"] ;
831 -> 832 ;
833 [label="gini = 0.0\nsamples = 1\nvalue = [1, 0]\nclass = 0", fillcolor="#e58139"] ;
832 -> 833 ;
834 [label="gini = 0.0\nsamples = 1\nvalue = [0, 1]\nclass = 1", fillcolor="#399de5"] ;
832 -> 834 ;
835 [label="gini = 0.0\nsamples = 3\nvalue = [3, 0]\nclass = 0", fillcolor="#e58139"] ;
831 -> 835 ;
836 [label="gini = 0.0\nsamples = 48\nvalue = [48, 0]\nclass = 0", fillcolor="#e58139"] ;
828 -> 836 ;
837 [label="bmi <= 0.139\ngini = 0.444\nsamples = 3\nvalue = [2, 1]\nclass = 0", fillcolor="#f2c09c"] ;
827 -> 837 ;
838 [label="gini = 0.0\nsamples = 1\nvalue = [0, 1]\nclass = 1", fillcolor="#399de5"] ;
837 -> 838 ;
839 [label="gini = 0.0\nsamples = 2\nvalue = [2, 0]\nclass = 0", fillcolor="#e58139"] ;
837 -> 839 ;
840 [label="age <= 44.5\ngini = 0.008\nsamples = 504\nvalue = [502, 2]\nclass = 0", fillcolor="#e5823a"] ;
826 -> 840 ;
841 [label="blood_glucose_level <= 0.502\ngini = 0.024\nsamples = 163\nvalue = [161, 2]\nclass = 0", fillcolor="#e5833b"] ;
840 -> 841 ;
842 [label="HbA1c_level <= 0.488\ngini = 0.014\nsamples = 142\nvalue = [141, 1]\nclass = 0", fillcolor="#e5823a"] ;
841 -> 842 ;
843 [label="age <= 43.5\ngini = 0.042\nsamples = 47\nvalue = [46, 1]\nclass = 0", fillcolor="#e6843d"] ;
842 -> 843 ;
844 [label="gini = 0.0\nsamples = 30\nvalue = [30, 0]\nclass = 0", fillcolor="#e58139"] ;
843 -> 844 ;
845 [label="gender <= 0.5\ngini = 0.111\nsamples = 17\nvalue = [16, 1]\nclass = 0", fillcolor="#e78945"] ;
843 -> 845 ;
846 [label="blood_glucose_level <= 0.293\ngini = 0.219\nsamples = 8\nvalue = [7, 1]\nclass = 0", fillcolor="#e99355"] ;
845 -> 846 ;
847 [label="blood_glucose_level <= 0.109\ngini = 0.375\nsamples = 4\nvalue = [3, 1]\nclass = 0", fillcolor="#eeab7b"] ;
846 -> 847 ;
848 [label="gini = 0.0\nsamples = 2\nvalue = [2, 0]\nclass = 0", fillcolor="#e58139"] ;
847 -> 848 ;
849 [label="gini = 0.5\nsamples = 2\nvalue = [1, 1]\nclass = 0", fillcolor="#ffffff"] ;
847 -> 849 ;
850 [label="gini = 0.0\nsamples = 4\nvalue = [4, 0]\nclass = 0", fillcolor="#e58139"] ;
846 -> 850 ;
851 [label="gini = 0.0\nsamples = 9\nvalue = [9, 0]\nclass = 0", fillcolor="#e58139"] ;
845 -> 851 ;
852 [label="gini = 0.0\nsamples = 95\nvalue = [95, 0]\nclass = 0", fillcolor="#e58139"] ;
842 -> 852 ;
853 [label="HbA1c_level <= 0.768\ngini = 0.091\nsamples = 21\nvalue = [20, 1]\nclass = 0", fillcolor="#e68743"] ;
841 -> 853 ;
854 [label="gini = 0.0\nsamples = 11\nvalue = [11, 0]\nclass = 0", fillcolor="#e58139"] ;
853 -> 854 ;
855 [label="HbA1c_level <= 0.955\ngini = 0.18\nsamples = 10\nvalue = [9, 1]\nclass = 0", fillcolor="#e88f4f"] ;
853 -> 855 ;
856 [label="gender <= 0.5\ngini = 0.32\nsamples = 5\nvalue = [4, 1]\nclass = 0", fillcolor="#eca06a"] ;
855 -> 856 ;
857 [label="age <= 42.5\ngini = 0.5\nsamples = 2\nvalue = [1, 1]\nclass = 0", fillcolor="#ffffff"] ;
856 -> 857 ;
858 [label="gini = 0.0\nsamples = 1\nvalue = [1, 0]\nclass = 0", fillcolor="#e58139"] ;
857 -> 858 ;
859 [label="gini = 0.0\nsamples = 1\nvalue = [0, 1]\nclass = 1", fillcolor="#399de5"] ;
857 -> 859 ;
860 [label="gini = 0.0\nsamples = 3\nvalue = [3, 0]\nclass = 0", fillcolor="#e58139"] ;
856 -> 860 ;
861 [label="gini = 0.0\nsamples = 5\nvalue = [5, 0]\nclass = 0", fillcolor="#e58139"] ;
855 -> 861 ;
862 [label="gini = 0.0\nsamples = 341\nvalue = [341, 0]\nclass = 0", fillcolor="#e58139"] ;
840 -> 862 ;
863 [label="age <= 47.5\ngini = 0.044\nsamples = 176\nvalue = [172, 4]\nclass = 0", fillcolor="#e6843e"] ;
825 -> 863 ;
864 [label="HbA1c_level <= 0.488\ngini = 0.019\nsamples = 106\nvalue = [105, 1]\nclass = 0", fillcolor="#e5823b"] ;
863 -> 864 ;
865 [label="blood_glucose_level <= 1.03\ngini = 0.048\nsamples = 41\nvalue = [40, 1]\nclass = 0", fillcolor="#e6843e"] ;
864 -> 865 ;
866 [label="age <= 43.5\ngini = 0.105\nsamples = 18\nvalue = [17, 1]\nclass = 0", fillcolor="#e78845"] ;
865 -> 866 ;
867 [label="gini = 0.0\nsamples = 10\nvalue = [10, 0]\nclass = 0", fillcolor="#e58139"] ;
866 -> 867 ;
868 [label="age <= 44.5\ngini = 0.219\nsamples = 8\nvalue = [7, 1]\nclass = 0", fillcolor="#e99355"] ;
866 -> 868 ;
869 [label="gini = 0.0\nsamples = 1\nvalue = [0, 1]\nclass = 1", fillcolor="#399de5"] ;
868 -> 869 ;
870 [label="gini = 0.0\nsamples = 7\nvalue = [7, 0]\nclass = 0", fillcolor="#e58139"] ;
868 -> 870 ;
871 [label="gini = 0.0\nsamples = 23\nvalue = [23, 0]\nclass = 0", fillcolor="#e58139"] ;
865 -> 871 ;
872 [label="gini = 0.0\nsamples = 65\nvalue = [65, 0]\nclass = 0", fillcolor="#e58139"] ;
864 -> 872 ;
873 [label="age <= 51.5\ngini = 0.082\nsamples = 70\nvalue = [67, 3]\nclass = 0", fillcolor="#e68742"] ;
863 -> 873 ;
874 [label="HbA1c_level <= 0.488\ngini = 0.122\nsamples = 46\nvalue = [43, 3]\nclass = 0", fillcolor="#e78a47"] ;
873 -> 874 ;
875 [label="gini = 0.0\nsamples = 17\nvalue = [17, 0]\nclass = 0", fillcolor="#e58139"] ;
874 -> 875 ;
876 [label="HbA1c_level <= 0.768\ngini = 0.185\nsamples = 29\nvalue = [26, 3]\nclass = 0", fillcolor="#e89050"] ;
874 -> 876 ;
877 [label="age <= 48.5\ngini = 0.298\nsamples = 11\nvalue = [9, 2]\nclass = 0", fillcolor="#eb9d65"] ;
876 -> 877 ;
878 [label="gender <= 0.5\ngini = 0.5\nsamples = 2\nvalue = [1, 1]\nclass = 0", fillcolor="#ffffff"] ;
877 -> 878 ;
879 [label="gini = 0.0\nsamples = 1\nvalue = [1, 0]\nclass = 0", fillcolor="#e58139"] ;
878 -> 879 ;
880 [label="gini = 0.0\nsamples = 1\nvalue = [0, 1]\nclass = 1", fillcolor="#399de5"] ;
878 -> 880 ;
881 [label="blood_glucose_level <= 1.03\ngini = 0.198\nsamples = 9\nvalue = [8, 1]\nclass = 0", fillcolor="#e89152"] ;
877 -> 881 ;
882 [label="gender <= 0.5\ngini = 0.32\nsamples = 5\nvalue = [4, 1]\nclass = 0", fillcolor="#eca06a"] ;
881 -> 882 ;
883 [label="bmi <= 0.029\ngini = 0.444\nsamples = 3\nvalue = [2, 1]\nclass = 0", fillcolor="#f2c09c"] ;
882 -> 883 ;
884 [label="gini = 0.5\nsamples = 2\nvalue = [1, 1]\nclass = 0", fillcolor="#ffffff"] ;
883 -> 884 ;
885 [label="gini = 0.0\nsamples = 1\nvalue = [1, 0]\nclass = 0", fillcolor="#e58139"] ;
883 -> 885 ;
886 [label="gini = 0.0\nsamples = 2\nvalue = [2, 0]\nclass = 0", fillcolor="#e58139"] ;
882 -> 886 ;
