digraph Tree {
node [shape=box, style="filled", color="black", fontname="helvetica"] ;
edge [fontname="helvetica"] ;
0 [label="HbA1c_level <= 1.095\ngini = 0.156\nsamples = 80000\nvalue = [73200, 6800]\nclass = 0", fillcolor="#e78d4b"] ;
1 [label="blood_glucose_level <= 1.767\ngini = 0.091\nsamples = 76860\nvalue = [73200, 3660]\nclass = 0", fillcolor="#e68743"] ;
0 -> 1 [labeldistance=2.5, labelangle=45, headlabel="True"] ;
2 [label="age <= 53.5\ngini = 0.057\nsamples = 75428\nvalue = [73200, 2228]\nclass = 0", fillcolor="#e6853f"] ;
1 -> 2 ;
3 [label="bmi <= 0.775\ngini = 0.024\nsamples = 51762\nvalue = [51143, 619]\nclass = 0", fillcolor="#e5833b"] ;
2 -> 3 ;
4 [label="hypertension <= 0.5\ngini = 0.014\nsamples = 44606\nvalue = [44288, 318]\nclass = 0", fillcolor="#e5823a"] ;
3 -> 4 ;
5 [label="HbA1c_level <= -0.166\ngini = 0.012\nsamples = 43747\nvalue = [43474, 273]\nclass = 0", fillcolor="#e5823a"] ;
4 -> 5 ;
6 [label="gini = 0.0\nsamples = 17946\nvalue = [17946, 0]\nclass = 0", fillcolor="#e58139"] ;
5 -> 6 ;
7 [label="age <= 38.5\ngini = 0.021\nsamples = 25801\nvalue = [25528, 273]\nclass = 0", fillcolor="#e5823b"] ;
5 -> 7 ;
8 [label="blood_glucose_level <= -0.616\ngini = 0.01\nsamples = 18379\nvalue = [18284, 95]\nclass = 0", fillcolor="#e5823a"] ;
7 -> 8 ;
9 [label="gini = 0.0\nsamples = 5624\nvalue = [5624, 0]\nclass = 0", fillcolor="#e58139"] ;
8 -> 9 ;
10 [label="age <= 13.5\ngini = 0.015\nsamples = 12755\nvalue = [12660, 95]\nclass = 0", fillcolor="#e5823a"] ;
8 -> 10 ;
11 [label="age <= 9.5\ngini = 0.003\nsamples = 4354\nvalue = [4347, 7]\nclass = 0", fillcolor="#e58139"] ;
10 -> 11 ;
12 [label="bmi <= -1.45\ngini = 0.002\nsamples = 3183\nvalue = [3180, 3]\nclass = 0", fillcolor="#e58139"] ;
11 -> 12 ;
13 [label="bmi <= -1.452\ngini = 0.003\nsamples = 1721\nvalue = [1718, 3]\nclass = 0", fillcolor="#e58139"] ;
12 -> 13 ;
14 [label="blood_glucose_level <= 1.03\ngini = 0.002\nsamples = 1719\nvalue = [1717, 2]\nclass = 0", fillcolor="#e58139"] ;
13 -> 14 ;
15 [label="bmi <= -1.798\ngini = 0.001\nsamples = 1535\nvalue = [1534, 1]\nclass = 0", fillcolor="#e58139"] ;
14 -> 15 ;
16 [label="bmi <= -1.8\ngini = 0.004\nsamples = 516\nvalue = [515, 1]\nclass = 0", fillcolor="#e58139"] ;
15 -> 16 ;
17 [label="gini = 0.0\nsamples = 514\nvalue = [514, 0]\nclass = 0", fillcolor="#e58139"] ;
16 -> 17 ;
18 [label="blood_glucose_level <= 0.281\ngini = 0.5\nsamples = 2\nvalue = [1, 1]\nclass = 0", fillcolor="#ffffff"] ;
16 -> 18 ;
19 [label="gini = 0.0\nsamples = 1\nvalue = [0, 1]\nclass = 1", fillcolor="#399de5"] ;
18 -> 19 ;
20 [label="gini = 0.0\nsamples = 1\nvalue = [1, 0]\nclass = 0", fillcolor="#e58139"] ;
18 -> 20 ;
21 [label="gini = 0.0\nsamples = 1019\nvalue = [1019, 0]\nclass = 0", fillcolor="#e58139"] ;
15 -> 21 ;
22 [label="bmi <= -1.526\ngini = 0.011\nsamples = 184\nvalue = [183, 1]\nclass = 0", fillcolor="#e5823a"] ;
14 -> 22 ;
23 [label="gini = 0.0\nsamples = 160\nvalue = [160, 0]\nclass = 0", fillcolor="#e58139"] ;
22 -> 23 ;
24 [label="bmi <= -1.518\ngini = 0.08\nsamples = 24\nvalue = [23, 1]\nclass = 0", fillcolor="#e68642"] ;
22 -> 24 ;
25 [label="age <= 3.5\ngini = 0.444\nsamples = 3\nvalue = [2, 1]\nclass = 0", fillcolor="#f2c09c"] ;
24 -> 25 ;
26 [label="gini = 0.0\nsamples = 2\nvalue = [2, 0]\nclass = 0", fillcolor="#e58139"] ;
25 -> 26 ;
27 [label="gini = 0.0\nsamples = 1\nvalue = [0, 1]\nclass = 1", fillcolor="#399de5"] ;
25 -> 27 ;
28 [label="gini = 0.0\nsamples = 21\nvalue = [21, 0]\nclass = 0", fillcolor="#e58139"] ;
24 -> 28 ;
29 [label="smoking_history <= 4.5\ngini = 0.5\nsamples = 2\nvalue = [1, 1]\nclass = 0", fillcolor="#ffffff"] ;
13 -> 29 ;
30 [label="gini = 0.0\nsamples = 1\nvalue = [0, 1]\nclass = 1", fillcolor="#399de5"] ;
29 -> 30 ;
31 [label="gini = 0.0\nsamples = 1\nvalue = [1, 0]\nclass = 0", fillcolor="#e58139"] ;
29 -> 31 ;
32 [label="gini = 0.0\nsamples = 1462\nvalue = [1462, 0]\nclass = 0", fillcolor="#e58139"] ;
12 -> 32 ;
33 [label="blood_glucose_level <= 0.453\ngini = 0.007\nsamples = 1171\nvalue = [1167, 4]\nclass = 0", fillcolor="#e5813a"] ;
11 -> 33 ;
34 [label="blood_glucose_level <= -0.075\ngini = 0.012\nsamples = 659\nvalue = [655, 4]\nclass = 0", fillcolor="#e5823a"] ;
33 -> 34 ;
35 [label="gini = 0.0\nsamples = 274\nvalue = [274, 0]\nclass = 0", fillcolor="#e58139"] ;
34 -> 35 ;
36 [label="smoking_history <= 0.5\ngini = 0.021\nsamples = 385\nvalue = [381, 4]\nclass = 0", fillcolor="#e5823b"] ;
34 -> 36 ;
37 [label="age <= 12.5\ngini = 0.028\nsamples = 283\nvalue = [279, 4]\nclass = 0", fillcolor="#e5833c"] ;
36 -> 37 ;
38 [label="HbA1c_level <= 0.488\ngini = 0.037\nsamples = 215\nvalue = [211, 4]\nclass = 0", fillcolor="#e5833d"] ;
37 -> 38 ;
39 [label="age <= 11.5\ngini = 0.056\nsamples = 105\nvalue = [102, 3]\nclass = 0", fillcolor="#e6853f"] ;
38 -> 39 ;
40 [label="blood_glucose_level <= 0.109\ngini = 0.026\nsamples = 75\nvalue = [74, 1]\nclass = 0", fillcolor="#e5833c"] ;
39 -> 40 ;
41 [label="bmi <= -0.412\ngini = 0.087\nsamples = 22\nvalue = [21, 1]\nclass = 0", fillcolor="#e68742"] ;
40 -> 41 ;
42 [label="gini = 0.0\nsamples = 18\nvalue = [18, 0]\nclass = 0", fillcolor="#e58139"] ;
41 -> 42 ;
43 [label="gender <= 0.5\ngini = 0.375\nsamples = 4\nvalue = [3, 1]\nclass = 0", fillcolor="#eeab7b"] ;
41 -> 43 ;
44 [label="gini = 0.0\nsamples = 3\nvalue = [3, 0]\nclass = 0", fillcolor="#e58139"] ;
43 -> 44 ;
45 [label="gini = 0.0\nsamples = 1\nvalue = [0, 1]\nclass = 1", fillcolor="#399de5"] ;
43 -> 45 ;
46 [label="gini = 0.0\nsamples = 53\nvalue = [53, 0]\nclass = 0", fillcolor="#e58139"] ;
40 -> 46 ;
47 [label="HbA1c_level <= 0.208\ngini = 0.124\nsamples = 30\nvalue = [28, 2]\nclass = 0", fillcolor="#e78a47"] ;
39 -> 47 ;
48 [label="gini = 0.0\nsamples = 11\nvalue = [11, 0]\nclass = 0", fillcolor="#e58139"] ;
47 -> 48 ;
49 [label="bmi <= -1.163\ngini = 0.188\nsamples = 19\nvalue = [17, 2]\nclass = 0", fillcolor="#e89050"] ;
47 -> 49 ;
50 [label="gini = 0.0\nsamples = 8\nvalue = [8, 0]\nclass = 0", fillcolor="#e58139"] ;
49 -> 50 ;
51 [label="bmi <= -0.953\ngini = 0.298\nsamples = 11\nvalue = [9, 2]\nclass = 0", fillcolor="#eb9d65"] ;
49 -> 51 ;
52 [label="gini = 0.0\nsamples = 1\nvalue = [0, 1]\nclass = 1", fillcolor="#399de5"] ;
51 -> 52 ;
53 [label="blood_glucose_level <= 0.293\ngini = 0.18\nsamples = 10\nvalue = [9, 1]\nclass = 0", fillcolor="#e88f4f"] ;
51 -> 53 ;
54 [label="gini = 0.0\nsamples = 6\nvalue = [6, 0]\nclass = 0", fillcolor="#e58139"] ;
53 -> 54 ;
55 [label="bmi <= -0.178\ngini = 0.375\nsamples = 4\nvalue = [3, 1]\nclass = 0", fillcolor="#eeab7b"] ;
53 -> 55 ;
56 [label="gini = 0.0\nsamples = 3\nvalue = [3, 0]\nclass = 0", fillcolor="#e58139"] ;
55 -> 56 ;
57 [label="gini = 0.0\nsamples = 1\nvalue = [0, 1]\nclass = 1", fillcolor="#399de5"] ;
55 -> 57 ;
58 [label="HbA1c_level <= 0.955\ngini = 0.018\nsamples = 110\nvalue = [109, 1]\nclass = 0", fillcolor="#e5823b"] ;
38 -> 58 ;
59 [label="gini = 0.0\nsamples = 87\nvalue = [87, 0]\nclass = 0", fillcolor="#e58139"] ;
58 -> 59 ;
60 [label="bmi <= -1.426\ngini = 0.083\nsamples = 23\nvalue = [22, 1]\nclass = 0", fillcolor="#e68742"] ;
58 -> 60 ;
61 [label="bmi <= -1.601\ngini = 0.32\nsamples = 5\nvalue = [4, 1]\nclass = 0", fillcolor="#eca06a"] ;
60 -> 61 ;
62 [label="gini = 0.0\nsamples = 4\nvalue = [4, 0]\nclass = 0", fillcolor="#e58139"] ;
61 -> 62 ;
63 [label="gini = 0.0\nsamples = 1\nvalue = [0, 1]\nclass = 1", fillcolor="#399de5"] ;
61 -> 63 ;
64 [label="gini = 0.0\nsamples = 18\nvalue = [18, 0]\nclass = 0", fillcolor="#e58139"] ;
60 -> 64 ;
65 [label="gini = 0.0\nsamples = 68\nvalue = [68, 0]\nclass = 0", fillcolor="#e58139"] ;
37 -> 65 ;
66 [label="gini = 0.0\nsamples = 102\nvalue = [102, 0]\nclass = 0", fillcolor="#e58139"] ;
36 -> 66 ;
67 [label="gini = 0.0\nsamples = 512\nvalue = [512, 0]\nclass = 0", fillcolor="#e58139"] ;
33 -> 67 ;
68 [label="bmi <= 0.468\ngini = 0.021\nsamples = 8401\nvalue = [8313, 88]\nclass = 0", fillcolor="#e5823b"] ;
10 -> 68 ;
69 [label="smoking_history <= 4.5\ngini = 0.019\nsamples = 7917\nvalue = [7841, 76]\nclass = 0", fillcolor="#e5823b"] ;
68 -> 69 ;
70 [label="bmi <= -2.011\ngini = 0.017\nsamples = 7443\nvalue = [7378, 65]\nclass = 0", fillcolor="#e5823b"] ;
69 -> 70 ;
71 [label="blood_glucose_level <= 0.527\ngini = 0.165\nsamples = 11\nvalue = [10, 1]\nclass = 0", fillcolor="#e88e4d"] ;
70 -> 71 ;
72 [label="gini = 0.0\nsamples = 10\nvalue = [10, 0]\nclass = 0", fillcolor="#e58139"] ;
71 -> 72 ;
73 [label="gini = 0.0\nsamples = 1\nvalue = [0, 1]\nclass = 1", fillcolor="#399de5"] ;
71 -> 73 ;
74 [label="gender <= 0.5\ngini = 0.017\nsamples = 7432\nvalue = [7368, 64]\nclass = 0", fillcolor="#e5823b"] ;
70 -> 74 ;
75 [label="age <= 15.5\ngini = 0.012\nsamples = 4612\nvalue = [4583, 29]\nclass = 0", fillcolor="#e5823a"] ;
74 -> 75 ;
76 [label="blood_glucose_level <= -0.247\ngini = 0.038\nsamples = 256\nvalue = [251, 5]\nclass = 0", fillcolor="#e6843d"] ;
75 -> 76 ;
77 [label="smoking_history <= 2.0\ngini = 0.175\nsamples = 31\nvalue = [28, 3]\nclass = 0", fillcolor="#e88e4e"] ;
76 -> 77 ;
78 [label="gini = 0.0\nsamples = 16\nvalue = [16, 0]\nclass = 0", fillcolor="#e58139"] ;
77 -> 78 ;
79 [label="HbA1c_level <= 0.955\ngini = 0.32\nsamples = 15\nvalue = [12, 3]\nclass = 0", fillcolor="#eca06a"] ;
77 -> 79 ;
80 [label="bmi <= -0.99\ngini = 0.245\nsamples = 14\nvalue = [12, 2]\nclass = 0", fillcolor="#e9965a"] ;
79 -> 80 ;
81 [label="gini = 0.0\nsamples = 7\nvalue = [7, 0]\nclass = 0", fillcolor="#e58139"] ;
80 -> 81 ;
82 [label="bmi <= -0.918\ngini = 0.408\nsamples = 7\nvalue = [5, 2]\nclass = 0", fillcolor="#efb388"] ;
80 -> 82 ;
83 [label="gini = 0.0\nsamples = 1\nvalue = [0, 1]\nclass = 1", fillcolor="#399de5"] ;
82 -> 83 ;
84 [label="bmi <= -0.342\ngini = 0.278\nsamples = 6\nvalue = [5, 1]\nclass = 0", fillcolor="#ea9a61"] ;
82 -> 84 ;
85 [label="bmi <= -0.352\ngini = 0.444\nsamples = 3\nvalue = [2, 1]\nclass = 0", fillcolor="#f2c09c"] ;
84 -> 85 ;
86 [label="gini = 0.0\nsamples = 2\nvalue = [2, 0]\nclass = 0", fillcolor="#e58139"] ;
85 -> 86 ;
87 [label="gini = 0.0\nsamples = 1\nvalue = [0, 1]\nclass = 1", fillcolor="#399de5"] ;
85 -> 87 ;
88 [label="gini = 0.0\nsamples = 3\nvalue = [3, 0]\nclass = 0", fillcolor="#e58139"] ;
84 -> 88 ;
89 [label="gini = 0.0\nsamples = 1\nvalue = [0, 1]\nclass = 1", fillcolor="#399de5"] ;
79 -> 89 ;
90 [label="bmi <= -1.119\ngini = 0.018\nsamples = 225\nvalue = [223, 2]\nclass = 0", fillcolor="#e5823b"] ;
76 -> 90 ;
91 [label="bmi <= -1.122\ngini = 0.068\nsamples = 57\nvalue = [55, 2]\nclass = 0", fillcolor="#e68640"] ;
90 -> 91 ;
92 [label="blood_glucose_level <= 0.502\ngini = 0.035\nsamples = 56\nvalue = [55, 1]\nclass = 0", fillcolor="#e5833d"] ;
91 -> 92 ;
93 [label="gini = 0.0\nsamples = 37\nvalue = [37, 0]\nclass = 0", fillcolor="#e58139"] ;
92 -> 93 ;
94 [label="bmi <= -1.334\ngini = 0.1\nsamples = 19\nvalue = [18, 1]\nclass = 0", fillcolor="#e68844"] ;
92 -> 94 ;
95 [label="bmi <= -1.349\ngini = 0.198\nsamples = 9\nvalue = [8, 1]\nclass = 0", fillcolor="#e89152"] ;
94 -> 95 ;
96 [label="gini = 0.0\nsamples = 8\nvalue = [8, 0]\nclass = 0", fillcolor="#e58139"] ;
95 -> 96 ;
97 [label="gini = 0.0\nsamples = 1\nvalue = [0, 1]\nclass = 1", fillcolor="#399de5"] ;
95 -> 97 ;
98 [label="gini = 0.0\nsamples = 10\nvalue = [10, 0]\nclass = 0", fillcolor="#e58139"] ;
94 -> 98 ;
99 [label="gini = 0.0\nsamples = 1\nvalue = [0, 1]\nclass = 1", fillcolor="#399de5"] ;
91 -> 99 ;
100 [label="gini = 0.0\nsamples = 168\nvalue = [168, 0]\nclass = 0", fillcolor="#e58139"] ;
90 -> 100 ;
101 [label="bmi <= 0.189\ngini = 0.011\nsamples = 4356\nvalue = [4332, 24]\nclass = 0", fillcolor="#e5823a"] ;
75 -> 101 ;
102 [label="blood_glucose_level <= 0.293\ngini = 0.01\nsamples = 4073\nvalue = [4053, 20]\nclass = 0", fillcolor="#e5823a"] ;
101 -> 102 ;
103 [label="age <= 29.5\ngini = 0.014\nsamples = 1822\nvalue = [1809, 13]\nclass = 0", fillcolor="#e5823a"] ;
102 -> 103 ;
104 [label="age <= 27.5\ngini = 0.021\nsamples = 1138\nvalue = [1126, 12]\nclass = 0", fillcolor="#e5823b"] ;
103 -> 104 ;
105 [label="HbA1c_level <= 0.955\ngini = 0.01\nsamples = 973\nvalue = [968, 5]\nclass = 0", fillcolor="#e5823a"] ;
104 -> 105 ;
106 [label="age <= 26.5\ngini = 0.007\nsamples = 839\nvalue = [836, 3]\nclass = 0", fillcolor="#e5813a"] ;
105 -> 106 ;
107 [label="bmi <= -0.665\ngini = 0.005\nsamples = 770\nvalue = [768, 2]\nclass = 0", fillcolor="#e5813a"] ;
106 -> 107 ;
108 [label="bmi <= -0.667\ngini = 0.015\nsamples = 268\nvalue = [266, 2]\nclass = 0", fillcolor="#e5823a"] ;
107 -> 108 ;
109 [label="bmi <= -0.783\ngini = 0.007\nsamples = 266\nvalue = [265, 1]\nclass = 0", fillcolor="#e5813a"] ;
108 -> 109 ;
110 [label="gini = 0.0\nsamples = 222\nvalue = [222, 0]\nclass = 0", fillcolor="#e58139"] ;
109 -> 110 ;
111 [label="bmi <= -0.776\ngini = 0.044\nsamples = 44\nvalue = [43, 1]\nclass = 0", fillcolor="#e6843e"] ;
109 -> 111 ;
112 [label="age <= 20.5\ngini = 0.444\nsamples = 3\nvalue = [2, 1]\nclass = 0", fillcolor="#f2c09c"] ;
111 -> 112 ;
113 [label="gini = 0.0\nsamples = 2\nvalue = [2, 0]\nclass = 0", fillcolor="#e58139"] ;
112 -> 113 ;
114 [label="gini = 0.0\nsamples = 1\nvalue = [0, 1]\nclass = 1", fillcolor="#399de5"] ;
112 -> 114 ;
115 [label="gini = 0.0\nsamples = 41\nvalue = [41, 0]\nclass = 0", fillcolor="#e58139"] ;
111 -> 115 ;
116 [label="age <= 20.5\ngini = 0.5\nsamples = 2\nvalue = [1, 1]\nclass = 0", fillcolor="#ffffff"] ;
108 -> 116 ;
117 [label="gini = 0.0\nsamples = 1\nvalue = [0, 1]\nclass = 1", fillcolor="#399de5"] ;
116 -> 117 ;
118 [label="gini = 0.0\nsamples = 1\nvalue = [1, 0]\nclass = 0", fillcolor="#e58139"] ;
116 -> 118 ;
119 [label="gini = 0.0\nsamples = 502\nvalue = [502, 0]\nclass = 0", fillcolor="#e58139"] ;
107 -> 119 ;
120 [label="HbA1c_level <= 0.208\ngini = 0.029\nsamples = 69\nvalue = [68, 1]\nclass = 0", fillcolor="#e5833c"] ;
106 -> 120 ;
121 [label="bmi <= -0.077\ngini = 0.165\nsamples = 11\nvalue = [10, 1]\nclass = 0", fillcolor="#e88e4d"] ;
120 -> 121 ;
122 [label="gini = 0.0\nsamples = 8\nvalue = [8, 0]\nclass = 0", fillcolor="#e58139"] ;
121 -> 122 ;
123 [label="blood_glucose_level <= 0.109\ngini = 0.444\nsamples = 3\nvalue = [2, 1]\nclass = 0", fillcolor="#f2c09c"] ;
121 -> 123 ;
124 [label="gini = 0.0\nsamples = 2\nvalue = [2, 0]\nclass = 0", fillcolor="#e58139"] ;
123 -> 124 ;
125 [label="gini = 0.0\nsamples = 1\nvalue = [0, 1]\nclass = 1", fillcolor="#399de5"] ;
123 -> 125 ;
126 [label="gini = 0.0\nsamples = 58\nvalue = [58, 0]\nclass = 0", fillcolor="#e58139"] ;
120 -> 126 ;
127 [label="blood_glucose_level <= -0.075\ngini = 0.029\nsamples = 134\nvalue = [132, 2]\nclass = 0", fillcolor="#e5833c"] ;
105 -> 127 ;
128 [label="gini = 0.0\nsamples = 67\nvalue = [67, 0]\nclass = 0", fillcolor="#e58139"] ;
127 -> 128 ;
129 [label="smoking_history <= 3.5\ngini = 0.058\nsamples = 67\nvalue = [65, 2]\nclass = 0", fillcolor="#e6853f"] ;
127 -> 129 ;
130 [label="gini = 0.0\nsamples = 33\nvalue = [33, 0]\nclass = 0", fillcolor="#e58139"] ;
129 -> 130 ;
131 [label="bmi <= -0.973\ngini = 0.111\nsamples = 34\nvalue = [32, 2]\nclass = 0", fillcolor="#e78945"] ;
129 -> 131 ;
132 [label="gini = 0.0\nsamples = 12\nvalue = [12, 0]\nclass = 0", fillcolor="#e58139"] ;
131 -> 132 ;
133 [label="bmi <= -0.94\ngini = 0.165\nsamples = 22\nvalue = [20, 2]\nclass = 0", fillcolor="#e88e4d"] ;
131 -> 133 ;
134 [label="gini = 0.0\nsamples = 1\nvalue = [0, 1]\nclass = 1", fillcolor="#399de5"] ;
133 -> 134 ;
135 [label="bmi <= -0.095\ngini = 0.091\nsamples = 21\nvalue = [20, 1]\nclass = 0", fillcolor="#e68743"] ;
133 -> 135 ;
136 [label="gini = 0.0\nsamples = 13\nvalue = [13, 0]\nclass = 0", fillcolor="#e58139"] ;
135 -> 136 ;
137 [label="age <= 23.5\ngini = 0.219\nsamples = 8\nvalue = [7, 1]\nclass = 0", fillcolor="#e99355"] ;
135 -> 137 ;
138 [label="gini = 0.0\nsamples = 5\nvalue = [5, 0]\nclass = 0", fillcolor="#e58139"] ;
137 -> 138 ;
139 [label="age <= 24.5\ngini = 0.444\nsamples = 3\nvalue = [2, 1]\nclass = 0", fillcolor="#f2c09c"] ;
137 -> 139 ;
140 [label="gini = 0.0\nsamples = 1\nvalue = [0, 1]\nclass = 1", fillcolor="#399de5"] ;
139 -> 140 ;
141 [label="gini = 0.0\nsamples = 2\nvalue = [2, 0]\nclass = 0", fillcolor="#e58139"] ;
139 -> 141 ;
142 [label="HbA1c_level <= 0.768\ngini = 0.081\nsamples = 165\nvalue = [158, 7]\nclass = 0", fillcolor="#e68742"] ;
104 -> 142 ;
143 [label="blood_glucose_level <= -0.247\ngini = 0.111\nsamples = 119\nvalue = [112, 7]\nclass = 0", fillcolor="#e78945"] ;
142 -> 143 ;
144 [label="smoking_history <= 1.5\ngini = 0.219\nsamples = 24\nvalue = [21, 3]\nclass = 0", fillcolor="#e99355"] ;
143 -> 144 ;
145 [label="gini = 0.0\nsamples = 7\nvalue = [7, 0]\nclass = 0", fillcolor="#e58139"] ;
144 -> 145 ;
146 [label="bmi <= -0.94\ngini = 0.291\nsamples = 17\nvalue = [14, 3]\nclass = 0", fillcolor="#eb9c63"] ;
144 -> 146 ;
147 [label="gini = 0.0\nsamples = 6\nvalue = [6, 0]\nclass = 0", fillcolor="#e58139"] ;
146 -> 147 ;
148 [label="HbA1c_level <= 0.535\ngini = 0.397\nsamples = 11\nvalue = [8, 3]\nclass = 0", fillcolor="#efb083"] ;
146 -> 148 ;
149 [label="bmi <= -0.309\ngini = 0.32\nsamples = 10\nvalue = [8, 2]\nclass = 0", fillcolor="#eca06a"] ;
148 -> 149 ;
150 [label="gini = 0.0\nsamples = 4\nvalue = [4, 0]\nclass = 0", fillcolor="#e58139"] ;
149 -> 150 ;
151 [label="bmi <= -0.185\ngini = 0.444\nsamples = 6\nvalue = [4, 2]\nclass = 0", fillcolor="#f2c09c"] ;
149 -> 151 ;
152 [label="gini = 0.0\nsamples = 1\nvalue = [0, 1]\nclass = 1", fillcolor="#399de5"] ;
151 -> 152 ;
153 [label="HbA1c_level <= 0.348\ngini = 0.32\nsamples = 5\nvalue = [4, 1]\nclass = 0", fillcolor="#eca06a"] ;
151 -> 153 ;
154 [label="smoking_history <= 3.5\ngini = 0.444\nsamples = 3\nvalue = [2, 1]\nclass = 0", fillcolor="#f2c09c"] ;
153 -> 154 ;
155 [label="gini = 0.0\nsamples = 1\nvalue = [1, 0]\nclass = 0", fillcolor="#e58139"] ;
154 -> 155 ;
156 [label="bmi <= -0.048\ngini = 0.5\nsamples = 2\nvalue = [1, 1]\nclass = 0", fillcolor="#ffffff"] ;
154 -> 156 ;
157 [label="gini = 0.0\nsamples = 1\nvalue = [1, 0]\nclass = 0", fillcolor="#e58139"] ;
156 -> 157 ;
158 [label="gini = 0.0\nsamples = 1\nvalue = [0, 1]\nclass = 1", fillcolor="#399de5"] ;
156 -> 158 ;
159 [label="gini = 0.0\nsamples = 2\nvalue = [2, 0]\nclass = 0", fillcolor="#e58139"] ;
153 -> 159 ;
160 [label="gini = 0.0\nsamples = 1\nvalue = [0, 1]\nclass = 1", fillcolor="#399de5"] ;
148 -> 160 ;
161 [label="smoking_history <= 2.5\ngini = 0.081\nsamples = 95\nvalue = [91, 4]\nclass = 0", fillcolor="#e68742"] ;
143 -> 161 ;
162 [label="smoking_history <= 1.5\ngini = 0.156\nsamples = 47\nvalue = [43, 4]\nclass = 0", fillcolor="#e78d4b"] ;
161 -> 162 ;
163 [label="bmi <= -0.023\ngini = 0.127\nsamples = 44\nvalue = [41, 3]\nclass = 0", fillcolor="#e78a47"] ;
162 -> 163 ;
164 [label="gini = 0.0\nsamples = 25\nvalue = [25, 0]\nclass = 0", fillcolor="#e58139"] ;
163 -> 164 ;
165 [label="HbA1c_level <= 0.488\ngini = 0.266\nsamples = 19\nvalue = [16, 3]\nclass = 0", fillcolor="#ea995e"] ;
163 -> 165 ;
166 [label="HbA1c_level <= 0.348\ngini = 0.397\nsamples = 11\nvalue = [8, 3]\nclass = 0", fillcolor="#efb083"] ;
165 -> 166 ;
167 [label="blood_glucose_level <= 0.109\ngini = 0.219\nsamples = 8\nvalue = [7, 1]\nclass = 0", fillcolor="#e99355"] ;
166 -> 167 ;
168 [label="gini = 0.0\nsamples = 5\nvalue = [5, 0]\nclass = 0", fillcolor="#e58139"] ;
167 -> 168 ;
169 [label="age <= 28.5\ngini = 0.444\nsamples = 3\nvalue = [2, 1]\nclass = 0", fillcolor="#f2c09c"] ;
167 -> 169 ;
170 [label="gini = 0.0\nsamples = 1\nvalue = [0, 1]\nclass = 1", fillcolor="#399de5"] ;
169 -> 170 ;
171 [label="gini = 0.0\nsamples = 2\nvalue = [2, 0]\nclass = 0", fillcolor="#e58139"] ;
169 -> 171 ;
172 [label="smoking_history <= 0.5\ngini = 0.444\nsamples = 3\nvalue = [1, 2]\nclass = 1", fillcolor="#9ccef2"] ;
166 -> 172 ;
173 [label="gini = 0.5\nsamples = 2\nvalue = [1, 1]\nclass = 0", fillcolor="#ffffff"] ;
172 -> 173 ;
174 [label="gini = 0.0\nsamples = 1\nvalue = [0, 1]\nclass = 1", fillcolor="#399de5"] ;
172 -> 174 ;
175 [label="gini = 0.0\nsamples = 8\nvalue = [8, 0]\nclass = 0", fillcolor="#e58139"] ;
165 -> 175 ;
176 [label="blood_glucose_level <= -0.075\ngini = 0.444\nsamples = 3\nvalue = [2, 1]\nclass = 0", fillcolor="#f2c09c"] ;
162 -> 176 ;
177 [label="gini = 0.0\nsamples = 2\nvalue = [2, 0]\nclass = 0", fillcolor="#e58139"] ;
176 -> 177 ;
178 [label="gini = 0.0\nsamples = 1\nvalue = [0, 1]\nclass = 1", fillcolor="#399de5"] ;
176 -> 178 ;
179 [label="gini = 0.0\nsamples = 48\nvalue = [48, 0]\nclass = 0", fillcolor="#e58139"] ;
161 -> 179 ;
180 [label="gini = 0.0\nsamples = 46\nvalue = [46, 0]\nclass = 0", fillcolor="#e58139"] ;
142 -> 180 ;
181 [label="bmi <= -1.458\ngini = 0.003\nsamples = 684\nvalue = [683, 1]\nclass = 0", fillcolor="#e58139"] ;
103 -> 181 ;
182 [label="blood_glucose_level <= 0.109\ngini = 0.278\nsamples = 6\nvalue = [5, 1]\nclass = 0", fillcolor="#ea9a61"] ;
181 -> 182 ;
183 [label="gini = 0.0\nsamples = 5\nvalue = [5, 0]\nclass = 0", fillcolor="#e58139"] ;
182 -> 183 ;
184 [label="gini = 0.0\nsamples = 1\nvalue = [0, 1]\nclass = 1", fillcolor="#399de5"] ;
182 -> 184 ;
185 [label="gini = 0.0\nsamples = 678\nvalue = [678, 0]\nclass = 0", fillcolor="#e58139"] ;
181 -> 185 ;
186 [label="bmi <= -0.689\ngini = 0.006\nsamples = 2251\nvalue = [2244, 7]\nclass = 0", fillcolor="#e5813a"] ;
102 -> 186 ;
187 [label="gini = 0.0\nsamples = 699\nvalue = [699, 0]\nclass = 0", fillcolor="#e58139"] ;
186 -> 187 ;
188 [label="bmi <= -0.688\ngini = 0.009\nsamples = 1552\nvalue = [1545, 7]\nclass = 0", fillcolor="#e5823a"] ;
186 -> 188 ;
189 [label="gini = 0.0\nsamples = 1\nvalue = [0, 1]\nclass = 1", fillcolor="#399de5"] ;
188 -> 189 ;
190 [label="age <= 28.5\ngini = 0.008\nsamples = 1551\nvalue = [1545, 6]\nclass = 0", fillcolor="#e5813a"] ;
188 -> 190 ;
191 [label="blood_glucose_level <= 0.527\ngini = 0.002\nsamples = 866\nvalue = [865, 1]\nclass = 0", fillcolor="#e58139"] ;
190 -> 191 ;
192 [label="gini = 0.0\nsamples = 531\nvalue = [531, 0]\nclass = 0", fillcolor="#e58139"] ;
191 -> 192 ;
193 [label="HbA1c_level <= 0.488\ngini = 0.006\nsamples = 335\nvalue = [334, 1]\nclass = 0", fillcolor="#e5813a"] ;
191 -> 193 ;
194 [label="HbA1c_level <= 0.348\ngini = 0.013\nsamples = 150\nvalue = [149, 1]\nclass = 0", fillcolor="#e5823a"] ;
193 -> 194 ;
195 [label="gini = 0.0\nsamples = 96\nvalue = [96, 0]\nclass = 0", fillcolor="#e58139"] ;
194 -> 195 ;
196 [label="blood_glucose_level <= 1.03\ngini = 0.036\nsamples = 54\nvalue = [53, 1]\nclass = 0", fillcolor="#e5833d"] ;
194 -> 196 ;
197 [label="bmi <= -0.024\ngini = 0.08\nsamples = 24\nvalue = [23, 1]\nclass = 0", fillcolor="#e68642"] ;
196 -> 197 ;
198 [label="gini = 0.0\nsamples = 16\nvalue = [16, 0]\nclass = 0", fillcolor="#e58139"] ;
197 -> 198 ;
199 [label="age <= 22.5\ngini = 0.219\nsamples = 8\nvalue = [7, 1]\nclass = 0", fillcolor="#e99355"] ;
197 -> 199 ;
200 [label="smoking_history <= 0.5\ngini = 0.444\nsamples = 3\nvalue = [2, 1]\nclass = 0", fillcolor="#f2c09c"] ;
199 -> 200 ;
201 [label="gini = 0.0\nsamples = 2\nvalue = [2, 0]\nclass = 0", fillcolor="#e58139"] ;
200 -> 201 ;
202 [label="gini = 0.0\nsamples = 1\nvalue = [0, 1]\nclass = 1", fillcolor="#399de5"] ;
200 -> 202 ;
203 [label="gini = 0.0\nsamples = 5\nvalue = [5, 0]\nclass = 0", fillcolor="#e58139"] ;
199 -> 203 ;
204 [label="gini = 0.0\nsamples = 30\nvalue = [30, 0]\nclass = 0", fillcolor="#e58139"] ;
196 -> 204 ;
205 [label="gini = 0.0\nsamples = 185\nvalue = [185, 0]\nclass = 0", fillcolor="#e58139"] ;
193 -> 205 ;
206 [label="HbA1c_level <= 0.488\ngini = 0.014\nsamples = 685\nvalue = [680, 5]\nclass = 0", fillcolor="#e5823a"] ;
190 -> 206 ;
207 [label="gini = 0.0\nsamples = 293\nvalue = [293, 0]\nclass = 0", fillcolor="#e58139"] ;
206 -> 207 ;
208 [label="bmi <= 0.056\ngini = 0.025\nsamples = 392\nvalue = [387, 5]\nclass = 0", fillcolor="#e5833c"] ;
206 -> 208 ;
209 [label="blood_glucose_level <= 0.453\ngini = 0.022\nsamples = 367\nvalue = [363, 4]\nclass = 0", fillcolor="#e5823b"] ;
208 -> 209 ;
210 [label="age <= 33.5\ngini = 0.046\nsamples = 84\nvalue = [82, 2]\nclass = 0", fillcolor="#e6843e"] ;
209 -> 210 ;
211 [label="gini = 0.0\nsamples = 40\nvalue = [40, 0]\nclass = 0", fillcolor="#e58139"] ;
210 -> 211 ;
212 [label="bmi <= -0.022\ngini = 0.087\nsamples = 44\nvalue = [42, 2]\nclass = 0", fillcolor="#e68742"] ;
210 -> 212 ;
213 [label="gini = 0.0\nsamples = 18\nvalue = [18, 0]\nclass = 0", fillcolor="#e58139"] ;
212 -> 213 ;
214 [label="bmi <= -0.003\ngini = 0.142\nsamples = 26\nvalue = [24, 2]\nclass = 0", fillcolor="#e78c49"] ;
212 -> 214 ;
215 [label="gini = 0.0\nsamples = 1\nvalue = [0, 1]\nclass = 1", fillcolor="#399de5"] ;
214 -> 215 ;
216 [label="HbA1c_level <= 0.581\ngini = 0.077\nsamples = 25\nvalue = [24, 1]\nclass = 0", fillcolor="#e68641"] ;
214 -> 216 ;
217 [label="age <= 36.5\ngini = 0.278\nsamples = 6\nvalue = [5, 1]\nclass = 0", fillcolor="#ea9a61"] ;
216 -> 217 ;
218 [label="gini = 0.0\nsamples = 3\nvalue = [3, 0]\nclass = 0", fillcolor="#e58139"] ;
217 -> 218 ;
219 [label="gini = 0.444\nsamples = 3\nvalue = [2, 1]\nclass = 0", fillcolor="#f2c09c"] ;
217 -> 219 ;
220 [label="gini = 0.0\nsamples = 19\nvalue = [19, 0]\nclass = 0", fillcolor="#e58139"] ;
216 -> 220 ;
221 [label="smoking_history <= 1.5\ngini = 0.014\nsamples = 283\nvalue = [281, 2]\nclass = 0", fillcolor="#e5823a"] ;
209 -> 221 ;
222 [label="bmi <= -0.399\ngini = 0.027\nsamples = 147\nvalue = [145, 2]\nclass = 0", fillcolor="#e5833c"] ;
221 -> 222 ;
223 [label="bmi <= -0.408\ngini = 0.1\nsamples = 19\nvalue = [18, 1]\nclass = 0", fillcolor="#e68844"] ;
222 -> 223 ;
224 [label="gini = 0.0\nsamples = 18\nvalue = [18, 0]\nclass = 0", fillcolor="#e58139"] ;
223 -> 224 ;
225 [label="gini = 0.0\nsamples = 1\nvalue = [0, 1]\nclass = 1", fillcolor="#399de5"] ;
223 -> 225 ;
226 [label="smoking_history <= 0.5\ngini = 0.016\nsamples = 128\nvalue = [127, 1]\nclass = 0", fillcolor="#e5823b"] ;
222 -> 226 ;
227 [label="gini = 0.0\nsamples = 103\nvalue = [103, 0]\nclass = 0", fillcolor="#e58139"] ;
226 -> 227 ;
228 [label="blood_glucose_level <= 1.03\ngini = 0.077\nsamples = 25\nvalue = [24, 1]\nclass = 0", fillcolor="#e68641"] ;
226 -> 228 ;
229 [label="gini = 0.0\nsamples = 20\nvalue = [20, 0]\nclass = 0", fillcolor="#e58139"] ;
228 -> 229 ;
230 [label="HbA1c_level <= 0.581\ngini = 0.32\nsamples = 5\nvalue = [4, 1]\nclass = 0", fillcolor="#eca06a"] ;
228 -> 230 ;
231 [label="gini = 0.0\nsamples = 2\nvalue = [2, 0]\nclass = 0", fillcolor="#e58139"] ;
230 -> 231 ;
232 [label="HbA1c_level <= 0.815\ngini = 0.444\nsamples = 3\nvalue = [2, 1]\nclass = 0", fillcolor="#f2c09c"] ;
230 -> 232 ;
233 [label="age <= 34.0\ngini = 0.5\nsamples = 2\nvalue = [1, 1]\nclass = 0", fillcolor="#ffffff"] ;
232 -> 233 ;
234 [label="gini = 0.0\nsamples = 1\nvalue = [0, 1]\nclass = 1", fillcolor="#399de5"] ;
233 -> 234 ;
235 [label="gini = 0.0\nsamples = 1\nvalue = [1, 0]\nclass = 0", fillcolor="#e58139"] ;
233 -> 235 ;
236 [label="gini = 0.0\nsamples = 1\nvalue = [1, 0]\nclass = 0", fillcolor="#e58139"] ;
232 -> 236 ;
237 [label="gini = 0.0\nsamples = 136\nvalue = [136, 0]\nclass = 0", fillcolor="#e58139"] ;
221 -> 237 ;
238 [label="bmi <= 0.068\ngini = 0.077\nsamples = 25\nvalue = [24, 1]\nclass = 0", fillcolor="#e68641"] ;
208 -> 238 ;
239 [label="age <= 33.0\ngini = 0.5\nsamples = 2\nvalue = [1, 1]\nclass = 0", fillcolor="#ffffff"] ;
238 -> 239 ;
240 [label="gini = 0.0\nsamples = 1\nvalue = [0, 1]\nclass = 1", fillcolor="#399de5"] ;
239 -> 240 ;
241 [label="gini = 0.0\nsamples = 1\nvalue = [1, 0]\nclass = 0", fillcolor="#e58139"] ;
239 -> 241 ;
242 [label="gini = 0.0\nsamples = 23\nvalue = [23, 0]\nclass = 0", fillcolor="#e58139"] ;
238 -> 242 ;
243 [label="bmi <= 0.192\ngini = 0.028\nsamples = 283\nvalue = [279, 4]\nclass = 0", fillcolor="#e5833c"] ;
101 -> 243 ;
244 [label="smoking_history <= 2.5\ngini = 0.5\nsamples = 2\nvalue = [1, 1]\nclass = 0", fillcolor="#ffffff"] ;
243 -> 244 ;
245 [label="gini = 0.0\nsamples = 1\nvalue = [1, 0]\nclass = 0", fillcolor="#e58139"] ;
244 -> 245 ;
246 [label="gini = 0.0\nsamples = 1\nvalue = [0, 1]\nclass = 1", fillcolor="#399de5"] ;
244 -> 246 ;
247 [label="age <= 35.5\ngini = 0.021\nsamples = 281\nvalue = [278, 3]\nclass = 0", fillcolor="#e5823b"] ;
243 -> 247 ;
248 [label="age <= 18.5\ngini = 0.009\nsamples = 234\nvalue = [233, 1]\nclass = 0", fillcolor="#e5823a"] ;
247 -> 248 ;
249 [label="bmi <= 0.386\ngini = 0.083\nsamples = 23\nvalue = [22, 1]\nclass = 0", fillcolor="#e68742"] ;
248 -> 249 ;
250 [label="gini = 0.0\nsamples = 17\nvalue = [17, 0]\nclass = 0", fillcolor="#e58139"] ;
249 -> 250 ;
251 [label="age <= 17.5\ngini = 0.278\nsamples = 6\nvalue = [5, 1]\nclass = 0", fillcolor="#ea9a61"] ;
249 -> 251 ;
252 [label="gini = 0.0\nsamples = 5\nvalue = [5, 0]\nclass = 0", fillcolor="#e58139"] ;
251 -> 252 ;
253 [label="gini = 0.0\nsamples = 1\nvalue = [0, 1]\nclass = 1", fillcolor="#399de5"] ;
251 -> 253 ;
254 [label="gini = 0.0\nsamples = 211\nvalue = [211, 0]\nclass = 0", fillcolor="#e58139"] ;
248 -> 254 ;
255 [label="bmi <= 0.253\ngini = 0.081\nsamples = 47\nvalue = [45, 2]\nclass = 0", fillcolor="#e68742"] ;
247 -> 255 ;
256 [label="HbA1c_level <= 0.348\ngini = 0.245\nsamples = 14\nvalue = [12, 2]\nclass = 0", fillcolor="#e9965a"] ;
255 -> 256 ;
257 [label="HbA1c_level <= 0.208\ngini = 0.5\nsamples = 4\nvalue = [2, 2]\nclass = 0", fillcolor="#ffffff"] ;
256 -> 257 ;
258 [label="gini = 0.0\nsamples = 2\nvalue = [2, 0]\nclass = 0", fillcolor="#e58139"] ;
257 -> 258 ;
259 [label="gini = 0.0\nsamples = 2\nvalue = [0, 2]\nclass = 1", fillcolor="#399de5"] ;
257 -> 259 ;
260 [label="gini = 0.0\nsamples = 10\nvalue = [10, 0]\nclass = 0", fillcolor="#e58139"] ;
256 -> 260 ;
261 [label="gini = 0.0\nsamples = 33\nvalue = [33, 0]\nclass = 0", fillcolor="#e58139"] ;
255 -> 261 ;
262 [label="smoking_history <= 1.5\ngini = 0.025\nsamples = 2820\nvalue = [2785, 35]\nclass = 0", fillcolor="#e5833b"] ;
74 -> 262 ;
263 [label="age <= 22.5\ngini = 0.014\nsamples = 1565\nvalue = [1554, 11]\nclass = 0", fillcolor="#e5823a"] ;
262 -> 263 ;
264 [label="bmi <= -1.236\ngini = 0.003\nsamples = 656\nvalue = [655, 1]\nclass = 0", fillcolor="#e58139"] ;
263 -> 264 ;
265 [label="bmi <= -1.24\ngini = 0.033\nsamples = 60\nvalue = [59, 1]\nclass = 0", fillcolor="#e5833c"] ;
264 -> 265 ;
266 [label="gini = 0.0\nsamples = 59\nvalue = [59, 0]\nclass = 0", fillcolor="#e58139"] ;
265 -> 266 ;
267 [label="gini = 0.0\nsamples = 1\nvalue = [0, 1]\nclass = 1", fillcolor="#399de5"] ;
265 -> 267 ;
268 [label="gini = 0.0\nsamples = 596\nvalue = [596, 0]\nclass = 0", fillcolor="#e58139"] ;
264 -> 268 ;
269 [label="bmi <= -1.201\ngini = 0.022\nsamples = 909\nvalue = [899, 10]\nclass = 0", fillcolor="#e5823b"] ;
263 -> 269 ;
270 [label="bmi <= -1.215\ngini = 0.165\nsamples = 11\nvalue = [10, 1]\nclass = 0", fillcolor="#e88e4d"] ;
269 -> 270 ;
271 [label="gini = 0.0\nsamples = 10\nvalue = [10, 0]\nclass = 0", fillcolor="#e58139"] ;
270 -> 271 ;
272 [label="gini = 0.0\nsamples = 1\nvalue = [0, 1]\nclass = 1", fillcolor="#399de5"] ;
270 -> 272 ;
273 [label="age <= 32.5\ngini = 0.02\nsamples = 898\nvalue = [889, 9]\nclass = 0", fillcolor="#e5823b"] ;
269 -> 273 ;
274 [label="blood_glucose_level <= 0.453\ngini = 0.03\nsamples = 585\nvalue = [576, 9]\nclass = 0", fillcolor="#e5833c"] ;
273 -> 274 ;
275 [label="HbA1c_level <= 0.208\ngini = 0.05\nsamples = 313\nvalue = [305, 8]\nclass = 0", fillcolor="#e6843e"] ;
274 -> 275 ;
276 [label="bmi <= 0.006\ngini = 0.142\nsamples = 39\nvalue = [36, 3]\nclass = 0", fillcolor="#e78c49"] ;
275 -> 276 ;
277 [label="blood_glucose_level <= 0.293\ngini = 0.185\nsamples = 29\nvalue = [26, 3]\nclass = 0", fillcolor="#e89050"] ;
276 -> 277 ;
278 [label="blood_glucose_level <= -0.247\ngini = 0.236\nsamples = 22\nvalue = [19, 3]\nclass = 0", fillcolor="#e99558"] ;
277 -> 278 ;
279 [label="gini = 0.0\nsamples = 6\nvalue = [6, 0]\nclass = 0", fillcolor="#e58139"] ;
278 -> 279 ;
280 [label="age <= 30.5\ngini = 0.305\nsamples = 16\nvalue = [13, 3]\nclass = 0", fillcolor="#eb9e67"] ;
278 -> 280 ;
281 [label="age <= 28.5\ngini = 0.337\nsamples = 14\nvalue = [11, 3]\nclass = 0", fillcolor="#eca36f"] ;
280 -> 281 ;
282 [label="smoking_history <= 0.5\ngini = 0.26\nsamples = 13\nvalue = [11, 2]\nclass = 0", fillcolor="#ea985d"] ;
281 -> 282 ;
283 [label="age <= 26.5\ngini = 0.408\nsamples = 7\nvalue = [5, 2]\nclass = 0", fillcolor="#efb388"] ;
282 -> 283 ;
284 [label="bmi <= -0.103\ngini = 0.5\nsamples = 4\nvalue = [2, 2]\nclass = 0", fillcolor="#ffffff"] ;
283 -> 284 ;
285 [label="gini = 0.0\nsamples = 1\nvalue = [1, 0]\nclass = 0", fillcolor="#e58139"] ;
284 -> 285 ;
286 [label="blood_glucose_level <= -0.075\ngini = 0.444\nsamples = 3\nvalue = [1, 2]\nclass = 1", fillcolor="#9ccef2"] ;
284 -> 286 ;
287 [label="gini = 0.0\nsamples = 1\nvalue = [0, 1]\nclass = 1", fillcolor="#399de5"] ;
286 -> 287 ;
288 [label="blood_glucose_level <= 0.109\ngini = 0.5\nsamples = 2\nvalue = [1, 1]\nclass = 0", fillcolor="#ffffff"] ;
286 -> 288 ;
289 [label="gini = 0.0\nsamples = 1\nvalue = [1, 0]\nclass = 0", fillcolor="#e58139"] ;
288 -> 289 ;
290 [label="gini = 0.0\nsamples = 1\nvalue = [0, 1]\nclass = 1", fillcolor="#399de5"] ;
288 -> 290 ;
291 [label="gini = 0.0\nsamples = 3\nvalue = [3, 0]\nclass = 0", fillcolor="#e58139"] ;
283 -> 291 ;
292 [label="gini = 0.0\nsamples = 6\nvalue = [6, 0]\nclass = 0", fillcolor="#e58139"] ;
282 -> 292 ;
293 [label="gini = 0.0\nsamples = 1\nvalue = [0, 1]\nclass = 1", fillcolor="#399de5"] ;
281 -> 293 ;
294 [label="gini = 0.0\nsamples = 2\nvalue = [2, 0]\nclass = 0", fillcolor="#e58139"] ;
280 -> 294 ;
295 [label="gini = 0.0\nsamples = 7\nvalue = [7, 0]\nclass = 0", fillcolor="#e58139"] ;
277 -> 295 ;
296 [label="gini = 0.0\nsamples = 10\nvalue = [10, 0]\nclass = 0", fillcolor="#e58139"] ;
276 -> 296 ;
297 [label="HbA1c_level <= 0.348\ngini = 0.036\nsamples = 274\nvalue = [269, 5]\nclass = 0", fillcolor="#e5833d"] ;
275 -> 297 ;
298 [label="gini = 0.0\nsamples = 53\nvalue = [53, 0]\nclass = 0", fillcolor="#e58139"] ;
297 -> 298 ;
299 [label="age <= 24.5\ngini = 0.044\nsamples = 221\nvalue = [216, 5]\nclass = 0", fillcolor="#e6843e"] ;
297 -> 299 ;
300 [label="gini = 0.0\nsamples = 42\nvalue = [42, 0]\nclass = 0", fillcolor="#e58139"] ;
299 -> 300 ;
301 [label="age <= 28.5\ngini = 0.054\nsamples = 179\nvalue = [174, 5]\nclass = 0", fillcolor="#e6853f"] ;
299 -> 301 ;
302 [label="blood_glucose_level <= -0.075\ngini = 0.087\nsamples = 88\nvalue = [84, 4]\nclass = 0", fillcolor="#e68742"] ;
301 -> 302 ;
303 [label="gini = 0.0\nsamples = 35\nvalue = [35, 0]\nclass = 0", fillcolor="#e58139"] ;
302 -> 303 ;
304 [label="HbA1c_level <= 0.768\ngini = 0.14\nsamples = 53\nvalue = [49, 4]\nclass = 0", fillcolor="#e78b49"] ;
302 -> 304 ;
305 [label="age <= 27.5\ngini = 0.208\nsamples = 34\nvalue = [30, 4]\nclass = 0", fillcolor="#e89253"] ;
304 -> 305 ;
306 [label="HbA1c_level <= 0.581\ngini = 0.142\nsamples = 26\nvalue = [24, 2]\nclass = 0", fillcolor="#e78c49"] ;
305 -> 306 ;
307 [label="bmi <= -0.434\ngini = 0.087\nsamples = 22\nvalue = [21, 1]\nclass = 0", fillcolor="#e68742"] ;
306 -> 307 ;
308 [label="bmi <= -0.571\ngini = 0.375\nsamples = 4\nvalue = [3, 1]\nclass = 0", fillcolor="#eeab7b"] ;
307 -> 308 ;
309 [label="gini = 0.0\nsamples = 3\nvalue = [3, 0]\nclass = 0", fillcolor="#e58139"] ;
308 -> 309 ;
310 [label="gini = 0.0\nsamples = 1\nvalue = [0, 1]\nclass = 1", fillcolor="#399de5"] ;
308 -> 310 ;
311 [label="gini = 0.0\nsamples = 18\nvalue = [18, 0]\nclass = 0", fillcolor="#e58139"] ;
307 -> 311 ;
312 [label="blood_glucose_level <= 0.293\ngini = 0.375\nsamples = 4\nvalue = [3, 1]\nclass = 0", fillcolor="#eeab7b"] ;
306 -> 312 ;
313 [label="gini = 0.0\nsamples = 3\nvalue = [3, 0]\nclass = 0", fillcolor="#e58139"] ;
312 -> 313 ;
314 [label="gini = 0.0\nsamples = 1\nvalue = [0, 1]\nclass = 1", fillcolor="#399de5"] ;
312 -> 314 ;
315 [label="bmi <= -0.086\ngini = 0.375\nsamples = 8\nvalue = [6, 2]\nclass = 0", fillcolor="#eeab7b"] ;
305 -> 315 ;
316 [label="gini = 0.0\nsamples = 4\nvalue = [4, 0]\nclass = 0", fillcolor="#e58139"] ;
315 -> 316 ;
317 [label="blood_glucose_level <= 0.109\ngini = 0.5\nsamples = 4\nvalue = [2, 2]\nclass = 0", fillcolor="#ffffff"] ;
315 -> 317 ;
318 [label="HbA1c_level <= 0.581\ngini = 0.444\nsamples = 3\nvalue = [1, 2]\nclass = 1", fillcolor="#9ccef2"] ;
317 -> 318 ;
319 [label="gini = 0.0\nsamples = 2\nvalue = [0, 2]\nclass = 1", fillcolor="#399de5"] ;
318 -> 319 ;
320 [label="gini = 0.0\nsamples = 1\nvalue = [1, 0]\nclass = 0", fillcolor="#e58139"] ;
318 -> 320 ;
321 [label="gini = 0.0\nsamples = 1\nvalue = [1, 0]\nclass = 0", fillcolor="#e58139"] ;
317 -> 321 ;
322 [label="gini = 0.0\nsamples = 19\nvalue = [19, 0]\nclass = 0", fillcolor="#e58139"] ;
304 -> 322 ;
323 [label="HbA1c_level <= 0.955\ngini = 0.022\nsamples = 91\nvalue = [90, 1]\nclass = 0", fillcolor="#e5823b"] ;
301 -> 323 ;
324 [label="gini = 0.0\nsamples = 73\nvalue = [73, 0]\nclass = 0", fillcolor="#e58139"] ;
323 -> 324 ;
325 [label="age <= 31.5\ngini = 0.105\nsamples = 18\nvalue = [17, 1]\nclass = 0", fillcolor="#e78845"] ;
323 -> 325 ;
326 [label="gini = 0.0\nsamples = 13\nvalue = [13, 0]\nclass = 0", fillcolor="#e58139"] ;
325 -> 326 ;
327 [label="blood_glucose_level <= -0.247\ngini = 0.32\nsamples = 5\nvalue = [4, 1]\nclass = 0", fillcolor="#eca06a"] ;
325 -> 327 ;
328 [label="bmi <= -0.228\ngini = 0.5\nsamples = 2\nvalue = [1, 1]\nclass = 0", fillcolor="#ffffff"] ;
327 -> 328 ;
329 [label="gini = 0.0\nsamples = 1\nvalue = [1, 0]\nclass = 0", fillcolor="#e58139"] ;
328 -> 329 ;
330 [label="gini = 0.0\nsamples = 1\nvalue = [0, 1]\nclass = 1", fillcolor="#399de5"] ;
328 -> 330 ;
331 [label="gini = 0.0\nsamples = 3\nvalue = [3, 0]\nclass = 0", fillcolor="#e58139"] ;
327 -> 331 ;
332 [label="age <= 31.5\ngini = 0.007\nsamples = 272\nvalue = [271, 1]\nclass = 0", fillcolor="#e5813a"] ;
274 -> 332 ;
333 [label="gini = 0.0\nsamples = 246\nvalue = [246, 0]\nclass = 0", fillcolor="#e58139"] ;
332 -> 333 ;
334 [label="HbA1c_level <= 0.768\ngini = 0.074\nsamples = 26\nvalue = [25, 1]\nclass = 0", fillcolor="#e68641"] ;
332 -> 334 ;
335 [label="gini = 0.0\nsamples = 17\nvalue = [17, 0]\nclass = 0", fillcolor="#e58139"] ;
334 -> 335 ;
336 [label="blood_glucose_level <= 1.03\ngini = 0.198\nsamples = 9\nvalue = [8, 1]\nclass = 0", fillcolor="#e89152"] ;
334 -> 336 ;
337 [label="blood_glucose_level <= 0.514\ngini = 0.375\nsamples = 4\nvalue = [3, 1]\nclass = 0", fillcolor="#eeab7b"] ;
336 -> 337 ;
338 [label="gini = 0.0\nsamples = 1\nvalue = [1, 0]\nclass = 0", fillcolor="#e58139"] ;
337 -> 338 ;
339 [label="HbA1c_level <= 0.955\ngini = 0.444\nsamples = 3\nvalue = [2, 1]\nclass = 0", fillcolor="#f2c09c"] ;
337 -> 339 ;
340 [label="gini = 0.5\nsamples = 2\nvalue = [1, 1]\nclass = 0", fillcolor="#ffffff"] ;
339 -> 340 ;
341 [label="gini = 0.0\nsamples = 1\nvalue = [1, 0]\nclass = 0", fillcolor="#e58139"] ;
339 -> 341 ;
342 [label="gini = 0.0\nsamples = 5\nvalue = [5, 0]\nclass = 0", fillcolor="#e58139"] ;
336 -> 342 ;
343 [label="gini = 0.0\nsamples = 313\nvalue = [313, 0]\nclass = 0", fillcolor="#e58139"] ;
273 -> 343 ;
344 [label="HbA1c_level <= 0.955\ngini = 0.038\nsamples = 1255\nvalue = [1231, 24]\nclass = 0", fillcolor="#e6833d"] ;
262 -> 344 ;
345 [label="age <= 33.5\ngini = 0.03\nsamples = 1062\nvalue = [1046, 16]\nclass = 0", fillcolor="#e5833c"] ;
344 -> 345 ;
346 [label="blood_glucose_level <= 0.527\ngini = 0.021\nsamples = 848\nvalue = [839, 9]\nclass = 0", fillcolor="#e5823b"] ;
345 -> 346 ;
347 [label="bmi <= -0.729\ngini = 0.012\nsamples = 640\nvalue = [636, 4]\nclass = 0", fillcolor="#e5823a"] ;
346 -> 347 ;
348 [label="bmi <= -0.735\ngini = 0.039\nsamples = 149\nvalue = [146, 3]\nclass = 0", fillcolor="#e6843d"] ;
347 -> 348 ;
349 [label="age <= 23.5\ngini = 0.027\nsamples = 148\nvalue = [146, 2]\nclass = 0", fillcolor="#e5833c"] ;
348 -> 349 ;
350 [label="gini = 0.0\nsamples = 112\nvalue = [112, 0]\nclass = 0", fillcolor="#e58139"] ;
349 -> 350 ;
351 [label="age <= 25.5\ngini = 0.105\nsamples = 36\nvalue = [34, 2]\nclass = 0", fillcolor="#e78845"] ;
349 -> 351 ;
352 [label="HbA1c_level <= 0.208\ngini = 0.26\nsamples = 13\nvalue = [11, 2]\nclass = 0", fillcolor="#ea985d"] ;
351 -> 352 ;
353 [label="gini = 0.0\nsamples = 1\nvalue = [0, 1]\nclass = 1", fillcolor="#399de5"] ;
352 -> 353 ;
354 [label="HbA1c_level <= 0.768\ngini = 0.153\nsamples = 12\nvalue = [11, 1]\nclass = 0", fillcolor="#e78c4b"] ;
352 -> 354 ;
355 [label="gini = 0.0\nsamples = 8\nvalue = [8, 0]\nclass = 0", fillcolor="#e58139"] ;
354 -> 355 ;
356 [label="blood_glucose_level <= 0.33\ngini = 0.375\nsamples = 4\nvalue = [3, 1]\nclass = 0", fillcolor="#eeab7b"] ;
354 -> 356 ;
357 [label="gini = 0.0\nsamples = 1\nvalue = [0, 1]\nclass = 1", fillcolor="#399de5"] ;
356 -> 357 ;
358 [label="gini = 0.0\nsamples = 3\nvalue = [3, 0]\nclass = 0", fillcolor="#e58139"] ;
356 -> 358 ;
359 [label="gini = 0.0\nsamples = 23\nvalue = [23, 0]\nclass = 0", fillcolor="#e58139"] ;
351 -> 359 ;
360 [label="gini = 0.0\nsamples = 1\nvalue = [0, 1]\nclass = 1", fillcolor="#399de5"] ;
348 -> 360 ;
361 [label="bmi <= 0.189\ngini = 0.004\nsamples = 491\nvalue = [490, 1]\nclass = 0", fillcolor="#e58139"] ;
347 -> 361 ;
362 [label="gini = 0.0\nsamples = 434\nvalue = [434, 0]\nclass = 0", fillcolor="#e58139"] ;
361 -> 362 ;
363 [label="bmi <= 0.192\ngini = 0.034\nsamples = 57\nvalue = [56, 1]\nclass = 0", fillcolor="#e5833d"] ;
361 -> 363 ;
364 [label="gini = 0.0\nsamples = 1\nvalue = [0, 1]\nclass = 1", fillcolor="#399de5"] ;
363 -> 364 ;
365 [label="gini = 0.0\nsamples = 56\nvalue = [56, 0]\nclass = 0", fillcolor="#e58139"] ;
363 -> 365 ;
366 [label="HbA1c_level <= 0.768\ngini = 0.047\nsamples = 208\nvalue = [203, 5]\nclass = 0", fillcolor="#e6843e"] ;
346 -> 366 ;
367 [label="age <= 21.5\ngini = 0.032\nsamples = 185\nvalue = [182, 3]\nclass = 0", fillcolor="#e5833c"] ;
366 -> 367 ;
368 [label="age <= 19.5\ngini = 0.071\nsamples = 81\nvalue = [78, 3]\nclass = 0", fillcolor="#e68641"] ;
367 -> 368 ;
369 [label="HbA1c_level <= 0.208\ngini = 0.034\nsamples = 57\nvalue = [56, 1]\nclass = 0", fillcolor="#e5833d"] ;
368 -> 369 ;
370 [label="age <= 16.5\ngini = 0.142\nsamples = 13\nvalue = [12, 1]\nclass = 0", fillcolor="#e78c49"] ;
369 -> 370 ;
371 [label="age <= 15.5\ngini = 0.278\nsamples = 6\nvalue = [5, 1]\nclass = 0", fillcolor="#ea9a61"] ;
370 -> 371 ;
372 [label="gini = 0.0\nsamples = 5\nvalue = [5, 0]\nclass = 0", fillcolor="#e58139"] ;
371 -> 372 ;
373 [label="gini = 0.0\nsamples = 1\nvalue = [0, 1]\nclass = 1", fillcolor="#399de5"] ;
371 -> 373 ;
374 [label="gini = 0.0\nsamples = 7\nvalue = [7, 0]\nclass = 0", fillcolor="#e58139"] ;
370 -> 374 ;
375 [label="gini = 0.0\nsamples = 44\nvalue = [44, 0]\nclass = 0", fillcolor="#e58139"] ;
369 -> 375 ;
376 [label="blood_glucose_level <= 1.03\ngini = 0.153\nsamples = 24\nvalue = [22, 2]\nclass = 0", fillcolor="#e78c4b"] ;
368 -> 376 ;
377 [label="gini = 0.0\nsamples = 11\nvalue = [11, 0]\nclass = 0", fillcolor="#e58139"] ;
376 -> 377 ;
378 [label="bmi <= 0.096\ngini = 0.26\nsamples = 13\nvalue = [11, 2]\nclass = 0", fillcolor="#ea985d"] ;
376 -> 378 ;
379 [label="age <= 20.5\ngini = 0.165\nsamples = 11\nvalue = [10, 1]\nclass = 0", fillcolor="#e88e4d"] ;
378 -> 379 ;
380 [label="gini = 0.0\nsamples = 8\nvalue = [8, 0]\nclass = 0", fillcolor="#e58139"] ;
379 -> 380 ;
381 [label="bmi <= -0.406\ngini = 0.444\nsamples = 3\nvalue = [2, 1]\nclass = 0", fillcolor="#f2c09c"] ;
379 -> 381 ;
382 [label="gini = 0.0\nsamples = 2\nvalue = [2, 0]\nclass = 0", fillcolor="#e58139"] ;
381 -> 382 ;
383 [label="gini = 0.0\nsamples = 1\nvalue = [0, 1]\nclass = 1", fillcolor="#399de5"] ;
381 -> 383 ;
384 [label="bmi <= 0.283\ngini = 0.5\nsamples = 2\nvalue = [1, 1]\nclass = 0", fillcolor="#ffffff"] ;
378 -> 384 ;
385 [label="gini = 0.0\nsamples = 1\nvalue = [0, 1]\nclass = 1", fillcolor="#399de5"] ;
384 -> 385 ;
386 [label="gini = 0.0\nsamples = 1\nvalue = [1, 0]\nclass = 0", fillcolor="#e58139"] ;
384 -> 386 ;
387 [label="gini = 0.0\nsamples = 104\nvalue = [104, 0]\nclass = 0", fillcolor="#e58139"] ;
367 -> 387 ;
388 [label="age <= 15.5\ngini = 0.159\nsamples = 23\nvalue = [21, 2]\nclass = 0", fillcolor="#e78d4c"] ;
366 -> 388 ;
389 [label="gini = 0.0\nsamples = 1\nvalue = [0, 1]\nclass = 1", fillcolor="#399de5"] ;
388 -> 389 ;
390 [label="age <= 30.5\ngini = 0.087\nsamples = 22\nvalue = [21, 1]\nclass = 0", fillcolor="#e68742"] ;
388 -> 390 ;
391 [label="gini = 0.0\nsamples = 21\nvalue = [21, 0]\nclass = 0", fillcolor="#e58139"] ;
390 -> 391 ;
392 [label="gini = 0.0\nsamples = 1\nvalue = [0, 1]\nclass = 1", fillcolor="#399de5"] ;
390 -> 392 ;
393 [label="blood_glucose_level <= 0.453\ngini = 0.063\nsamples = 214\nvalue = [207, 7]\nclass = 0", fillcolor="#e68540"] ;
345 -> 393 ;
394 [label="smoking_history <= 3.5\ngini = 0.113\nsamples = 116\nvalue = [109, 7]\nclass = 0", fillcolor="#e78946"] ;
393 -> 394 ;
395 [label="bmi <= -0.238\ngini = 0.287\nsamples = 23\nvalue = [19, 4]\nclass = 0", fillcolor="#ea9c63"] ;
394 -> 395 ;
396 [label="bmi <= -0.527\ngini = 0.49\nsamples = 7\nvalue = [4, 3]\nclass = 0", fillcolor="#f8e0ce"] ;
395 -> 396 ;
397 [label="gini = 0.0\nsamples = 2\nvalue = [2, 0]\nclass = 0", fillcolor="#e58139"] ;
396 -> 397 ;
398 [label="bmi <= -0.437\ngini = 0.48\nsamples = 5\nvalue = [2, 3]\nclass = 1", fillcolor="#bddef6"] ;
396 -> 398 ;
399 [label="gini = 0.0\nsamples = 2\nvalue = [0, 2]\nclass = 1", fillcolor="#399de5"] ;
398 -> 399 ;
400 [label="bmi <= -0.252\ngini = 0.444\nsamples = 3\nvalue = [2, 1]\nclass = 0", fillcolor="#f2c09c"] ;
398 -> 400 ;
401 [label="gini = 0.0\nsamples = 2\nvalue = [2, 0]\nclass = 0", fillcolor="#e58139"] ;
400 -> 401 ;
402 [label="gini = 0.0\nsamples = 1\nvalue = [0, 1]\nclass = 1", fillcolor="#399de5"] ;
400 -> 402 ;
403 [label="HbA1c_level <= 0.348\ngini = 0.117\nsamples = 16\nvalue = [15, 1]\nclass = 0", fillcolor="#e78946"] ;
395 -> 403 ;
404 [label="age <= 35.5\ngini = 0.32\nsamples = 5\nvalue = [4, 1]\nclass = 0", fillcolor="#eca06a"] ;
403 -> 404 ;
405 [label="gini = 0.0\nsamples = 3\nvalue = [3, 0]\nclass = 0", fillcolor="#e58139"] ;
404 -> 405 ;
406 [label="HbA1c_level <= 0.208\ngini = 0.5\nsamples = 2\nvalue = [1, 1]\nclass = 0", fillcolor="#ffffff"] ;
404 -> 406 ;
407 [label="gini = 0.0\nsamples = 1\nvalue = [1, 0]\nclass = 0", fillcolor="#e58139"] ;
406 -> 407 ;
408 [label="gini = 0.0\nsamples = 1\nvalue = [0, 1]\nclass = 1", fillcolor="#399de5"] ;
406 -> 408 ;
409 [label="gini = 0.0\nsamples = 11\nvalue = [11, 0]\nclass = 0", fillcolor="#e58139"] ;
403 -> 409 ;
410 [label="age <= 37.5\ngini = 0.062\nsamples = 93\nvalue = [90, 3]\nclass = 0", fillcolor="#e68540"] ;
394 -> 410 ;
411 [label="bmi <= -0.481\ngini = 0.028\nsamples = 71\nvalue = [70, 1]\nclass = 0", fillcolor="#e5833c"] ;
410 -> 411 ;
412 [label="bmi <= -0.485\ngini = 0.133\nsamples = 14\nvalue = [13, 1]\nclass = 0", fillcolor="#e78b48"] ;
411 -> 412 ;
413 [label="gini = 0.0\nsamples = 13\nvalue = [13, 0]\nclass = 0", fillcolor="#e58139"] ;
412 -> 413 ;
414 [label="gini = 0.0\nsamples = 1\nvalue = [0, 1]\nclass = 1", fillcolor="#399de5"] ;
412 -> 414 ;
415 [label="gini = 0.0\nsamples = 57\nvalue = [57, 0]\nclass = 0", fillcolor="#e58139"] ;
411 -> 415 ;
416 [label="blood_glucose_level <= 0.293\ngini = 0.165\nsamples = 22\nvalue = [20, 2]\nclass = 0", fillcolor="#e88e4d"] ;
410 -> 416 ;
417 [label="HbA1c_level <= 0.208\ngini = 0.095\nsamples = 20\nvalue = [19, 1]\nclass = 0", fillcolor="#e68843"] ;
416 -> 417 ;
418 [label="bmi <= -0.252\ngini = 0.278\nsamples = 6\nvalue = [5, 1]\nclass = 0", fillcolor="#ea9a61"] ;
417 -> 418 ;
419 [label="gini = 0.0\nsamples = 3\nvalue = [3, 0]\nclass = 0", fillcolor="#e58139"] ;
418 -> 419 ;
420 [label="bmi <= -0.049\ngini = 0.444\nsamples = 3\nvalue = [2, 1]\nclass = 0", fillcolor="#f2c09c"] ;
418 -> 420 ;
421 [label="gini = 0.0\nsamples = 1\nvalue = [0, 1]\nclass = 1", fillcolor="#399de5"] ;
420 -> 421 ;
422 [label="gini = 0.0\nsamples = 2\nvalue = [2, 0]\nclass = 0", fillcolor="#e58139"] ;
420 -> 422 ;
423 [label="gini = 0.0\nsamples = 14\nvalue = [14, 0]\nclass = 0", fillcolor="#e58139"] ;
417 -> 423 ;
424 [label="bmi <= 0.151\ngini = 0.5\nsamples = 2\nvalue = [1, 1]\nclass = 0", fillcolor="#ffffff"] ;
416 -> 424 ;
425 [label="gini = 0.0\nsamples = 1\nvalue = [0, 1]\nclass = 1", fillcolor="#399de5"] ;
424 -> 425 ;
426 [label="gini = 0.0\nsamples = 1\nvalue = [1, 0]\nclass = 0", fillcolor="#e58139"] ;
424 -> 426 ;
427 [label="gini = 0.0\nsamples = 98\nvalue = [98, 0]\nclass = 0", fillcolor="#e58139"] ;
393 -> 427 ;
428 [label="age <= 14.5\ngini = 0.079\nsamples = 193\nvalue = [185, 8]\nclass = 0", fillcolor="#e68642"] ;
344 -> 428 ;
429 [label="blood_glucose_level <= 0.465\ngini = 0.375\nsamples = 8\nvalue = [6, 2]\nclass = 0", fillcolor="#eeab7b"] ;
428 -> 429 ;
430 [label="gini = 0.0\nsamples = 5\nvalue = [5, 0]\nclass = 0", fillcolor="#e58139"] ;
429 -> 430 ;
431 [label="bmi <= -1.074\ngini = 0.444\nsamples = 3\nvalue = [1, 2]\nclass = 1", fillcolor="#9ccef2"] ;
429 -> 431 ;
432 [label="gini = 0.0\nsamples = 1\nvalue = [1, 0]\nclass = 0", fillcolor="#e58139"] ;
431 -> 432 ;
433 [label="gini = 0.0\nsamples = 2\nvalue = [0, 2]\nclass = 1", fillcolor="#399de5"] ;
431 -> 433 ;
434 [label="bmi <= 0.307\ngini = 0.063\nsamples = 185\nvalue = [179, 6]\nclass = 0", fillcolor="#e68540"] ;
428 -> 434 ;
435 [label="bmi <= -0.786\ngini = 0.045\nsamples = 175\nvalue = [171, 4]\nclass = 0", fillcolor="#e6843e"] ;
434 -> 435 ;
436 [label="bmi <= -0.793\ngini = 0.137\nsamples = 27\nvalue = [25, 2]\nclass = 0", fillcolor="#e78b49"] ;
435 -> 436 ;
437 [label="bmi <= -0.867\ngini = 0.074\nsamples = 26\nvalue = [25, 1]\nclass = 0", fillcolor="#e68641"] ;
436 -> 437 ;
438 [label="gini = 0.0\nsamples = 21\nvalue = [21, 0]\nclass = 0", fillcolor="#e58139"] ;
437 -> 438 ;
439 [label="bmi <= -0.854\ngini = 0.32\nsamples = 5\nvalue = [4, 1]\nclass = 0", fillcolor="#eca06a"] ;
437 -> 439 ;
440 [label="gini = 0.0\nsamples = 1\nvalue = [0, 1]\nclass = 1", fillcolor="#399de5"] ;
439 -> 440 ;
441 [label="gini = 0.0\nsamples = 4\nvalue = [4, 0]\nclass = 0", fillcolor="#e58139"] ;
439 -> 441 ;
442 [label="gini = 0.0\nsamples = 1\nvalue = [0, 1]\nclass = 1", fillcolor="#399de5"] ;
436 -> 442 ;
443 [label="bmi <= 0.115\ngini = 0.027\nsamples = 148\nvalue = [146, 2]\nclass = 0", fillcolor="#e5833c"] ;
435 -> 443 ;
444 [label="blood_glucose_level <= 0.293\ngini = 0.015\nsamples = 132\nvalue = [131, 1]\nclass = 0", fillcolor="#e5823b"] ;
443 -> 444 ;
445 [label="blood_glucose_level <= 0.109\ngini = 0.035\nsamples = 56\nvalue = [55, 1]\nclass = 0", fillcolor="#e5833d"] ;
444 -> 445 ;
446 [label="gini = 0.0\nsamples = 48\nvalue = [48, 0]\nclass = 0", fillcolor="#e58139"] ;
445 -> 446 ;
447 [label="bmi <= -0.055\ngini = 0.219\nsamples = 8\nvalue = [7, 1]\nclass = 0", fillcolor="#e99355"] ;
445 -> 447 ;
448 [label="gini = 0.0\nsamples = 6\nvalue = [6, 0]\nclass = 0", fillcolor="#e58139"] ;
447 -> 448 ;
449 [label="age <= 32.5\ngini = 0.5\nsamples = 2\nvalue = [1, 1]\nclass = 0", fillcolor="#ffffff"] ;
447 -> 449 ;
450 [label="gini = 0.0\nsamples = 1\nvalue = [0, 1]\nclass = 1", fillcolor="#399de5"] ;
449 -> 450 ;
451 [label="gini = 0.0\nsamples = 1\nvalue = [1, 0]\nclass = 0", fillcolor="#e58139"] ;
449 -> 451 ;
452 [label="gini = 0.0\nsamples = 76\nvalue = [76, 0]\nclass = 0", fillcolor="#e58139"] ;
444 -> 452 ;
453 [label="bmi <= 0.132\ngini = 0.117\nsamples = 16\nvalue = [15, 1]\nclass = 0", fillcolor="#e78946"] ;
443 -> 453 ;
454 [label="age <= 29.5\ngini = 0.5\nsamples = 2\nvalue = [1, 1]\nclass = 0", fillcolor="#ffffff"] ;
453 -> 454 ;
455 [label="gini = 0.0\nsamples = 1\nvalue = [1, 0]\nclass = 0", fillcolor="#e58139"] ;
454 -> 455 ;
456 [label="gini = 0.0\nsamples = 1\nvalue = [0, 1]\nclass = 1", fillcolor="#399de5"] ;
454 -> 456 ;
457 [label="gini = 0.0\nsamples = 14\nvalue = [14, 0]\nclass = 0", fillcolor="#e58139"] ;
453 -> 457 ;
458 [label="age <= 31.5\ngini = 0.32\nsamples = 10\nvalue = [8, 2]\nclass = 0", fillcolor="#eca06a"] ;
434 -> 458 ;
459 [label="gini = 0.0\nsamples = 8\nvalue = [8, 0]\nclass = 0", fillcolor="#e58139"] ;
458 -> 459 ;
460 [label="gini = 0.0\nsamples = 2\nvalue = [0, 2]\nclass = 1", fillcolor="#399de5"] ;
458 -> 460 ;
461 [label="HbA1c_level <= 0.581\ngini = 0.045\nsamples = 474\nvalue = [463, 11]\nclass = 0", fillcolor="#e6843e"] ;
69 -> 461 ;
462 [label="age <= 16.5\ngini = 0.016\nsamples = 256\nvalue = [254, 2]\nclass = 0", fillcolor="#e5823b"] ;
461 -> 462 ;
463 [label="gender <= 0.5\ngini = 0.298\nsamples = 11\nvalue = [9, 2]\nclass = 0", fillcolor="#eb9d65"] ;
462 -> 463 ;
464 [label="bmi <= -0.9\ngini = 0.444\nsamples = 6\nvalue = [4, 2]\nclass = 0", fillcolor="#f2c09c"] ;
463 -> 464 ;
465 [label="gini = 0.0\nsamples = 3\nvalue = [3, 0]\nclass = 0", fillcolor="#e58139"] ;
464 -> 465 ;
466 [label="blood_glucose_level <= 0.478\ngini = 0.444\nsamples = 3\nvalue = [1, 2]\nclass = 1", fillcolor="#9ccef2"] ;
464 -> 466 ;
467 [label="gini = 0.0\nsamples = 1\nvalue = [1, 0]\nclass = 0", fillcolor="#e58139"] ;
466 -> 467 ;
468 [label="gini = 0.0\nsamples = 2\nvalue = [0, 2]\nclass = 1", fillcolor="#399de5"] ;
466 -> 468 ;
469 [label="gini = 0.0\nsamples = 5\nvalue = [5, 0]\nclass = 0", fillcolor="#e58139"] ;
463 -> 469 ;
470 [label="gini = 0.0\nsamples = 245\nvalue = [245, 0]\nclass = 0", fillcolor="#e58139"] ;
462 -> 470 ;
471 [label="age <= 33.5\ngini = 0.079\nsamples = 218\nvalue = [209, 9]\nclass = 0", fillcolor="#e68642"] ;
461 -> 471 ;
472 [label="blood_glucose_level <= 0.109\ngini = 0.054\nsamples = 179\nvalue = [174, 5]\nclass = 0", fillcolor="#e6853f"] ;
471 -> 472 ;
473 [label="HbA1c_level <= 0.768\ngini = 0.116\nsamples = 65\nvalue = [61, 4]\nclass = 0", fillcolor="#e78946"] ;
472 -> 473 ;
474 [label="bmi <= -0.601\ngini = 0.227\nsamples = 23\nvalue = [20, 3]\nclass = 0", fillcolor="#e99457"] ;
473 -> 474 ;
475 [label="bmi <= -0.873\ngini = 0.444\nsamples = 6\nvalue = [4, 2]\nclass = 0", fillcolor="#f2c09c"] ;
474 -> 475 ;
476 [label="gini = 0.0\nsamples = 4\nvalue = [4, 0]\nclass = 0", fillcolor="#e58139"] ;
475 -> 476 ;
477 [label="gini = 0.0\nsamples = 2\nvalue = [0, 2]\nclass = 1", fillcolor="#399de5"] ;
475 -> 477 ;
478 [label="gender <= 0.5\ngini = 0.111\nsamples = 17\nvalue = [16, 1]\nclass = 0", fillcolor="#e78945"] ;
474 -> 478 ;
479 [label="gini = 0.0\nsamples = 10\nvalue = [10, 0]\nclass = 0", fillcolor="#e58139"] ;
478 -> 479 ;
480 [label="age <= 26.0\ngini = 0.245\nsamples = 7\nvalue = [6, 1]\nclass = 0", fillcolor="#e9965a"] ;
478 -> 480 ;
481 [label="gini = 0.0\nsamples = 6\nvalue = [6, 0]\nclass = 0", fillcolor="#e58139"] ;
480 -> 481 ;
482 [label="gini = 0.0\nsamples = 1\nvalue = [0, 1]\nclass = 1", fillcolor="#399de5"] ;
480 -> 482 ;
483 [label="age <= 19.5\ngini = 0.046\nsamples = 42\nvalue = [41, 1]\nclass = 0", fillcolor="#e6843e"] ;
473 -> 483 ;
484 [label="blood_glucose_level <= -0.247\ngini = 0.165\nsamples = 11\nvalue = [10, 1]\nclass = 0", fillcolor="#e88e4d"] ;
483 -> 484 ;
485 [label="gender <= 0.5\ngini = 0.444\nsamples = 3\nvalue = [2, 1]\nclass = 0", fillcolor="#f2c09c"] ;
484 -> 485 ;
486 [label="gini = 0.0\nsamples = 1\nvalue = [0, 1]\nclass = 1", fillcolor="#399de5"] ;
485 -> 486 ;
487 [label="gini = 0.0\nsamples = 2\nvalue = [2, 0]\nclass = 0", fillcolor="#e58139"] ;
485 -> 487 ;
488 [label="gini = 0.0\nsamples = 8\nvalue = [8, 0]\nclass = 0", fillcolor="#e58139"] ;
484 -> 488 ;
489 [label="gini = 0.0\nsamples = 31\nvalue = [31, 0]\nclass = 0", fillcolor="#e58139"] ;
483 -> 489 ;
490 [label="bmi <= -0.708\ngini = 0.017\nsamples = 114\nvalue = [113, 1]\nclass = 0", fillcolor="#e5823b"] ;
472 -> 490 ;
491 [label="bmi <= -0.745\ngini = 0.074\nsamples = 26\nvalue = [25, 1]\nclass = 0", fillcolor="#e68641"] ;
490 -> 491 ;
492 [label="gini = 0.0\nsamples = 25\nvalue = [25, 0]\nclass = 0", fillcolor="#e58139"] ;
491 -> 492 ;
493 [label="gini = 0.0\nsamples = 1\nvalue = [0, 1]\nclass = 1", fillcolor="#399de5"] ;
491 -> 493 ;
494 [label="gini = 0.0\nsamples = 88\nvalue = [88, 0]\nclass = 0", fillcolor="#e58139"] ;
490 -> 494 ;
495 [label="blood_glucose_level <= 0.502\ngini = 0.184\nsamples = 39\nvalue = [35, 4]\nclass = 0", fillcolor="#e88f50"] ;
471 -> 495 ;
496 [label="age <= 35.5\ngini = 0.062\nsamples = 31\nvalue = [30, 1]\nclass = 0", fillcolor="#e68540"] ;
495 -> 496 ;
497 [label="bmi <= -0.221\ngini = 0.18\nsamples = 10\nvalue = [9, 1]\nclass = 0", fillcolor="#e88f4f"] ;
496 -> 497 ;
498 [label="bmi <= -0.524\ngini = 0.444\nsamples = 3\nvalue = [2, 1]\nclass = 0", fillcolor="#f2c09c"] ;
497 -> 498 ;
499 [label="gini = 0.0\nsamples = 2\nvalue = [2, 0]\nclass = 0", fillcolor="#e58139"] ;
498 -> 499 ;
500 [label="gini = 0.0\nsamples = 1\nvalue = [0, 1]\nclass = 1", fillcolor="#399de5"] ;
498 -> 500 ;
501 [label="gini = 0.0\nsamples = 7\nvalue = [7, 0]\nclass = 0", fillcolor="#e58139"] ;
497 -> 501 ;
502 [label="gini = 0.0\nsamples = 21\nvalue = [21, 0]\nclass = 0", fillcolor="#e58139"] ;
496 -> 502 ;
503 [label="bmi <= -0.045\ngini = 0.469\nsamples = 8\nvalue = [5, 3]\nclass = 0", fillcolor="#f5cdb0"] ;
495 -> 503 ;
504 [label="gini = 0.0\nsamples = 2\nvalue = [2, 0]\nclass = 0", fillcolor="#e58139"] ;
503 -> 504 ;
505 [label="age <= 35.5\ngini = 0.5\nsamples = 6\nvalue = [3, 3]\nclass = 0", fillcolor="#ffffff"] ;
503 -> 505 ;
506 [label="gini = 0.0\nsamples = 2\nvalue = [0, 2]\nclass = 1", fillcolor="#399de5"] ;
505 -> 506 ;
507 [label="blood_glucose_level <= 0.527\ngini = 0.375\nsamples = 4\nvalue = [3, 1]\nclass = 0", fillcolor="#eeab7b"] ;
505 -> 507 ;
508 [label="bmi <= 0.122\ngini = 0.5\nsamples = 2\nvalue = [1, 1]\nclass = 0", fillcolor="#ffffff"] ;
507 -> 508 ;
509 [label="gini = 0.0\nsamples = 1\nvalue = [0, 1]\nclass = 1", fillcolor="#399de5"] ;
508 -> 509 ;
510 [label="gini = 0.0\nsamples = 1\nvalue = [1, 0]\nclass = 0", fillcolor="#e58139"] ;
508 -> 510 ;
511 [label="gini = 0.0\nsamples = 2\nvalue = [2, 0]\nclass = 0", fillcolor="#e58139"] ;
507 -> 511 ;
512 [label="bmi <= 0.469\ngini = 0.048\nsamples = 484\nvalue = [472, 12]\nclass = 0", fillcolor="#e6843e"] ;
68 -> 512 ;
513 [label="HbA1c_level <= 0.208\ngini = 0.375\nsamples = 4\nvalue = [3, 1]\nclass = 0", fillcolor="#eeab7b"] ;
512 -> 513 ;
514 [label="gini = 0.0\nsamples = 1\nvalue = [0, 1]\nclass = 1", fillcolor="#399de5"] ;
513 -> 514 ;
515 [label="gini = 0.0\nsamples = 3\nvalue = [3, 0]\nclass = 0", fillcolor="#e58139"] ;
513 -> 515 ;
516 [label="smoking_history <= 3.5\ngini = 0.045\nsamples = 480\nvalue = [469, 11]\nclass = 0", fillcolor="#e6843e"] ;
512 -> 516 ;
517 [label="smoking_history <= 1.5\ngini = 0.073\nsamples = 238\nvalue = [229, 9]\nclass = 0", fillcolor="#e68641"] ;
516 -> 517 ;
518 [label="age <= 36.5\ngini = 0.043\nsamples = 182\nvalue = [178, 4]\nclass = 0", fillcolor="#e6843d"] ;
517 -> 518 ;
519 [label="bmi <= 0.74\ngini = 0.024\nsamples = 166\nvalue = [164, 2]\nclass = 0", fillcolor="#e5833b"] ;
518 -> 519 ;
520 [label="HbA1c_level <= 0.348\ngini = 0.013\nsamples = 154\nvalue = [153, 1]\nclass = 0", fillcolor="#e5823a"] ;
519 -> 520 ;
521 [label="age <= 28.5\ngini = 0.04\nsamples = 49\nvalue = [48, 1]\nclass = 0", fillcolor="#e6843d"] ;
520 -> 521 ;
522 [label="gini = 0.0\nsamples = 32\nvalue = [32, 0]\nclass = 0", fillcolor="#e58139"] ;
521 -> 522 ;
523 [label="bmi <= 0.596\ngini = 0.111\nsamples = 17\nvalue = [16, 1]\nclass = 0", fillcolor="#e78945"] ;
521 -> 523 ;
524 [label="bmi <= 0.566\ngini = 0.375\nsamples = 4\nvalue = [3, 1]\nclass = 0", fillcolor="#eeab7b"] ;
523 -> 524 ;
525 [label="gini = 0.0\nsamples = 3\nvalue = [3, 0]\nclass = 0", fillcolor="#e58139"] ;
524 -> 525 ;
526 [label="gini = 0.0\nsamples = 1\nvalue = [0, 1]\nclass = 1", fillcolor="#399de5"] ;
524 -> 526 ;
527 [label="gini = 0.0\nsamples = 13\nvalue = [13, 0]\nclass = 0", fillcolor="#e58139"] ;
523 -> 527 ;
528 [label="gini = 0.0\nsamples = 105\nvalue = [105, 0]\nclass = 0", fillcolor="#e58139"] ;
520 -> 528 ;
529 [label="bmi <= 0.742\ngini = 0.153\nsamples = 12\nvalue = [11, 1]\nclass = 0", fillcolor="#e78c4b"] ;
519 -> 529 ;
530 [label="gini = 0.0\nsamples = 1\nvalue = [0, 1]\nclass = 1", fillcolor="#399de5"] ;
529 -> 530 ;
531 [label="gini = 0.0\nsamples = 11\nvalue = [11, 0]\nclass = 0", fillcolor="#e58139"] ;
529 -> 531 ;
532 [label="smoking_history <= 0.5\ngini = 0.219\nsamples = 16\nvalue = [14, 2]\nclass = 0", fillcolor="#e99355"] ;
518 -> 532 ;
533 [label="HbA1c_level <= 0.955\ngini = 0.346\nsamples = 9\nvalue = [7, 2]\nclass = 0", fillcolor="#eca572"] ;
532 -> 533 ;
534 [label="blood_glucose_level <= -0.075\ngini = 0.219\nsamples = 8\nvalue = [7, 1]\nclass = 0", fillcolor="#e99355"] ;
533 -> 534 ;
535 [label="HbA1c_level <= 0.301\ngini = 0.444\nsamples = 3\nvalue = [2, 1]\nclass = 0", fillcolor="#f2c09c"] ;
534 -> 535 ;
536 [label="gini = 0.0\nsamples = 2\nvalue = [2, 0]\nclass = 0", fillcolor="#e58139"] ;
535 -> 536 ;
537 [label="gini = 0.0\nsamples = 1\nvalue = [0, 1]\nclass = 1", fillcolor="#399de5"] ;
535 -> 537 ;
538 [label="gini = 0.0\nsamples = 5\nvalue = [5, 0]\nclass = 0", fillcolor="#e58139"] ;
534 -> 538 ;
539 [label="gini = 0.0\nsamples = 1\nvalue = [0, 1]\nclass = 1", fillcolor="#399de5"] ;
533 -> 539 ;
540 [label="gini = 0.0\nsamples = 7\nvalue = [7, 0]\nclass = 0", fillcolor="#e58139"] ;
532 -> 540 ;
541 [label="bmi <= 0.636\ngini = 0.163\nsamples = 56\nvalue = [51, 5]\nclass = 0", fillcolor="#e88d4c"] ;
517 -> 541 ;
542 [label="bmi <= 0.626\ngini = 0.293\nsamples = 28\nvalue = [23, 5]\nclass = 0", fillcolor="#eb9c64"] ;
541 -> 542 ;
543 [label="blood_glucose_level <= -0.075\ngini = 0.211\nsamples = 25\nvalue = [22, 3]\nclass = 0", fillcolor="#e99254"] ;
542 -> 543 ;
544 [label="HbA1c_level <= 0.535\ngini = 0.5\nsamples = 4\nvalue = [2, 2]\nclass = 0", fillcolor="#ffffff"] ;
543 -> 544 ;
545 [label="gini = 0.0\nsamples = 2\nvalue = [0, 2]\nclass = 1", fillcolor="#399de5"] ;
544 -> 545 ;
546 [label="gini = 0.0\nsamples = 2\nvalue = [2, 0]\nclass = 0", fillcolor="#e58139"] ;
544 -> 546 ;
547 [label="bmi <= 0.585\ngini = 0.091\nsamples = 21\nvalue = [20, 1]\nclass = 0", fillcolor="#e68743"] ;
543 -> 547 ;
548 [label="gini = 0.0\nsamples = 16\nvalue = [16, 0]\nclass = 0", fillcolor="#e58139"] ;
547 -> 548 ;
549 [label="bmi <= 0.591\ngini = 0.32\nsamples = 5\nvalue = [4, 1]\nclass = 0", fillcolor="#eca06a"] ;
547 -> 549 ;
550 [label="gini = 0.0\nsamples = 1\nvalue = [0, 1]\nclass = 1", fillcolor="#399de5"] ;
549 -> 550 ;
551 [label="gini = 0.0\nsamples = 4\nvalue = [4, 0]\nclass = 0", fillcolor="#e58139"] ;
549 -> 551 ;
552 [label="age <= 21.5\ngini = 0.444\nsamples = 3\nvalue = [1, 2]\nclass = 1", fillcolor="#9ccef2"] ;
542 -> 552 ;
553 [label="gini = 0.0\nsamples = 1\nvalue = [1, 0]\nclass = 0", fillcolor="#e58139"] ;
552 -> 553 ;
554 [label="gini = 0.0\nsamples = 2\nvalue = [0, 2]\nclass = 1", fillcolor="#399de5"] ;
552 -> 554 ;
555 [label="gini = 0.0\nsamples = 28\nvalue = [28, 0]\nclass = 0", fillcolor="#e58139"] ;
541 -> 555 ;
556 [label="blood_glucose_level <= -0.247\ngini = 0.016\nsamples = 242\nvalue = [240, 2]\nclass = 0", fillcolor="#e5823b"] ;
516 -> 556 ;
557 [label="HbA1c_level <= 0.955\ngini = 0.124\nsamples = 30\nvalue = [28, 2]\nclass = 0", fillcolor="#e78a47"] ;
556 -> 557 ;
558 [label="age <= 26.0\ngini = 0.069\nsamples = 28\nvalue = [27, 1]\nclass = 0", fillcolor="#e68640"] ;
557 -> 558 ;
559 [label="age <= 24.5\ngini = 0.219\nsamples = 8\nvalue = [7, 1]\nclass = 0", fillcolor="#e99355"] ;
558 -> 559 ;
560 [label="gini = 0.0\nsamples = 6\nvalue = [6, 0]\nclass = 0", fillcolor="#e58139"] ;
559 -> 560 ;
561 [label="HbA1c_level <= 0.675\ngini = 0.5\nsamples = 2\nvalue = [1, 1]\nclass = 0", fillcolor="#ffffff"] ;
559 -> 561 ;
562 [label="gini = 0.0\nsamples = 1\nvalue = [1, 0]\nclass = 0", fillcolor="#e58139"] ;
561 -> 562 ;
563 [label="gini = 0.0\nsamples = 1\nvalue = [0, 1]\nclass = 1", fillcolor="#399de5"] ;
561 -> 563 ;
564 [label="gini = 0.0\nsamples = 20\nvalue = [20, 0]\nclass = 0", fillcolor="#e58139"] ;
558 -> 564 ;
565 [label="smoking_history <= 4.5\ngini = 0.5\nsamples = 2\nvalue = [1, 1]\nclass = 0", fillcolor="#ffffff"] ;
557 -> 565 ;
566 [label="gini = 0.0\nsamples = 1\nvalue = [1, 0]\nclass = 0", fillcolor="#e58139"] ;
565 -> 566 ;
567 [label="gini = 0.0\nsamples = 1\nvalue = [0, 1]\nclass = 1", fillcolor="#399de5"] ;
565 -> 567 ;
568 [label="gini = 0.0\nsamples = 212\nvalue = [212, 0]\nclass = 0", fillcolor="#e58139"] ;
556 -> 568 ;
569 [label="blood_glucose_level <= -0.616\ngini = 0.047\nsamples = 7422\nvalue = [7244, 178]\nclass = 0", fillcolor="#e6843e"] ;
7 -> 569 ;
570 [label="gini = 0.0\nsamples = 2175\nvalue = [2175, 0]\nclass = 0", fillcolor="#e58139"] ;
569 -> 570 ;
571 [label="heart_disease <= 0.5\ngini = 0.066\nsamples = 5247\nvalue = [5069, 178]\nclass = 0", fillcolor="#e68540"] ;
569 -> 571 ;
572 [label="bmi <= 0.252\ngini = 0.063\nsamples = 5176\nvalue = [5008, 168]\nclass = 0", fillcolor="#e68540"] ;
571 -> 572 ;
573 [label="bmi <= -0.1\ngini = 0.053\nsamples = 4344\nvalue = [4226, 118]\nclass = 0", fillcolor="#e6853f"] ;
572 -> 573 ;
574 [label="gender <= 0.5\ngini = 0.034\nsamples = 1814\nvalue = [1783, 31]\nclass = 0", fillcolor="#e5833c"] ;
573 -> 574 ;
575 [label="smoking_history <= 4.5\ngini = 0.019\nsamples = 1270\nvalue = [1258, 12]\nclass = 0", fillcolor="#e5823b"] ;
574 -> 575 ;
576 [label="HbA1c_level <= 0.955\ngini = 0.015\nsamples = 1198\nvalue = [1189, 9]\nclass = 0", fillcolor="#e5823a"] ;
575 -> 576 ;
577 [label="HbA1c_level <= 0.581\ngini = 0.012\nsamples = 1027\nvalue = [1021, 6]\nclass = 0", fillcolor="#e5823a"] ;
576 -> 577 ;
578 [label="blood_glucose_level <= -0.247\ngini = 0.018\nsamples = 674\nvalue = [668, 6]\nclass = 0", fillcolor="#e5823b"] ;
577 -> 578 ;
579 [label="bmi <= -0.208\ngini = 0.05\nsamples = 78\nvalue = [76, 2]\nclass = 0", fillcolor="#e6843e"] ;
578 -> 579 ;
580 [label="HbA1c_level <= 0.208\ngini = 0.027\nsamples = 72\nvalue = [71, 1]\nclass = 0", fillcolor="#e5833c"] ;
579 -> 580 ;
581 [label="age <= 49.5\ngini = 0.117\nsamples = 16\nvalue = [15, 1]\nclass = 0", fillcolor="#e78946"] ;
580 -> 581 ;
582 [label="gini = 0.0\nsamples = 12\nvalue = [12, 0]\nclass = 0", fillcolor="#e58139"] ;
581 -> 582 ;
583 [label="age <= 50.5\ngini = 0.375\nsamples = 4\nvalue = [3, 1]\nclass = 0", fillcolor="#eeab7b"] ;
581 -> 583 ;
584 [label="bmi <= -0.909\ngini = 0.5\nsamples = 2\nvalue = [1, 1]\nclass = 0", fillcolor="#ffffff"] ;
583 -> 584 ;
585 [label="gini = 0.0\nsamples = 1\nvalue = [1, 0]\nclass = 0", fillcolor="#e58139"] ;
584 -> 585 ;
586 [label="gini = 0.0\nsamples = 1\nvalue = [0, 1]\nclass = 1", fillcolor="#399de5"] ;
584 -> 586 ;
587 [label="gini = 0.0\nsamples = 2\nvalue = [2, 0]\nclass = 0", fillcolor="#e58139"] ;
583 -> 587 ;
588 [label="gini = 0.0\nsamples = 56\nvalue = [56, 0]\nclass = 0", fillcolor="#e58139"] ;
580 -> 588 ;
589 [label="HbA1c_level <= 0.488\ngini = 0.278\nsamples = 6\nvalue = [5, 1]\nclass = 0", fillcolor="#ea9a61"] ;
579 -> 589 ;
590 [label="gini = 0.0\nsamples = 5\nvalue = [5, 0]\nclass = 0", fillcolor="#e58139"] ;
589 -> 590 ;
591 [label="gini = 0.0\nsamples = 1\nvalue = [0, 1]\nclass = 1", fillcolor="#399de5"] ;
589 -> 591 ;
592 [label="age <= 45.5\ngini = 0.013\nsamples = 596\nvalue = [592, 4]\nclass = 0", fillcolor="#e5823a"] ;
578 -> 592 ;
593 [label="age <= 43.5\ngini = 0.028\nsamples = 278\nvalue = [274, 4]\nclass = 0", fillcolor="#e5833c"] ;
592 -> 593 ;
594 [label="blood_glucose_level <= 1.03\ngini = 0.01\nsamples = 200\nvalue = [199, 1]\nclass = 0", fillcolor="#e5823a"] ;
593 -> 594 ;
595 [label="gini = 0.0\nsamples = 176\nvalue = [176, 0]\nclass = 0", fillcolor="#e58139"] ;
594 -> 595 ;
596 [label="bmi <= -0.264\ngini = 0.08\nsamples = 24\nvalue = [23, 1]\nclass = 0", fillcolor="#e68642"] ;
594 -> 596 ;
597 [label="gini = 0.0\nsamples = 21\nvalue = [21, 0]\nclass = 0", fillcolor="#e58139"] ;
596 -> 597 ;
598 [label="HbA1c_level <= 0.348\ngini = 0.444\nsamples = 3\nvalue = [2, 1]\nclass = 0", fillcolor="#f2c09c"] ;
596 -> 598 ;
599 [label="gini = 0.0\nsamples = 2\nvalue = [2, 0]\nclass = 0", fillcolor="#e58139"] ;
598 -> 599 ;
600 [label="gini = 0.0\nsamples = 1\nvalue = [0, 1]\nclass = 1", fillcolor="#399de5"] ;
598 -> 600 ;
601 [label="smoking_history <= 3.5\ngini = 0.074\nsamples = 78\nvalue = [75, 3]\nclass = 0", fillcolor="#e68641"] ;
593 -> 601 ;
602 [label="gini = 0.0\nsamples = 44\nvalue = [44, 0]\nclass = 0", fillcolor="#e58139"] ;
601 -> 602 ;
603 [label="blood_glucose_level <= 0.453\ngini = 0.161\nsamples = 34\nvalue = [31, 3]\nclass = 0", fillcolor="#e88d4c"] ;
601 -> 603 ;
604 [label="blood_glucose_level <= 0.109\ngini = 0.266\nsamples = 19\nvalue = [16, 3]\nclass = 0", fillcolor="#ea995e"] ;
603 -> 604 ;
605 [label="gini = 0.0\nsamples = 10\nvalue = [10, 0]\nclass = 0", fillcolor="#e58139"] ;
604 -> 605 ;
606 [label="bmi <= -1.051\ngini = 0.444\nsamples = 9\nvalue = [6, 3]\nclass = 0", fillcolor="#f2c09c"] ;
604 -> 606 ;
607 [label="gini = 0.0\nsamples = 2\nvalue = [2, 0]\nclass = 0", fillcolor="#e58139"] ;
606 -> 607 ;
608 [label="bmi <= -0.5\ngini = 0.49\nsamples = 7\nvalue = [4, 3]\nclass = 0", fillcolor="#f8e0ce"] ;
606 -> 608 ;
609 [label="bmi <= -0.678\ngini = 0.48\nsamples = 5\nvalue = [2, 3]\nclass = 1", fillcolor="#bddef6"] ;
608 -> 609 ;
610 [label="bmi <= -1.018\ngini = 0.444\nsamples = 3\nvalue = [2, 1]\nclass = 0", fillcolor="#f2c09c"] ;
609 -> 610 ;
611 [label="gini = 0.0\nsamples = 1\nvalue = [0, 1]\nclass = 1", fillcolor="#399de5"] ;
610 -> 611 ;
612 [label="gini = 0.0\nsamples = 2\nvalue = [2, 0]\nclass = 0", fillcolor="#e58139"] ;
610 -> 612 ;
613 [label="gini = 0.0\nsamples = 2\nvalue = [0, 2]\nclass = 1", fillcolor="#399de5"] ;
609 -> 613 ;
614 [label="gini = 0.0\nsamples = 2\nvalue = [2, 0]\nclass = 0", fillcolor="#e58139"] ;
608 -> 614 ;
615 [label="gini = 0.0\nsamples = 15\nvalue = [15, 0]\nclass = 0", fillcolor="#e58139"] ;
603 -> 615 ;
616 [label="gini = 0.0\nsamples = 318\nvalue = [318, 0]\nclass = 0", fillcolor="#e58139"] ;
592 -> 616 ;
617 [label="gini = 0.0\nsamples = 353\nvalue = [353, 0]\nclass = 0", fillcolor="#e58139"] ;
577 -> 617 ;
618 [label="age <= 46.5\ngini = 0.034\nsamples = 171\nvalue = [168, 3]\nclass = 0", fillcolor="#e5833d"] ;
576 -> 618 ;
619 [label="gini = 0.0\nsamples = 82\nvalue = [82, 0]\nclass = 0", fillcolor="#e58139"] ;
618 -> 619 ;
620 [label="age <= 50.5\ngini = 0.065\nsamples = 89\nvalue = [86, 3]\nclass = 0", fillcolor="#e68540"] ;
618 -> 620 ;
621 [label="blood_glucose_level <= 0.109\ngini = 0.107\nsamples = 53\nvalue = [50, 3]\nclass = 0", fillcolor="#e78945"] ;
620 -> 621 ;
622 [label="bmi <= -0.754\ngini = 0.219\nsamples = 16\nvalue = [14, 2]\nclass = 0", fillcolor="#e99355"] ;
621 -> 622 ;
623 [label="bmi <= -1.03\ngini = 0.5\nsamples = 2\nvalue = [1, 1]\nclass = 0", fillcolor="#ffffff"] ;
622 -> 623 ;
624 [label="gini = 0.0\nsamples = 1\nvalue = [1, 0]\nclass = 0", fillcolor="#e58139"] ;
623 -> 624 ;
625 [label="gini = 0.0\nsamples = 1\nvalue = [0, 1]\nclass = 1", fillcolor="#399de5"] ;
623 -> 625 ;
626 [label="bmi <= -0.482\ngini = 0.133\nsamples = 14\nvalue = [13, 1]\nclass = 0", fillcolor="#e78b48"] ;
622 -> 626 ;
627 [label="gini = 0.0\nsamples = 11\nvalue = [11, 0]\nclass = 0", fillcolor="#e58139"] ;
626 -> 627 ;
628 [label="age <= 48.0\ngini = 0.444\nsamples = 3\nvalue = [2, 1]\nclass = 0", fillcolor="#f2c09c"] ;
626 -> 628 ;
629 [label="gini = 0.0\nsamples = 2\nvalue = [2, 0]\nclass = 0", fillcolor="#e58139"] ;
628 -> 629 ;
630 [label="gini = 0.0\nsamples = 1\nvalue = [0, 1]\nclass = 1", fillcolor="#399de5"] ;
628 -> 630 ;
631 [label="age <= 49.5\ngini = 0.053\nsamples = 37\nvalue = [36, 1]\nclass = 0", fillcolor="#e6843e"] ;
621 -> 631 ;
632 [label="gini = 0.0\nsamples = 31\nvalue = [31, 0]\nclass = 0", fillcolor="#e58139"] ;
631 -> 632 ;
633 [label="bmi <= -0.331\ngini = 0.278\nsamples = 6\nvalue = [5, 1]\nclass = 0", fillcolor="#ea9a61"] ;
631 -> 633 ;
634 [label="bmi <= -0.469\ngini = 0.444\nsamples = 3\nvalue = [2, 1]\nclass = 0", fillcolor="#f2c09c"] ;
633 -> 634 ;
635 [label="gini = 0.0\nsamples = 2\nvalue = [2, 0]\nclass = 0", fillcolor="#e58139"] ;
634 -> 635 ;
636 [label="gini = 0.0\nsamples = 1\nvalue = [0, 1]\nclass = 1", fillcolor="#399de5"] ;
634 -> 636 ;
637 [label="gini = 0.0\nsamples = 3\nvalue = [3, 0]\nclass = 0", fillcolor="#e58139"] ;
633 -> 637 ;
638 [label="gini = 0.0\nsamples = 36\nvalue = [36, 0]\nclass = 0", fillcolor="#e58139"] ;
620 -> 638 ;
639 [label="blood_glucose_level <= -0.075\ngini = 0.08\nsamples = 72\nvalue = [69, 3]\nclass = 0", fillcolor="#e68642"] ;
575 -> 639 ;
640 [label="HbA1c_level <= 0.955\ngini = 0.208\nsamples = 17\nvalue = [15, 2]\nclass = 0", fillcolor="#e89253"] ;
639 -> 640 ;
641 [label="bmi <= -0.274\ngini = 0.124\nsamples = 15\nvalue = [14, 1]\nclass = 0", fillcolor="#e78a47"] ;
640 -> 641 ;
642 [label="gini = 0.0\nsamples = 10\nvalue = [10, 0]\nclass = 0", fillcolor="#e58139"] ;
641 -> 642 ;
643 [label="bmi <= -0.202\ngini = 0.32\nsamples = 5\nvalue = [4, 1]\nclass = 0", fillcolor="#eca06a"] ;
641 -> 643 ;
644 [label="gini = 0.0\nsamples = 1\nvalue = [0, 1]\nclass = 1", fillcolor="#399de5"] ;
643 -> 644 ;
645 [label="gini = 0.0\nsamples = 4\nvalue = [4, 0]\nclass = 0", fillcolor="#e58139"] ;
643 -> 645 ;
646 [label="age <= 48.5\ngini = 0.5\nsamples = 2\nvalue = [1, 1]\nclass = 0", fillcolor="#ffffff"] ;
640 -> 646 ;
647 [label="gini = 0.0\nsamples = 1\nvalue = [0, 1]\nclass = 1", fillcolor="#399de5"] ;
646 -> 647 ;
648 [label="gini = 0.0\nsamples = 1\nvalue = [1, 0]\nclass = 0", fillcolor="#e58139"] ;
646 -> 648 ;
649 [label="HbA1c_level <= 0.768\ngini = 0.036\nsamples = 55\nvalue = [54, 1]\nclass = 0", fillcolor="#e5833d"] ;
639 -> 649 ;
650 [label="gini = 0.0\nsamples = 40\nvalue = [40, 0]\nclass = 0", fillcolor="#e58139"] ;
649 -> 650 ;
651 [label="blood_glucose_level <= 0.527\ngini = 0.124\nsamples = 15\nvalue = [14, 1]\nclass = 0", fillcolor="#e78a47"] ;
649 -> 651 ;
652 [label="gini = 0.0\nsamples = 10\nvalue = [10, 0]\nclass = 0", fillcolor="#e58139"] ;
651 -> 652 ;
653 [label="bmi <= -0.753\ngini = 0.32\nsamples = 5\nvalue = [4, 1]\nclass = 0", fillcolor="#eca06a"] ;
651 -> 653 ;
654 [label="gini = 0.0\nsamples = 2\nvalue = [2, 0]\nclass = 0", fillcolor="#e58139"] ;
653 -> 654 ;
655 [label="bmi <= -0.511\ngini = 0.444\nsamples = 3\nvalue = [2, 1]\nclass = 0", fillcolor="#f2c09c"] ;
653 -> 655 ;
656 [label="gini = 0.0\nsamples = 1\nvalue = [0, 1]\nclass = 1", fillcolor="#399de5"] ;
655 -> 656 ;
657 [label="gini = 0.0\nsamples = 2\nvalue = [2, 0]\nclass = 0", fillcolor="#e58139"] ;
655 -> 657 ;
658 [label="bmi <= -0.873\ngini = 0.067\nsamples = 544\nvalue = [525, 19]\nclass = 0", fillcolor="#e68640"] ;
574 -> 658 ;
659 [label="bmi <= -0.876\ngini = 0.15\nsamples = 61\nvalue = [56, 5]\nclass = 0", fillcolor="#e78c4b"] ;
658 -> 659 ;
660 [label="HbA1c_level <= 0.768\ngini = 0.124\nsamples = 60\nvalue = [56, 4]\nclass = 0", fillcolor="#e78a47"] ;
659 -> 660 ;
661 [label="smoking_history <= 2.5\ngini = 0.043\nsamples = 46\nvalue = [45, 1]\nclass = 0", fillcolor="#e6843d"] ;
660 -> 661 ;
662 [label="gini = 0.0\nsamples = 32\nvalue = [32, 0]\nclass = 0", fillcolor="#e58139"] ;
661 -> 662 ;
663 [label="smoking_history <= 3.5\ngini = 0.133\nsamples = 14\nvalue = [13, 1]\nclass = 0", fillcolor="#e78b48"] ;
661 -> 663 ;
664 [label="bmi <= -1.053\ngini = 0.32\nsamples = 5\nvalue = [4, 1]\nclass = 0", fillcolor="#eca06a"] ;
663 -> 664 ;
665 [label="gini = 0.0\nsamples = 4\nvalue = [4, 0]\nclass = 0", fillcolor="#e58139"] ;
664 -> 665 ;
666 [label="gini = 0.0\nsamples = 1\nvalue = [0, 1]\nclass = 1", fillcolor="#399de5"] ;
664 -> 666 ;
667 [label="gini = 0.0\nsamples = 9\nvalue = [9, 0]\nclass = 0", fillcolor="#e58139"] ;
663 -> 667 ;
668 [label="blood_glucose_level <= 0.478\ngini = 0.337\nsamples = 14\nvalue = [11, 3]\nclass = 0", fillcolor="#eca36f"] ;
660 -> 668 ;
669 [label="bmi <= -1.168\ngini = 0.18\nsamples = 10\nvalue = [9, 1]\nclass = 0", fillcolor="#e88f4f"] ;
668 -> 669 ;
670 [label="age <= 46.0\ngini = 0.444\nsamples = 3\nvalue = [2, 1]\nclass = 0", fillcolor="#f2c09c"] ;
669 -> 670 ;
671 [label="gini = 0.0\nsamples = 2\nvalue = [2, 0]\nclass = 0", fillcolor="#e58139"] ;
670 -> 671 ;
672 [label="gini = 0.0\nsamples = 1\nvalue = [0, 1]\nclass = 1", fillcolor="#399de5"] ;
670 -> 672 ;
673 [label="gini = 0.0\nsamples = 7\nvalue = [7, 0]\nclass = 0", fillcolor="#e58139"] ;
669 -> 673 ;
674 [label="bmi <= -0.937\ngini = 0.5\nsamples = 4\nvalue = [2, 2]\nclass = 0", fillcolor="#ffffff"] ;
668 -> 674 ;
675 [label="gini = 0.0\nsamples = 2\nvalue = [2, 0]\nclass = 0", fillcolor="#e58139"] ;
674 -> 675 ;
676 [label="gini = 0.0\nsamples = 2\nvalue = [0, 2]\nclass = 1", fillcolor="#399de5"] ;
674 -> 676 ;
677 [label="gini = 0.0\nsamples = 1\nvalue = [0, 1]\nclass = 1", fillcolor="#399de5"] ;
659 -> 677 ;
678 [label="blood_glucose_level <= 0.453\ngini = 0.056\nsamples = 483\nvalue = [469, 14]\nclass = 0", fillcolor="#e6853f"] ;
658 -> 678 ;
679 [label="HbA1c_level <= 0.955\ngini = 0.084\nsamples = 251\nvalue = [240, 11]\nclass = 0", fillcolor="#e68742"] ;
678 -> 679 ;
680 [label="age <= 43.5\ngini = 0.07\nsamples = 221\nvalue = [213, 8]\nclass = 0", fillcolor="#e68640"] ;
679 -> 680 ;
681 [label="bmi <= -0.257\ngini = 0.133\nsamples = 70\nvalue = [65, 5]\nclass = 0", fillcolor="#e78b48"] ;
680 -> 681 ;
682 [label="bmi <= -0.272\ngini = 0.18\nsamples = 50\nvalue = [45, 5]\nclass = 0", fillcolor="#e88f4f"] ;
681 -> 682 ;
683 [label="HbA1c_level <= 0.348\ngini = 0.15\nsamples = 49\nvalue = [45, 4]\nclass = 0", fillcolor="#e78c4b"] ;
682 -> 683 ;
684 [label="bmi <= -0.31\ngini = 0.305\nsamples = 16\nvalue = [13, 3]\nclass = 0", fillcolor="#eb9e67"] ;
683 -> 684 ;
685 [label="age <= 40.5\ngini = 0.231\nsamples = 15\nvalue = [13, 2]\nclass = 0", fillcolor="#e99457"] ;
684 -> 685 ;
686 [label="age <= 39.5\ngini = 0.444\nsamples = 6\nvalue = [4, 2]\nclass = 0", fillcolor="#f2c09c"] ;
685 -> 686 ;
687 [label="gini = 0.0\nsamples = 3\nvalue = [3, 0]\nclass = 0", fillcolor="#e58139"] ;
686 -> 687 ;
688 [label="smoking_history <= 3.5\ngini = 0.444\nsamples = 3\nvalue = [1, 2]\nclass = 1", fillcolor="#9ccef2"] ;
686 -> 688 ;
689 [label="gini = 0.0\nsamples = 2\nvalue = [0, 2]\nclass = 1", fillcolor="#399de5"] ;
688 -> 689 ;
690 [label="gini = 0.0\nsamples = 1\nvalue = [1, 0]\nclass = 0", fillcolor="#e58139"] ;
688 -> 690 ;
691 [label="gini = 0.0\nsamples = 9\nvalue = [9, 0]\nclass = 0", fillcolor="#e58139"] ;
685 -> 691 ;
692 [label="gini = 0.0\nsamples = 1\nvalue = [0, 1]\nclass = 1", fillcolor="#399de5"] ;
684 -> 692 ;
693 [label="HbA1c_level <= 0.768\ngini = 0.059\nsamples = 33\nvalue = [32, 1]\nclass = 0", fillcolor="#e6853f"] ;
683 -> 693 ;
694 [label="gini = 0.0\nsamples = 25\nvalue = [25, 0]\nclass = 0", fillcolor="#e58139"] ;
693 -> 694 ;
695 [label="bmi <= -0.543\ngini = 0.219\nsamples = 8\nvalue = [7, 1]\nclass = 0", fillcolor="#e99355"] ;
693 -> 695 ;
696 [label="gini = 0.0\nsamples = 6\nvalue = [6, 0]\nclass = 0", fillcolor="#e58139"] ;
695 -> 696 ;
697 [label="smoking_history <= 2.0\ngini = 0.5\nsamples = 2\nvalue = [1, 1]\nclass = 0", fillcolor="#ffffff"] ;
695 -> 697 ;
698 [label="gini = 0.0\nsamples = 1\nvalue = [1, 0]\nclass = 0", fillcolor="#e58139"] ;
697 -> 698 ;
699 [label="gini = 0.0\nsamples = 1\nvalue = [0, 1]\nclass = 1", fillcolor="#399de5"] ;
697 -> 699 ;
700 [label="gini = 0.0\nsamples = 1\nvalue = [0, 1]\nclass = 1", fillcolor="#399de5"] ;
682 -> 700 ;
701 [label="gini = 0.0\nsamples = 20\nvalue = [20, 0]\nclass = 0", fillcolor="#e58139"] ;
681 -> 701 ;
702 [label="bmi <= -0.122\ngini = 0.039\nsamples = 151\nvalue = [148, 3]\nclass = 0", fillcolor="#e6843d"] ;
680 -> 702 ;
703 [label="HbA1c_level <= 0.208\ngini = 0.027\nsamples = 144\nvalue = [142, 2]\nclass = 0", fillcolor="#e5833c"] ;
702 -> 703 ;
704 [label="age <= 50.5\ngini = 0.133\nsamples = 28\nvalue = [26, 2]\nclass = 0", fillcolor="#e78b48"] ;
703 -> 704 ;
705 [label="gini = 0.0\nsamples = 20\nvalue = [20, 0]\nclass = 0", fillcolor="#e58139"] ;
704 -> 705 ;
706 [label="bmi <= -0.442\ngini = 0.375\nsamples = 8\nvalue = [6, 2]\nclass = 0", fillcolor="#eeab7b"] ;
704 -> 706 ;
707 [label="gini = 0.0\nsamples = 1\nvalue = [0, 1]\nclass = 1", fillcolor="#399de5"] ;
706 -> 707 ;
708 [label="smoking_history <= 2.5\ngini = 0.245\nsamples = 7\nvalue = [6, 1]\nclass = 0", fillcolor="#e9965a"] ;
706 -> 708 ;
709 [label="gini = 0.0\nsamples = 1\nvalue = [0, 1]\nclass = 1", fillcolor="#399de5"] ;
708 -> 709 ;
710 [label="gini = 0.0\nsamples = 6\nvalue = [6, 0]\nclass = 0", fillcolor="#e58139"] ;
708 -> 710 ;
711 [label="gini = 0.0\nsamples = 116\nvalue = [116, 0]\nclass = 0", fillcolor="#e58139"] ;
703 -> 711 ;
712 [label="bmi <= -0.12\ngini = 0.245\nsamples = 7\nvalue = [6, 1]\nclass = 0", fillcolor="#e9965a"] ;
702 -> 712 ;
713 [label="gini = 0.0\nsamples = 1\nvalue = [0, 1]\nclass = 1", fillcolor="#399de5"] ;
712 -> 713 ;
714 [label="gini = 0.0\nsamples = 6\nvalue = [6, 0]\nclass = 0", fillcolor="#e58139"] ;
712 -> 714 ;
715 [label="bmi <= -0.161\ngini = 0.18\nsamples = 30\nvalue = [27, 3]\nclass = 0", fillcolor="#e88f4f"] ;
679 -> 715 ;
716 [label="age <= 52.0\ngini = 0.133\nsamples = 28\nvalue = [26, 2]\nclass = 0", fillcolor="#e78b48"] ;
715 -> 716 ;
717 [label="blood_glucose_level <= 0.109\ngini = 0.077\nsamples = 25\nvalue = [24, 1]\nclass = 0", fillcolor="#e68641"] ;
716 -> 717 ;
718 [label="gini = 0.0\nsamples = 16\nvalue = [16, 0]\nclass = 0", fillcolor="#e58139"] ;
717 -> 718 ;
719 [label="bmi <= -0.401\ngini = 0.198\nsamples = 9\nvalue = [8, 1]\nclass = 0", fillcolor="#e89152"] ;
717 -> 719 ;
720 [label="blood_glucose_level <= 0.293\ngini = 0.444\nsamples = 3\nvalue = [2, 1]\nclass = 0", fillcolor="#f2c09c"] ;
719 -> 720 ;
721 [label="gini = 0.0\nsamples = 1\nvalue = [0, 1]\nclass = 1", fillcolor="#399de5"] ;
720 -> 721 ;
722 [label="gini = 0.0\nsamples = 2\nvalue = [2, 0]\nclass = 0", fillcolor="#e58139"] ;
720 -> 722 ;
723 [label="gini = 0.0\nsamples = 6\nvalue = [6, 0]\nclass = 0", fillcolor="#e58139"] ;
719 -> 723 ;
724 [label="blood_glucose_level <= -0.247\ngini = 0.444\nsamples = 3\nvalue = [2, 1]\nclass = 0", fillcolor="#f2c09c"] ;
716 -> 724 ;
725 [label="gini = 0.0\nsamples = 2\nvalue = [2, 0]\nclass = 0", fillcolor="#e58139"] ;
724 -> 725 ;
726 [label="gini = 0.0\nsamples = 1\nvalue = [0, 1]\nclass = 1", fillcolor="#399de5"] ;
724 -> 726 ;
727 [label="bmi <= -0.137\ngini = 0.5\nsamples = 2\nvalue = [1, 1]\nclass = 0", fillcolor="#ffffff"] ;
715 -> 727 ;
728 [label="gini = 0.0\nsamples = 1\nvalue = [0, 1]\nclass = 1", fillcolor="#399de5"] ;
727 -> 728 ;
729 [label="gini = 0.0\nsamples = 1\nvalue = [1, 0]\nclass = 0", fillcolor="#e58139"] ;
727 -> 729 ;
730 [label="HbA1c_level <= 0.488\ngini = 0.026\nsamples = 232\nvalue = [229, 3]\nclass = 0", fillcolor="#e5833c"] ;
678 -> 730 ;
731 [label="gini = 0.0\nsamples = 95\nvalue = [95, 0]\nclass = 0", fillcolor="#e58139"] ;
730 -> 731 ;
732 [label="HbA1c_level <= 0.768\ngini = 0.043\nsamples = 137\nvalue = [134, 3]\nclass = 0", fillcolor="#e6843d"] ;
730 -> 732 ;
733 [label="age <= 39.5\ngini = 0.083\nsamples = 69\nvalue = [66, 3]\nclass = 0", fillcolor="#e68742"] ;
732 -> 733 ;
734 [label="smoking_history <= 2.5\ngini = 0.219\nsamples = 8\nvalue = [7, 1]\nclass = 0", fillcolor="#e99355"] ;
733 -> 734 ;
735 [label="blood_glucose_level <= 0.502\ngini = 0.444\nsamples = 3\nvalue = [2, 1]\nclass = 0", fillcolor="#f2c09c"] ;
734 -> 735 ;
736 [label="gini = 0.0\nsamples = 1\nvalue = [1, 0]\nclass = 0", fillcolor="#e58139"] ;
735 -> 736 ;
737 [label="blood_glucose_level <= 0.527\ngini = 0.5\nsamples = 2\nvalue = [1, 1]\nclass = 0", fillcolor="#ffffff"] ;
735 -> 737 ;
738 [label="gini = 0.0\nsamples = 1\nvalue = [0, 1]\nclass = 1", fillcolor="#399de5"] ;
737 -> 738 ;
739 [label="gini = 0.0\nsamples = 1\nvalue = [1, 0]\nclass = 0", fillcolor="#e58139"] ;
737 -> 739 ;
740 [label="gini = 0.0\nsamples = 5\nvalue = [5, 0]\nclass = 0", fillcolor="#e58139"] ;
734 -> 740 ;
741 [label="HbA1c_level <= 0.581\ngini = 0.063\nsamples = 61\nvalue = [59, 2]\nclass = 0", fillcolor="#e68540"] ;
733 -> 741 ;
742 [label="bmi <= -0.264\ngini = 0.121\nsamples = 31\nvalue = [29, 2]\nclass = 0", fillcolor="#e78a47"] ;
741 -> 742 ;
743 [label="bmi <= -0.275\ngini = 0.188\nsamples = 19\nvalue = [17, 2]\nclass = 0", fillcolor="#e89050"] ;
742 -> 743 ;
744 [label="bmi <= -0.551\ngini = 0.105\nsamples = 18\nvalue = [17, 1]\nclass = 0", fillcolor="#e78845"] ;
743 -> 744 ;
745 [label="bmi <= -0.567\ngini = 0.278\nsamples = 6\nvalue = [5, 1]\nclass = 0", fillcolor="#ea9a61"] ;
744 -> 745 ;
746 [label="gini = 0.0\nsamples = 5\nvalue = [5, 0]\nclass = 0", fillcolor="#e58139"] ;
745 -> 746 ;
747 [label="gini = 0.0\nsamples = 1\nvalue = [0, 1]\nclass = 1", fillcolor="#399de5"] ;
745 -> 747 ;
748 [label="gini = 0.0\nsamples = 12\nvalue = [12, 0]\nclass = 0", fillcolor="#e58139"] ;
744 -> 748 ;
749 [label="gini = 0.0\nsamples = 1\nvalue = [0, 1]\nclass = 1", fillcolor="#399de5"] ;
743 -> 749 ;
750 [label="gini = 0.0\nsamples = 12\nvalue = [12, 0]\nclass = 0", fillcolor="#e58139"] ;
742 -> 750 ;
751 [label="gini = 0.0\nsamples = 30\nvalue = [30, 0]\nclass = 0", fillcolor="#e58139"] ;
741 -> 751 ;
752 [label="gini = 0.0\nsamples = 68\nvalue = [68, 0]\nclass = 0", fillcolor="#e58139"] ;
732 -> 752 ;
753 [label="smoking_history <= 0.5\ngini = 0.066\nsamples = 2530\nvalue = [2443, 87]\nclass = 0", fillcolor="#e68540"] ;
573 -> 753 ;
754 [label="blood_glucose_level <= -0.247\ngini = 0.04\nsamples = 989\nvalue = [969, 20]\nclass = 0", fillcolor="#e6843d"] ;
753 -> 754 ;
755 [label="HbA1c_level <= 0.488\ngini = 0.109\nsamples = 121\nvalue = [114, 7]\nclass = 0", fillcolor="#e78945"] ;
754 -> 755 ;
756 [label="age <= 51.5\ngini = 0.185\nsamples = 58\nvalue = [52, 6]\nclass = 0", fillcolor="#e89050"] ;
755 -> 756 ;
757 [label="age <= 50.5\ngini = 0.219\nsamples = 48\nvalue = [42, 6]\nclass = 0", fillcolor="#e99355"] ;
756 -> 757 ;
758 [label="age <= 40.5\ngini = 0.176\nsamples = 41\nvalue = [37, 4]\nclass = 0", fillcolor="#e88f4e"] ;
757 -> 758 ;
759 [label="HbA1c_level <= 0.208\ngini = 0.375\nsamples = 4\nvalue = [3, 1]\nclass = 0", fillcolor="#eeab7b"] ;
758 -> 759 ;
760 [label="gini = 0.0\nsamples = 2\nvalue = [2, 0]\nclass = 0", fillcolor="#e58139"] ;
759 -> 760 ;
761 [label="gini = 0.5\nsamples = 2\nvalue = [1, 1]\nclass = 0", fillcolor="#ffffff"] ;
759 -> 761 ;
762 [label="age <= 42.5\ngini = 0.149\nsamples = 37\nvalue = [34, 3]\nclass = 0", fillcolor="#e78c4a"] ;
758 -> 762 ;
763 [label="gini = 0.0\nsamples = 11\nvalue = [11, 0]\nclass = 0", fillcolor="#e58139"] ;
762 -> 763 ;
764 [label="age <= 48.0\ngini = 0.204\nsamples = 26\nvalue = [23, 3]\nclass = 0", fillcolor="#e89153"] ;
762 -> 764 ;
765 [label="age <= 44.5\ngini = 0.266\nsamples = 19\nvalue = [16, 3]\nclass = 0", fillcolor="#ea995e"] ;
764 -> 765 ;
766 [label="age <= 43.5\ngini = 0.153\nsamples = 12\nvalue = [11, 1]\nclass = 0", fillcolor="#e78c4b"] ;
765 -> 766 ;
767 [label="HbA1c_level <= 0.208\ngini = 0.32\nsamples = 5\nvalue = [4, 1]\nclass = 0", fillcolor="#eca06a"] ;
766 -> 767 ;
768 [label="gini = 0.0\nsamples = 2\nvalue = [2, 0]\nclass = 0", fillcolor="#e58139"] ;
767 -> 768 ;
769 [label="bmi <= 0.082\ngini = 0.444\nsamples = 3\nvalue = [2, 1]\nclass = 0", fillcolor="#f2c09c"] ;
767 -> 769 ;
770 [label="gender <= 0.5\ngini = 0.5\nsamples = 2\nvalue = [1, 1]\nclass = 0", fillcolor="#ffffff"] ;
769 -> 770 ;
771 [label="gini = 0.0\nsamples = 1\nvalue = [1, 0]\nclass = 0", fillcolor="#e58139"] ;
770 -> 771 ;
772 [label="gini = 0.0\nsamples = 1\nvalue = [0, 1]\nclass = 1", fillcolor="#399de5"] ;
770 -> 772 ;
773 [label="gini = 0.0\nsamples = 1\nvalue = [1, 0]\nclass = 0", fillcolor="#e58139"] ;
769 -> 773 ;
774 [label="gini = 0.0\nsamples = 7\nvalue = [7, 0]\nclass = 0", fillcolor="#e58139"] ;
766 -> 774 ;
775 [label="gender <= 0.5\ngini = 0.408\nsamples = 7\nvalue = [5, 2]\nclass = 0", fillcolor="#efb388"] ;
765 -> 775 ;
776 [label="HbA1c_level <= 0.208\ngini = 0.48\nsamples = 5\nvalue = [3, 2]\nclass = 0", fillcolor="#f6d5bd"] ;
775 -> 776 ;
777 [label="gini = 0.0\nsamples = 1\nvalue = [0, 1]\nclass = 1", fillcolor="#399de5"] ;
776 -> 777 ;
778 [label="age <= 46.0\ngini = 0.375\nsamples = 4\nvalue = [3, 1]\nclass = 0", fillcolor="#eeab7b"] ;
776 -> 778 ;
779 [label="gini = 0.5\nsamples = 2\nvalue = [1, 1]\nclass = 0", fillcolor="#ffffff"] ;
778 -> 779 ;
780 [label="gini = 0.0\nsamples = 2\nvalue = [2, 0]\nclass = 0", fillcolor="#e58139"] ;
778 -> 780 ;
781 [label="gini = 0.0\nsamples = 2\nvalue = [2, 0]\nclass = 0", fillcolor="#e58139"] ;
775 -> 781 ;
782 [label="gini = 0.0\nsamples = 7\nvalue = [7, 0]\nclass = 0", fillcolor="#e58139"] ;
764 -> 782 ;
783 [label="HbA1c_level <= 0.208\ngini = 0.408\nsamples = 7\nvalue = [5, 2]\nclass = 0", fillcolor="#efb388"] ;
757 -> 783 ;
784 [label="gini = 0.0\nsamples = 1\nvalue = [0, 1]\nclass = 1", fillcolor="#399de5"] ;
783 -> 784 ;
785 [label="gender <= 0.5\ngini = 0.278\nsamples = 6\nvalue = [5, 1]\nclass = 0", fillcolor="#ea9a61"] ;
783 -> 785 ;
786 [label="gini = 0.0\nsamples = 3\nvalue = [3, 0]\nclass = 0", fillcolor="#e58139"] ;
785 -> 786 ;
787 [label="HbA1c_level <= 0.348\ngini = 0.444\nsamples = 3\nvalue = [2, 1]\nclass = 0", fillcolor="#f2c09c"] ;
785 -> 787 ;
788 [label="gini = 0.0\nsamples = 1\nvalue = [1, 0]\nclass = 0", fillcolor="#e58139"] ;
787 -> 788 ;
789 [label="gini = 0.5\nsamples = 2\nvalue = [1, 1]\nclass = 0", fillcolor="#ffffff"] ;
787 -> 789 ;
790 [label="gini = 0.0\nsamples = 10\nvalue = [10, 0]\nclass = 0", fillcolor="#e58139"] ;
756 -> 790 ;
791 [label="age <= 51.5\ngini = 0.031\nsamples = 63\nvalue = [62, 1]\nclass = 0", fillcolor="#e5833c"] ;
755 -> 791 ;
792 [label="gini = 0.0\nsamples = 49\nvalue = [49, 0]\nclass = 0", fillcolor="#e58139"] ;
791 -> 792 ;
793 [label="HbA1c_level <= 0.955\ngini = 0.133\nsamples = 14\nvalue = [13, 1]\nclass = 0", fillcolor="#e78b48"] ;
791 -> 793 ;
794 [label="gini = 0.0\nsamples = 11\nvalue = [11, 0]\nclass = 0", fillcolor="#e58139"] ;
793 -> 794 ;
795 [label="gender <= 0.5\ngini = 0.444\nsamples = 3\nvalue = [2, 1]\nclass = 0", fillcolor="#f2c09c"] ;
793 -> 795 ;
796 [label="age <= 52.5\ngini = 0.5\nsamples = 2\nvalue = [1, 1]\nclass = 0", fillcolor="#ffffff"] ;
795 -> 796 ;
797 [label="gini = 0.0\nsamples = 1\nvalue = [0, 1]\nclass = 1", fillcolor="#399de5"] ;
796 -> 797 ;
798 [label="gini = 0.0\nsamples = 1\nvalue = [1, 0]\nclass = 0", fillcolor="#e58139"] ;
796 -> 798 ;
799 [label="gini = 0.0\nsamples = 1\nvalue = [1, 0]\nclass = 0", fillcolor="#e58139"] ;
795 -> 799 ;
800 [label="HbA1c_level <= 0.208\ngini = 0.03\nsamples = 868\nvalue = [855, 13]\nclass = 0", fillcolor="#e5833c"] ;
754 -> 800 ;
801 [label="age <= 52.5\ngini = 0.069\nsamples = 112\nvalue = [108, 4]\nclass = 0", fillcolor="#e68640"] ;
800 -> 801 ;
802 [label="blood_glucose_level <= 1.03\ngini = 0.038\nsamples = 104\nvalue = [102, 2]\nclass = 0", fillcolor="#e6833d"] ;
801 -> 802 ;
803 [label="blood_glucose_level <= -0.075\ngini = 0.022\nsamples = 88\nvalue = [87, 1]\nclass = 0", fillcolor="#e5823b"] ;
802 -> 803 ;
804 [label="age <= 43.5\ngini = 0.1\nsamples = 19\nvalue = [18, 1]\nclass = 0", fillcolor="#e68844"] ;
803 -> 804 ;
805 [label="age <= 41.0\ngini = 0.32\nsamples = 5\nvalue = [4, 1]\nclass = 0", fillcolor="#eca06a"] ;
804 -> 805 ;
806 [label="gini = 0.0\nsamples = 3\nvalue = [3, 0]\nclass = 0", fillcolor="#e58139"] ;
805 -> 806 ;
807 [label="gender <= 0.5\ngini = 0.5\nsamples = 2\nvalue = [1, 1]\nclass = 0", fillcolor="#ffffff"] ;
805 -> 807 ;
808 [label="gini = 0.0\nsamples = 1\nvalue = [0, 1]\nclass = 1", fillcolor="#399de5"] ;
807 -> 808 ;
809 [label="gini = 0.0\nsamples = 1\nvalue = [1, 0]\nclass = 0", fillcolor="#e58139"] ;
807 -> 809 ;
810 [label="gini = 0.0\nsamples = 14\nvalue = [14, 0]\nclass = 0", fillcolor="#e58139"] ;
804 -> 810 ;
811 [label="gini = 0.0\nsamples = 69\nvalue = [69, 0]\nclass = 0", fillcolor="#e58139"] ;
803 -> 811 ;
812 [label="age <= 49.5\ngini = 0.117\nsamples = 16\nvalue = [15, 1]\nclass = 0", fillcolor="#e78946"] ;
802 -> 812 ;
813 [label="gini = 0.0\nsamples = 12\nvalue = [12, 0]\nclass = 0", fillcolor="#e58139"] ;
812 -> 813 ;
814 [label="age <= 50.5\ngini = 0.375\nsamples = 4\nvalue = [3, 1]\nclass = 0", fillcolor="#eeab7b"] ;
812 -> 814 ;
815 [label="gini = 0.444\nsamples = 3\nvalue = [2, 1]\nclass = 0", fillcolor="#f2c09c"] ;
814 -> 815 ;
816 [label="gini = 0.0\nsamples = 1\nvalue = [1, 0]\nclass = 0", fillcolor="#e58139"] ;
814 -> 816 ;
817 [label="blood_glucose_level <= 0.969\ngini = 0.375\nsamples = 8\nvalue = [6, 2]\nclass = 0", fillcolor="#eeab7b"] ;
801 -> 817 ;
818 [label="blood_glucose_level <= 0.293\ngini = 0.48\nsamples = 5\nvalue = [3, 2]\nclass = 0", fillcolor="#f6d5bd"] ;
817 -> 818 ;
819 [label="blood_glucose_level <= 0.109\ngini = 0.375\nsamples = 4\nvalue = [3, 1]\nclass = 0", fillcolor="#eeab7b"] ;
818 -> 819 ;
820 [label="gender <= 0.5\ngini = 0.444\nsamples = 3\nvalue = [2, 1]\nclass = 0", fillcolor="#f2c09c"] ;
819 -> 820 ;
821 [label="gini = 0.0\nsamples = 1\nvalue = [1, 0]\nclass = 0", fillcolor="#e58139"] ;
820 -> 821 ;
822 [label="gini = 0.5\nsamples = 2\nvalue = [1, 1]\nclass = 0", fillcolor="#ffffff"] ;
820 -> 822 ;
823 [label="gini = 0.0\nsamples = 1\nvalue = [1, 0]\nclass = 0", fillcolor="#e58139"] ;
819 -> 823 ;
824 [label="gini = 0.0\nsamples = 1\nvalue = [0, 1]\nclass = 1", fillcolor="#399de5"] ;
818 -> 824 ;
825 [label="gini = 0.0\nsamples = 3\nvalue = [3, 0]\nclass = 0", fillcolor="#e58139"] ;
817 -> 825 ;
826 [label="bmi <= 0.212\ngini = 0.024\nsamples = 756\nvalue = [747, 9]\nclass = 0", fillcolor="#e5833b"] ;
800 -> 826 ;
827 [label="blood_glucose_level <= 0.527\ngini = 0.021\nsamples = 743\nvalue = [735, 8]\nclass = 0", fillcolor="#e5823b"] ;
826 -> 827 ;
828 [label="age <= 40.5\ngini = 0.014\nsamples = 567\nvalue = [563, 4]\nclass = 0", fillcolor="#e5823a"] ;
827 -> 828 ;
829 [label="bmi <= 0.051\ngini = 0.061\nsamples = 63\nvalue = [61, 2]\nclass = 0", fillcolor="#e6853f"] ;
828 -> 829 ;
830 [label="HbA1c_level <= 0.488\ngini = 0.033\nsamples = 60\nvalue = [59, 1]\nclass = 0", fillcolor="#e5833c"] ;
829 -> 830 ;
831 [label="age <= 39.5\ngini = 0.153\nsamples = 12\nvalue = [11, 1]\nclass = 0", fillcolor="#e78c4b"] ;
830 -> 831 ;
832 [label="gini = 0.0\nsamples = 7\nvalue = [7, 0]\nclass = 0", fillcolor="#e58139"] ;
831 -> 832 ;
833 [label="blood_glucose_level <= 0.453\ngini = 0.32\nsamples = 5\nvalue = [4, 1]\nclass = 0", fillcolor="#eca06a"] ;
831 -> 833 ;
834 [label="gender <= 0.5\ngini = 0.5\nsamples = 2\nvalue = [1, 1]\nclass = 0", fillcolor="#ffffff"] ;
833 -> 834 ;
835 [label="gini = 0.0\nsamples = 1\nvalue = [0, 1]\nclass = 1", fillcolor="#399de5"] ;
834 -> 835 ;
836 [label="gini = 0.0\nsamples = 1\nvalue = [1, 0]\nclass = 0", fillcolor="#e58139"] ;
834 -> 836 ;
837 [label="gini = 0.0\nsamples = 3\nvalue = [3, 0]\nclass = 0", fillcolor="#e58139"] ;
833 -> 837 ;
838 [label="gini = 0.0\nsamples = 48\nvalue = [48, 0]\nclass = 0", fillcolor="#e58139"] ;
830 -> 838 ;
839 [label="bmi <= 0.139\ngini = 0.444\nsamples = 3\nvalue = [2, 1]\nclass = 0", fillcolor="#f2c09c"] ;
829 -> 839 ;
840 [label="gini = 0.0\nsamples = 1\nvalue = [0, 1]\nclass = 1", fillcolor="#399de5"] ;
839 -> 840 ;
841 [label="gini = 0.0\nsamples = 2\nvalue = [2, 0]\nclass = 0", fillcolor="#e58139"] ;
839 -> 841 ;
842 [label="age <= 44.5\ngini = 0.008\nsamples = 504\nvalue = [502, 2]\nclass = 0", fillcolor="#e5823a"] ;
828 -> 842 ;
843 [label="blood_glucose_level <= 0.502\ngini = 0.024\nsamples = 163\nvalue = [161, 2]\nclass = 0", fillcolor="#e5833b"] ;
842 -> 843 ;
844 [label="HbA1c_level <= 0.488\ngini = 0.014\nsamples = 142\nvalue = [141, 1]\nclass = 0", fillcolor="#e5823a"] ;
843 -> 844 ;
845 [label="age <= 43.5\ngini = 0.042\nsamples = 47\nvalue = [46, 1]\nclass = 0", fillcolor="#e6843d"] ;
844 -> 845 ;
846 [label="gini = 0.0\nsamples = 30\nvalue = [30, 0]\nclass = 0", fillcolor="#e58139"] ;
845 -> 846 ;
847 [label="gender <= 0.5\ngini = 0.111\nsamples = 17\nvalue = [16, 1]\nclass = 0", fillcolor="#e78945"] ;
845 -> 847 ;
848 [label="blood_glucose_level <= 0.293\ngini = 0.219\nsamples = 8\nvalue = [7, 1]\nclass = 0", fillcolor="#e99355"] ;
847 -> 848 ;
849 [label="blood_glucose_level <= 0.109\ngini = 0.375\nsamples = 4\nvalue = [3, 1]\nclass = 0", fillcolor="#eeab7b"] ;
848 -> 849 ;
850 [label="gini = 0.0\nsamples = 2\nvalue = [2, 0]\nclass = 0", fillcolor="#e58139"] ;
849 -> 850 ;
851 [label="gini = 0.5\nsamples = 2\nvalue = [1, 1]\nclass = 0", fillcolor="#ffffff"] ;
849 -> 851 ;
852 [label="gini = 0.0\nsamples = 4\nvalue = [4, 0]\nclass = 0", fillcolor="#e58139"] ;
848 -> 852 ;
853 [label="gini = 0.0\nsamples = 9\nvalue = [9, 0]\nclass = 0", fillcolor="#e58139"] ;
847 -> 853 ;
854 [label="gini = 0.0\nsamples = 95\nvalue = [95, 0]\nclass = 0", fillcolor="#e58139"] ;
844 -> 854 ;
855 [label="HbA1c_level <= 0.768\ngini = 0.091\nsamples = 21\nvalue = [20, 1]\nclass = 0", fillcolor="#e68743"] ;
843 -> 855 ;
856 [label="gini = 0.0\nsamples = 11\nvalue = [11, 0]\nclass = 0", fillcolor="#e58139"] ;
855 -> 856 ;
857 [label="HbA1c_level <= 0.955\ngini = 0.18\nsamples = 10\nvalue = [9, 1]\nclass = 0", fillcolor="#e88f4f"] ;
855 -> 857 ;
858 [label="gender <= 0.5\ngini = 0.32\nsamples = 5\nvalue = [4, 1]\nclass = 0", fillcolor="#eca06a"] ;
857 -> 858 ;
859 [label="age <= 42.5\ngini = 0.5\nsamples = 2\nvalue = [1, 1]\nclass = 0", fillcolor="#ffffff"] ;
858 -> 859 ;
860 [label="gini = 0.0\nsamples = 1\nvalue = [1, 0]\nclass = 0", fillcolor="#e58139"] ;
859 -> 860 ;
861 [label="gini = 0.0\nsamples = 1\nvalue = [0, 1]\nclass = 1", fillcolor="#399de5"] ;
859 -> 861 ;
862 [label="gini = 0.0\nsamples = 3\nvalue = [3, 0]\nclass = 0", fillcolor="#e58139"] ;
858 -> 862 ;
863 [label="gini = 0.0\nsamples = 5\nvalue = [5, 0]\nclass = 0", fillcolor="#e58139"] ;
857 -> 863 ;
864 [label="gini = 0.0\nsamples = 341\nvalue = [341, 0]\nclass = 0", fillcolor="#e58139"] ;
842 -> 864 ;
865 [label="age <= 47.5\ngini = 0.044\nsamples = 176\nvalue = [172, 4]\nclass = 0", fillcolor="#e6843e"] ;
827 -> 865 ;
866 [label="HbA1c_level <= 0.488\ngini = 0.019\nsamples = 106\nvalue = [105, 1]\nclass = 0", fillcolor="#e5823b"] ;
865 -> 866 ;
867 [label="blood_glucose_level <= 1.03\ngini = 0.048\nsamples = 41\nvalue = [40, 1]\nclass = 0", fillcolor="#e6843e"] ;
866 -> 867 ;
868 [label="age <= 43.5\ngini = 0.105\nsamples = 18\nvalue = [17, 1]\nclass = 0", fillcolor="#e78845"] ;
867 -> 868 ;
869 [label="gini = 0.0\nsamples = 10\nvalue = [10, 0]\nclass = 0", fillcolor="#e58139"] ;
868 -> 869 ;
870 [label="age <= 44.5\ngini = 0.219\nsamples = 8\nvalue = [7, 1]\nclass = 0", fillcolor="#e99355"] ;
868 -> 870 ;
871 [label="gini = 0.0\nsamples = 1\nvalue = [0, 1]\nclass = 1", fillcolor="#399de5"] ;
870 -> 871 ;
872 [label="gini = 0.0\nsamples = 7\nvalue = [7, 0]\nclass = 0", fillcolor="#e58139"] ;
870 -> 872 ;
873 [label="gini = 0.0\nsamples = 23\nvalue = [23, 0]\nclass = 0", fillcolor="#e58139"] ;
867 -> 873 ;
874 [label="gini = 0.0\nsamples = 65\nvalue = [65, 0]\nclass = 0", fillcolor="#e58139"] ;
866 -> 874 ;
875 [label="age <= 51.5\ngini = 0.082\nsamples = 70\nvalue = [67, 3]\nclass = 0", fillcolor="#e68742"] ;
865 -> 875 ;
876 [label="HbA1c_level <= 0.488\ngini = 0.122\nsamples = 46\nvalue = [43, 3]\nclass = 0", fillcolor="#e78a47"] ;
875 -> 876 ;
877 [label="gini = 0.0\nsamples = 17\nvalue = [17, 0]\nclass = 0", fillcolor="#e58139"] ;
876 -> 877 ;
878 [label="HbA1c_level <= 0.768\ngini = 0.185\nsamples = 29\nvalue = [26, 3]\nclass = 0", fillcolor="#e89050"] ;
876 -> 878 ;
879 [label="age <= 48.5\ngini = 0.298\nsamples = 11\nvalue = [9, 2]\nclass = 0", fillcolor="#eb9d65"] ;
878 -> 879 ;
880 [label="gender <= 0.5\ngini = 0.5\nsamples = 2\nvalue = [1, 1]\nclass = 0", fillcolor="#ffffff"] ;
879 -> 880 ;
881 [label="gini = 0.0\nsamples = 1\nvalue = [1, 0]\nclass = 0", fillcolor="#e58139"] ;
880 -> 881 ;
882 [label="gini = 0.0\nsamples = 1\nvalue = [0, 1]\nclass = 1", fillcolor="#399de5"] ;
880 -> 882 ;
883 [label="blood_glucose_level <= 1.03\ngini = 0.198\nsamples = 9\nvalue = [8, 1]\nclass = 0", fillcolor="#e89152"] ;
879 -> 883 ;
884 [label="HbA1c_level <= 0.581\ngini = 0.32\nsamples = 5\nvalue = [4, 1]\nclass = 0", fillcolor="#eca06a"] ;
883 -> 884 ;
885 [label="gender <= 0.5\ngini = 0.444\nsamples = 3\nvalue = [2, 1]\nclass = 0", fillcolor="#f2c09c"] ;
884 -> 885 ;
