digraph Tree {
node [shape=box, style="filled", color="black", fontname="helvetica"] ;
edge [fontname="helvetica"] ;
0 [label="O1 <= -0.002\ngini = 0.5\nsamples = 12570\nvalue = [6285, 6285]\nclass = 0", fillcolor="#ffffff"] ;
1 [label="P7 <= -0.009\ngini = 0.499\nsamples = 11558\nvalue = [6090, 5468]\nclass = 0", fillcolor="#fcf2eb"] ;
0 -> 1 [labeldistance=2.5, labelangle=45, headlabel="True"] ;
2 [label="AF4 <= -0.016\ngini = 0.485\nsamples = 5951\nvalue = [2457, 3494]\nclass = 1", fillcolor="#c4e2f7"] ;
1 -> 2 ;
3 [label="F8 <= -0.019\ngini = 0.361\nsamples = 469\nvalue = [358, 111]\nclass = 0", fillcolor="#eda876"] ;
2 -> 3 ;
4 [label="F8 <= -0.057\ngini = 0.334\nsamples = 453\nvalue = [357, 96]\nclass = 0", fillcolor="#eca36e"] ;
3 -> 4 ;
5 [label="F8 <= -0.087\ngini = 0.485\nsamples = 133\nvalue = [78, 55]\nclass = 0", fillcolor="#f7dac5"] ;
4 -> 5 ;
6 [label="gini = 0.0\nsamples = 36\nvalue = [36, 0]\nclass = 0", fillcolor="#e58139"] ;
5 -> 6 ;
7 [label="F4 <= -0.963\ngini = 0.491\nsamples = 97\nvalue = [42, 55]\nclass = 1", fillcolor="#d0e8f9"] ;
5 -> 7 ;
8 [label="O1 <= -0.009\ngini = 0.298\nsamples = 22\nvalue = [18, 4]\nclass = 0", fillcolor="#eb9d65"] ;
7 -> 8 ;
9 [label="gini = 0.0\nsamples = 18\nvalue = [18, 0]\nclass = 0", fillcolor="#e58139"] ;
8 -> 9 ;
10 [label="gini = 0.0\nsamples = 4\nvalue = [0, 4]\nclass = 1", fillcolor="#399de5"] ;
8 -> 10 ;
11 [label="FC6 <= -1.035\ngini = 0.435\nsamples = 75\nvalue = [24, 51]\nclass = 1", fillcolor="#96cbf1"] ;
7 -> 11 ;
12 [label="O2 <= -0.172\ngini = 0.201\nsamples = 44\nvalue = [5, 39]\nclass = 1", fillcolor="#52aae8"] ;
11 -> 12 ;
13 [label="O2 <= -0.96\ngini = 0.097\nsamples = 39\nvalue = [2, 37]\nclass = 1", fillcolor="#44a2e6"] ;
12 -> 13 ;
14 [label="gini = 0.0\nsamples = 1\nvalue = [1, 0]\nclass = 0", fillcolor="#e58139"] ;
13 -> 14 ;
15 [label="F7 <= -0.86\ngini = 0.051\nsamples = 38\nvalue = [1, 37]\nclass = 1", fillcolor="#3ea0e6"] ;
13 -> 15 ;
16 [label="gini = 0.0\nsamples = 1\nvalue = [1, 0]\nclass = 0", fillcolor="#e58139"] ;
15 -> 16 ;
17 [label="gini = 0.0\nsamples = 37\nvalue = [0, 37]\nclass = 1", fillcolor="#399de5"] ;
15 -> 17 ;
18 [label="F7 <= -0.598\ngini = 0.48\nsamples = 5\nvalue = [3, 2]\nclass = 0", fillcolor="#f6d5bd"] ;
12 -> 18 ;
19 [label="gini = 0.0\nsamples = 2\nvalue = [0, 2]\nclass = 1", fillcolor="#399de5"] ;
18 -> 19 ;
20 [label="gini = 0.0\nsamples = 3\nvalue = [3, 0]\nclass = 0", fillcolor="#e58139"] ;
18 -> 20 ;
21 [label="AF4 <= -0.021\ngini = 0.475\nsamples = 31\nvalue = [19, 12]\nclass = 0", fillcolor="#f5d1b6"] ;
11 -> 21 ;
22 [label="F4 <= -0.648\ngini = 0.496\nsamples = 22\nvalue = [10, 12]\nclass = 1", fillcolor="#deeffb"] ;
21 -> 22 ;
23 [label="T8 <= -0.486\ngini = 0.444\nsamples = 15\nvalue = [10, 5]\nclass = 0", fillcolor="#f2c09c"] ;
22 -> 23 ;
24 [label="AF4 <= -0.025\ngini = 0.278\nsamples = 12\nvalue = [10, 2]\nclass = 0", fillcolor="#ea9a61"] ;
23 -> 24 ;
25 [label="gini = 0.0\nsamples = 1\nvalue = [0, 1]\nclass = 1", fillcolor="#399de5"] ;
24 -> 25 ;
26 [label="O2 <= -0.023\ngini = 0.165\nsamples = 11\nvalue = [10, 1]\nclass = 0", fillcolor="#e88e4d"] ;
24 -> 26 ;
27 [label="gini = 0.0\nsamples = 9\nvalue = [9, 0]\nclass = 0", fillcolor="#e58139"] ;
26 -> 27 ;
28 [label="F4 <= -0.877\ngini = 0.5\nsamples = 2\nvalue = [1, 1]\nclass = 0", fillcolor="#ffffff"] ;
26 -> 28 ;
29 [label="gini = 0.0\nsamples = 1\nvalue = [1, 0]\nclass = 0", fillcolor="#e58139"] ;
28 -> 29 ;
30 [label="gini = 0.0\nsamples = 1\nvalue = [0, 1]\nclass = 1", fillcolor="#399de5"] ;
28 -> 30 ;
31 [label="gini = 0.0\nsamples = 3\nvalue = [0, 3]\nclass = 1", fillcolor="#399de5"] ;
23 -> 31 ;
32 [label="gini = 0.0\nsamples = 7\nvalue = [0, 7]\nclass = 1", fillcolor="#399de5"] ;
22 -> 32 ;
33 [label="gini = 0.0\nsamples = 9\nvalue = [9, 0]\nclass = 0", fillcolor="#e58139"] ;
21 -> 33 ;
34 [label="F7 <= -1.122\ngini = 0.223\nsamples = 320\nvalue = [279, 41]\nclass = 0", fillcolor="#e99456"] ;
4 -> 34 ;
35 [label="F3 <= -0.437\ngini = 0.375\nsamples = 16\nvalue = [4, 12]\nclass = 1", fillcolor="#7bbeee"] ;
34 -> 35 ;
36 [label="AF4 <= -0.017\ngini = 0.153\nsamples = 12\nvalue = [1, 11]\nclass = 1", fillcolor="#4ba6e7"] ;
35 -> 36 ;
37 [label="gini = 0.0\nsamples = 1\nvalue = [1, 0]\nclass = 0", fillcolor="#e58139"] ;
36 -> 37 ;
38 [label="gini = 0.0\nsamples = 11\nvalue = [0, 11]\nclass = 1", fillcolor="#399de5"] ;
36 -> 38 ;
39 [label="O2 <= 0.336\ngini = 0.375\nsamples = 4\nvalue = [3, 1]\nclass = 0", fillcolor="#eeab7b"] ;
35 -> 39 ;
40 [label="gini = 0.0\nsamples = 3\nvalue = [3, 0]\nclass = 0", fillcolor="#e58139"] ;
39 -> 40 ;
41 [label="gini = 0.0\nsamples = 1\nvalue = [0, 1]\nclass = 1", fillcolor="#399de5"] ;
39 -> 41 ;
42 [label="T8 <= -0.048\ngini = 0.173\nsamples = 304\nvalue = [275, 29]\nclass = 0", fillcolor="#e88e4e"] ;
34 -> 42 ;
43 [label="FC5 <= -0.004\ngini = 0.143\nsamples = 296\nvalue = [273, 23]\nclass = 0", fillcolor="#e78c4a"] ;
42 -> 43 ;
44 [label="T7 <= -0.603\ngini = 0.127\nsamples = 293\nvalue = [273, 20]\nclass = 0", fillcolor="#e78a48"] ;
43 -> 44 ;
45 [label="O1 <= -0.012\ngini = 0.497\nsamples = 13\nvalue = [7, 6]\nclass = 0", fillcolor="#fbede3"] ;
44 -> 45 ;
46 [label="FC5 <= -0.015\ngini = 0.375\nsamples = 8\nvalue = [2, 6]\nclass = 1", fillcolor="#7bbeee"] ;
45 -> 46 ;
47 [label="gini = 0.0\nsamples = 2\nvalue = [2, 0]\nclass = 0", fillcolor="#e58139"] ;
46 -> 47 ;
48 [label="gini = 0.0\nsamples = 6\nvalue = [0, 6]\nclass = 1", fillcolor="#399de5"] ;
46 -> 48 ;
49 [label="gini = 0.0\nsamples = 5\nvalue = [5, 0]\nclass = 0", fillcolor="#e58139"] ;
45 -> 49 ;
50 [label="F7 <= -0.899\ngini = 0.095\nsamples = 280\nvalue = [266, 14]\nclass = 0", fillcolor="#e68843"] ;
44 -> 50 ;
51 [label="F4 <= -0.432\ngini = 0.457\nsamples = 17\nvalue = [11, 6]\nclass = 0", fillcolor="#f3c6a5"] ;
50 -> 51 ;
52 [label="F3 <= -1.072\ngini = 0.278\nsamples = 6\nvalue = [1, 5]\nclass = 1", fillcolor="#61b1ea"] ;
51 -> 52 ;
53 [label="gini = 0.0\nsamples = 1\nvalue = [1, 0]\nclass = 0", fillcolor="#e58139"] ;
52 -> 53 ;
54 [label="gini = 0.0\nsamples = 5\nvalue = [0, 5]\nclass = 1", fillcolor="#399de5"] ;
52 -> 54 ;
55 [label="P8 <= -0.019\ngini = 0.165\nsamples = 11\nvalue = [10, 1]\nclass = 0", fillcolor="#e88e4d"] ;
51 -> 55 ;
56 [label="gini = 0.0\nsamples = 1\nvalue = [0, 1]\nclass = 1", fillcolor="#399de5"] ;
55 -> 56 ;
57 [label="gini = 0.0\nsamples = 10\nvalue = [10, 0]\nclass = 0", fillcolor="#e58139"] ;
55 -> 57 ;
58 [label="FC5 <= -0.008\ngini = 0.059\nsamples = 263\nvalue = [255, 8]\nclass = 0", fillcolor="#e6853f"] ;
50 -> 58 ;
59 [label="F8 <= -0.022\ngini = 0.033\nsamples = 239\nvalue = [235, 4]\nclass = 0", fillcolor="#e5833c"] ;
58 -> 59 ;
60 [label="F7 <= -0.832\ngini = 0.017\nsamples = 232\nvalue = [230, 2]\nclass = 0", fillcolor="#e5823b"] ;
59 -> 60 ;
61 [label="FC5 <= -0.012\ngini = 0.18\nsamples = 10\nvalue = [9, 1]\nclass = 0", fillcolor="#e88f4f"] ;
60 -> 61 ;
62 [label="gini = 0.0\nsamples = 9\nvalue = [9, 0]\nclass = 0", fillcolor="#e58139"] ;
61 -> 62 ;
63 [label="gini = 0.0\nsamples = 1\nvalue = [0, 1]\nclass = 1", fillcolor="#399de5"] ;
61 -> 63 ;
64 [label="P8 <= -0.023\ngini = 0.009\nsamples = 222\nvalue = [221, 1]\nclass = 0", fillcolor="#e5823a"] ;
60 -> 64 ;
65 [label="F4 <= -0.617\ngini = 0.142\nsamples = 13\nvalue = [12, 1]\nclass = 0", fillcolor="#e78c49"] ;
64 -> 65 ;
66 [label="gini = 0.0\nsamples = 12\nvalue = [12, 0]\nclass = 0", fillcolor="#e58139"] ;
65 -> 66 ;
67 [label="gini = 0.0\nsamples = 1\nvalue = [0, 1]\nclass = 1", fillcolor="#399de5"] ;
65 -> 67 ;
68 [label="gini = 0.0\nsamples = 209\nvalue = [209, 0]\nclass = 0", fillcolor="#e58139"] ;
64 -> 68 ;
69 [label="P7 <= -0.012\ngini = 0.408\nsamples = 7\nvalue = [5, 2]\nclass = 0", fillcolor="#efb388"] ;
59 -> 69 ;
70 [label="gini = 0.0\nsamples = 2\nvalue = [0, 2]\nclass = 1", fillcolor="#399de5"] ;
69 -> 70 ;
71 [label="gini = 0.0\nsamples = 5\nvalue = [5, 0]\nclass = 0", fillcolor="#e58139"] ;
69 -> 71 ;
72 [label="O2 <= -0.602\ngini = 0.278\nsamples = 24\nvalue = [20, 4]\nclass = 0", fillcolor="#ea9a61"] ;
58 -> 72 ;
73 [label="F4 <= -0.722\ngini = 0.444\nsamples = 6\nvalue = [2, 4]\nclass = 1", fillcolor="#9ccef2"] ;
72 -> 73 ;
74 [label="gini = 0.0\nsamples = 2\nvalue = [2, 0]\nclass = 0", fillcolor="#e58139"] ;
73 -> 74 ;
75 [label="gini = 0.0\nsamples = 4\nvalue = [0, 4]\nclass = 1", fillcolor="#399de5"] ;
73 -> 75 ;
76 [label="gini = 0.0\nsamples = 18\nvalue = [18, 0]\nclass = 0", fillcolor="#e58139"] ;
72 -> 76 ;
77 [label="gini = 0.0\nsamples = 3\nvalue = [0, 3]\nclass = 1", fillcolor="#399de5"] ;
43 -> 77 ;
78 [label="FC6 <= -0.201\ngini = 0.375\nsamples = 8\nvalue = [2, 6]\nclass = 1", fillcolor="#7bbeee"] ;
42 -> 78 ;
79 [label="gini = 0.0\nsamples = 6\nvalue = [0, 6]\nclass = 1", fillcolor="#399de5"] ;
78 -> 79 ;
80 [label="gini = 0.0\nsamples = 2\nvalue = [2, 0]\nclass = 0", fillcolor="#e58139"] ;
78 -> 80 ;
81 [label="O2 <= -0.364\ngini = 0.117\nsamples = 16\nvalue = [1, 15]\nclass = 1", fillcolor="#46a4e7"] ;
3 -> 81 ;
82 [label="gini = 0.0\nsamples = 15\nvalue = [0, 15]\nclass = 1", fillcolor="#399de5"] ;
81 -> 82 ;
83 [label="gini = 0.0\nsamples = 1\nvalue = [1, 0]\nclass = 0", fillcolor="#e58139"] ;
81 -> 83 ;
84 [label="P7 <= -0.018\ngini = 0.473\nsamples = 5482\nvalue = [2099, 3383]\nclass = 1", fillcolor="#b4daf5"] ;
2 -> 84 ;
85 [label="T8 <= -0.601\ngini = 0.292\nsamples = 276\nvalue = [227, 49]\nclass = 0", fillcolor="#eb9c64"] ;
84 -> 85 ;
86 [label="F4 <= -0.179\ngini = 0.381\nsamples = 39\nvalue = [10, 29]\nclass = 1", fillcolor="#7dbfee"] ;
85 -> 86 ;
87 [label="FC6 <= -1.219\ngini = 0.064\nsamples = 30\nvalue = [1, 29]\nclass = 1", fillcolor="#40a0e6"] ;
86 -> 87 ;
88 [label="gini = 0.0\nsamples = 1\nvalue = [1, 0]\nclass = 0", fillcolor="#e58139"] ;
87 -> 88 ;
89 [label="gini = 0.0\nsamples = 29\nvalue = [0, 29]\nclass = 1", fillcolor="#399de5"] ;
87 -> 89 ;
90 [label="gini = 0.0\nsamples = 9\nvalue = [9, 0]\nclass = 0", fillcolor="#e58139"] ;
86 -> 90 ;
91 [label="F7 <= -1.011\ngini = 0.155\nsamples = 237\nvalue = [217, 20]\nclass = 0", fillcolor="#e78d4b"] ;
85 -> 91 ;
92 [label="gini = 0.0\nsamples = 8\nvalue = [0, 8]\nclass = 1", fillcolor="#399de5"] ;
91 -> 92 ;
93 [label="FC5 <= -0.011\ngini = 0.099\nsamples = 229\nvalue = [217, 12]\nclass = 0", fillcolor="#e68844"] ;
91 -> 93 ;
94 [label="AF4 <= -0.011\ngini = 0.454\nsamples = 23\nvalue = [15, 8]\nclass = 0", fillcolor="#f3c4a3"] ;
93 -> 94 ;
95 [label="gini = 0.0\nsamples = 14\nvalue = [14, 0]\nclass = 0", fillcolor="#e58139"] ;
94 -> 95 ;
96 [label="P7 <= -0.018\ngini = 0.198\nsamples = 9\nvalue = [1, 8]\nclass = 1", fillcolor="#52a9e8"] ;
94 -> 96 ;
97 [label="gini = 0.0\nsamples = 8\nvalue = [0, 8]\nclass = 1", fillcolor="#399de5"] ;
96 -> 97 ;
98 [label="gini = 0.0\nsamples = 1\nvalue = [1, 0]\nclass = 0", fillcolor="#e58139"] ;
96 -> 98 ;
99 [label="O1 <= -0.011\ngini = 0.038\nsamples = 206\nvalue = [202, 4]\nclass = 0", fillcolor="#e6833d"] ;
93 -> 99 ;
100 [label="F3 <= -0.067\ngini = 0.444\nsamples = 12\nvalue = [8, 4]\nclass = 0", fillcolor="#f2c09c"] ;
99 -> 100 ;
101 [label="F4 <= -0.512\ngini = 0.32\nsamples = 5\nvalue = [1, 4]\nclass = 1", fillcolor="#6ab6ec"] ;
100 -> 101 ;
102 [label="gini = 0.0\nsamples = 1\nvalue = [1, 0]\nclass = 0", fillcolor="#e58139"] ;
101 -> 102 ;
103 [label="gini = 0.0\nsamples = 4\nvalue = [0, 4]\nclass = 1", fillcolor="#399de5"] ;
101 -> 103 ;
104 [label="gini = 0.0\nsamples = 7\nvalue = [7, 0]\nclass = 0", fillcolor="#e58139"] ;
100 -> 104 ;
105 [label="gini = 0.0\nsamples = 194\nvalue = [194, 0]\nclass = 0", fillcolor="#e58139"] ;
99 -> 105 ;
106 [label="F7 <= 0.153\ngini = 0.461\nsamples = 5206\nvalue = [1872, 3334]\nclass = 1", fillcolor="#a8d4f4"] ;
84 -> 106 ;
107 [label="F4 <= -0.339\ngini = 0.434\nsamples = 4201\nvalue = [1335, 2866]\nclass = 1", fillcolor="#95cbf1"] ;
106 -> 107 ;
108 [label="O2 <= -0.675\ngini = 0.5\nsamples = 930\nvalue = [471, 459]\nclass = 0", fillcolor="#fefcfa"] ;
107 -> 108 ;
109 [label="T8 <= -0.45\ngini = 0.416\nsamples = 190\nvalue = [56, 134]\nclass = 1", fillcolor="#8cc6f0"] ;
108 -> 109 ;
110 [label="F4 <= -0.679\ngini = 0.301\nsamples = 119\nvalue = [22, 97]\nclass = 1", fillcolor="#66b3eb"] ;
109 -> 110 ;
111 [label="AF3 <= -0.019\ngini = 0.498\nsamples = 15\nvalue = [8, 7]\nclass = 0", fillcolor="#fcefe6"] ;
110 -> 111 ;
112 [label="gini = 0.0\nsamples = 8\nvalue = [8, 0]\nclass = 0", fillcolor="#e58139"] ;
111 -> 112 ;
113 [label="gini = 0.0\nsamples = 7\nvalue = [0, 7]\nclass = 1", fillcolor="#399de5"] ;
111 -> 113 ;
114 [label="FC6 <= -1.341\ngini = 0.233\nsamples = 104\nvalue = [14, 90]\nclass = 1", fillcolor="#58ace9"] ;
110 -> 114 ;
115 [label="gini = 0.0\nsamples = 3\nvalue = [3, 0]\nclass = 0", fillcolor="#e58139"] ;
114 -> 115 ;
116 [label="P7 <= -0.011\ngini = 0.194\nsamples = 101\nvalue = [11, 90]\nclass = 1", fillcolor="#51a9e8"] ;
114 -> 116 ;
117 [label="FC5 <= -0.016\ngini = 0.11\nsamples = 86\nvalue = [5, 81]\nclass = 1", fillcolor="#45a3e7"] ;
116 -> 117 ;
118 [label="gini = 0.0\nsamples = 1\nvalue = [1, 0]\nclass = 0", fillcolor="#e58139"] ;
117 -> 118 ;
119 [label="FC6 <= -0.058\ngini = 0.09\nsamples = 85\nvalue = [4, 81]\nclass = 1", fillcolor="#43a2e6"] ;
117 -> 119 ;
120 [label="FC6 <= -0.228\ngini = 0.069\nsamples = 84\nvalue = [3, 81]\nclass = 1", fillcolor="#40a1e6"] ;
119 -> 120 ;
121 [label="F7 <= -0.497\ngini = 0.048\nsamples = 81\nvalue = [2, 79]\nclass = 1", fillcolor="#3e9fe6"] ;
120 -> 121 ;
122 [label="F3 <= -0.431\ngini = 0.219\nsamples = 16\nvalue = [2, 14]\nclass = 1", fillcolor="#55abe9"] ;
121 -> 122 ;
123 [label="gini = 0.0\nsamples = 14\nvalue = [0, 14]\nclass = 1", fillcolor="#399de5"] ;
122 -> 123 ;
124 [label="gini = 0.0\nsamples = 2\nvalue = [2, 0]\nclass = 0", fillcolor="#e58139"] ;
122 -> 124 ;
125 [label="gini = 0.0\nsamples = 65\nvalue = [0, 65]\nclass = 1", fillcolor="#399de5"] ;
121 -> 125 ;
126 [label="P8 <= -0.02\ngini = 0.444\nsamples = 3\nvalue = [1, 2]\nclass = 1", fillcolor="#9ccef2"] ;
120 -> 126 ;
127 [label="gini = 0.0\nsamples = 2\nvalue = [0, 2]\nclass = 1", fillcolor="#399de5"] ;
126 -> 127 ;
128 [label="gini = 0.0\nsamples = 1\nvalue = [1, 0]\nclass = 0", fillcolor="#e58139"] ;
126 -> 128 ;
129 [label="gini = 0.0\nsamples = 1\nvalue = [1, 0]\nclass = 0", fillcolor="#e58139"] ;
119 -> 129 ;
130 [label="F8 <= -0.018\ngini = 0.48\nsamples = 15\nvalue = [6, 9]\nclass = 1", fillcolor="#bddef6"] ;
116 -> 130 ;
131 [label="FC6 <= -0.791\ngini = 0.375\nsamples = 8\nvalue = [6, 2]\nclass = 0", fillcolor="#eeab7b"] ;
130 -> 131 ;
132 [label="gini = 0.0\nsamples = 2\nvalue = [0, 2]\nclass = 1", fillcolor="#399de5"] ;
131 -> 132 ;
133 [label="gini = 0.0\nsamples = 6\nvalue = [6, 0]\nclass = 0", fillcolor="#e58139"] ;
131 -> 133 ;
134 [label="gini = 0.0\nsamples = 7\nvalue = [0, 7]\nclass = 1", fillcolor="#399de5"] ;
130 -> 134 ;
135 [label="F8 <= -0.018\ngini = 0.499\nsamples = 71\nvalue = [34, 37]\nclass = 1", fillcolor="#eff7fd"] ;
109 -> 135 ;
136 [label="O1 <= -0.012\ngini = 0.32\nsamples = 30\nvalue = [24, 6]\nclass = 0", fillcolor="#eca06a"] ;
135 -> 136 ;
137 [label="gini = 0.0\nsamples = 21\nvalue = [21, 0]\nclass = 0", fillcolor="#e58139"] ;
136 -> 137 ;
138 [label="FC5 <= -0.01\ngini = 0.444\nsamples = 9\nvalue = [3, 6]\nclass = 1", fillcolor="#9ccef2"] ;
136 -> 138 ;
139 [label="gini = 0.0\nsamples = 6\nvalue = [0, 6]\nclass = 1", fillcolor="#399de5"] ;
138 -> 139 ;
140 [label="gini = 0.0\nsamples = 3\nvalue = [3, 0]\nclass = 0", fillcolor="#e58139"] ;
138 -> 140 ;
141 [label="AF3 <= -0.016\ngini = 0.369\nsamples = 41\nvalue = [10, 31]\nclass = 1", fillcolor="#79bded"] ;
135 -> 141 ;
142 [label="gini = 0.0\nsamples = 28\nvalue = [0, 28]\nclass = 1", fillcolor="#399de5"] ;
141 -> 142 ;
143 [label="F7 <= -0.071\ngini = 0.355\nsamples = 13\nvalue = [10, 3]\nclass = 0", fillcolor="#eda774"] ;
141 -> 143 ;
144 [label="gini = 0.0\nsamples = 10\nvalue = [10, 0]\nclass = 0", fillcolor="#e58139"] ;
143 -> 144 ;
145 [label="gini = 0.0\nsamples = 3\nvalue = [0, 3]\nclass = 1", fillcolor="#399de5"] ;
143 -> 145 ;
146 [label="F3 <= -0.039\ngini = 0.493\nsamples = 740\nvalue = [415, 325]\nclass = 0", fillcolor="#f9e4d4"] ;
108 -> 146 ;
147 [label="AF3 <= -0.015\ngini = 0.498\nsamples = 653\nvalue = [345, 308]\nclass = 0", fillcolor="#fcf1ea"] ;
146 -> 147 ;
148 [label="F8 <= -0.009\ngini = 0.486\nsamples = 512\nvalue = [299, 213]\nclass = 0", fillcolor="#f8dbc6"] ;
147 -> 148 ;
149 [label="P8 <= -0.005\ngini = 0.474\nsamples = 471\nvalue = [289, 182]\nclass = 0", fillcolor="#f5d0b6"] ;
148 -> 149 ;
150 [label="O1 <= -0.008\ngini = 0.464\nsamples = 456\nvalue = [289, 167]\nclass = 0", fillcolor="#f4caab"] ;
149 -> 150 ;
151 [label="F8 <= -0.027\ngini = 0.442\nsamples = 407\nvalue = [273, 134]\nclass = 0", fillcolor="#f2bf9a"] ;
150 -> 151 ;
152 [label="AF3 <= -0.019\ngini = 0.498\nsamples = 134\nvalue = [71, 63]\nclass = 0", fillcolor="#fcf1e9"] ;
151 -> 152 ;
153 [label="O2 <= 0.1\ngini = 0.428\nsamples = 87\nvalue = [60, 27]\nclass = 0", fillcolor="#f1ba92"] ;
152 -> 153 ;
154 [label="T7 <= -0.692\ngini = 0.393\nsamples = 82\nvalue = [60, 22]\nclass = 0", fillcolor="#efaf82"] ;
153 -> 154 ;
155 [label="gini = 0.0\nsamples = 4\nvalue = [0, 4]\nclass = 1", fillcolor="#399de5"] ;
154 -> 155 ;
156 [label="F4 <= -0.395\ngini = 0.355\nsamples = 78\nvalue = [60, 18]\nclass = 0", fillcolor="#eda774"] ;
154 -> 156 ;
157 [label="P7 <= -0.009\ngini = 0.294\nsamples = 67\nvalue = [55, 12]\nclass = 0", fillcolor="#eb9c64"] ;
156 -> 157 ;
158 [label="F4 <= -0.58\ngini = 0.26\nsamples = 65\nvalue = [55, 10]\nclass = 0", fillcolor="#ea985d"] ;
157 -> 158 ;
159 [label="F7 <= -0.687\ngini = 0.426\nsamples = 26\nvalue = [18, 8]\nclass = 0", fillcolor="#f1b991"] ;
158 -> 159 ;
160 [label="gini = 0.0\nsamples = 12\nvalue = [12, 0]\nclass = 0", fillcolor="#e58139"] ;
159 -> 160 ;
161 [label="T8 <= -0.742\ngini = 0.49\nsamples = 14\nvalue = [6, 8]\nclass = 1", fillcolor="#cee6f8"] ;
159 -> 161 ;
162 [label="gini = 0.0\nsamples = 5\nvalue = [5, 0]\nclass = 0", fillcolor="#e58139"] ;
161 -> 162 ;
163 [label="O2 <= 0.047\ngini = 0.198\nsamples = 9\nvalue = [1, 8]\nclass = 1", fillcolor="#52a9e8"] ;
161 -> 163 ;
164 [label="gini = 0.0\nsamples = 8\nvalue = [0, 8]\nclass = 1", fillcolor="#399de5"] ;
163 -> 164 ;
165 [label="gini = 0.0\nsamples = 1\nvalue = [1, 0]\nclass = 0", fillcolor="#e58139"] ;
163 -> 165 ;
166 [label="FC6 <= -0.174\ngini = 0.097\nsamples = 39\nvalue = [37, 2]\nclass = 0", fillcolor="#e68844"] ;
158 -> 166 ;
167 [label="gini = 0.0\nsamples = 35\nvalue = [35, 0]\nclass = 0", fillcolor="#e58139"] ;
166 -> 167 ;
168 [label="O1 <= -0.013\ngini = 0.5\nsamples = 4\nvalue = [2, 2]\nclass = 0", fillcolor="#ffffff"] ;
166 -> 168 ;
169 [label="gini = 0.0\nsamples = 2\nvalue = [2, 0]\nclass = 0", fillcolor="#e58139"] ;
168 -> 169 ;
170 [label="gini = 0.0\nsamples = 2\nvalue = [0, 2]\nclass = 1", fillcolor="#399de5"] ;
168 -> 170 ;
171 [label="gini = 0.0\nsamples = 2\nvalue = [0, 2]\nclass = 1", fillcolor="#399de5"] ;
157 -> 171 ;
172 [label="T7 <= -0.486\ngini = 0.496\nsamples = 11\nvalue = [5, 6]\nclass = 1", fillcolor="#deeffb"] ;
156 -> 172 ;
173 [label="gini = 0.0\nsamples = 5\nvalue = [0, 5]\nclass = 1", fillcolor="#399de5"] ;
172 -> 173 ;
174 [label="FC6 <= -0.113\ngini = 0.278\nsamples = 6\nvalue = [5, 1]\nclass = 0", fillcolor="#ea9a61"] ;
172 -> 174 ;
175 [label="gini = 0.0\nsamples = 5\nvalue = [5, 0]\nclass = 0", fillcolor="#e58139"] ;
174 -> 175 ;
176 [label="gini = 0.0\nsamples = 1\nvalue = [0, 1]\nclass = 1", fillcolor="#399de5"] ;
174 -> 176 ;
177 [label="gini = 0.0\nsamples = 5\nvalue = [0, 5]\nclass = 1", fillcolor="#399de5"] ;
153 -> 177 ;
178 [label="F3 <= -0.212\ngini = 0.359\nsamples = 47\nvalue = [11, 36]\nclass = 1", fillcolor="#76bbed"] ;
152 -> 178 ;
179 [label="FC5 <= -0.009\ngini = 0.224\nsamples = 39\nvalue = [5, 34]\nclass = 1", fillcolor="#56abe9"] ;
178 -> 179 ;
180 [label="F3 <= -0.691\ngini = 0.153\nsamples = 36\nvalue = [3, 33]\nclass = 1", fillcolor="#4ba6e7"] ;
179 -> 180 ;
181 [label="gini = 0.0\nsamples = 1\nvalue = [1, 0]\nclass = 0", fillcolor="#e58139"] ;
180 -> 181 ;
182 [label="P7 <= -0.01\ngini = 0.108\nsamples = 35\nvalue = [2, 33]\nclass = 1", fillcolor="#45a3e7"] ;
180 -> 182 ;
183 [label="O1 <= -0.014\ngini = 0.057\nsamples = 34\nvalue = [1, 33]\nclass = 1", fillcolor="#3fa0e6"] ;
182 -> 183 ;
184 [label="F4 <= -0.494\ngini = 0.5\nsamples = 2\nvalue = [1, 1]\nclass = 0", fillcolor="#ffffff"] ;
183 -> 184 ;
185 [label="gini = 0.0\nsamples = 1\nvalue = [0, 1]\nclass = 1", fillcolor="#399de5"] ;
184 -> 185 ;
186 [label="gini = 0.0\nsamples = 1\nvalue = [1, 0]\nclass = 0", fillcolor="#e58139"] ;
184 -> 186 ;
187 [label="gini = 0.0\nsamples = 32\nvalue = [0, 32]\nclass = 1", fillcolor="#399de5"] ;
183 -> 187 ;
188 [label="gini = 0.0\nsamples = 1\nvalue = [1, 0]\nclass = 0", fillcolor="#e58139"] ;
182 -> 188 ;
189 [label="AF3 <= -0.018\ngini = 0.444\nsamples = 3\nvalue = [2, 1]\nclass = 0", fillcolor="#f2c09c"] ;
179 -> 189 ;
190 [label="gini = 0.0\nsamples = 1\nvalue = [0, 1]\nclass = 1", fillcolor="#399de5"] ;
189 -> 190 ;
191 [label="gini = 0.0\nsamples = 2\nvalue = [2, 0]\nclass = 0", fillcolor="#e58139"] ;
189 -> 191 ;
192 [label="F4 <= -0.407\ngini = 0.375\nsamples = 8\nvalue = [6, 2]\nclass = 0", fillcolor="#eeab7b"] ;
178 -> 192 ;
193 [label="gini = 0.0\nsamples = 6\nvalue = [6, 0]\nclass = 0", fillcolor="#e58139"] ;
192 -> 193 ;
194 [label="gini = 0.0\nsamples = 2\nvalue = [0, 2]\nclass = 1", fillcolor="#399de5"] ;
192 -> 194 ;
195 [label="F3 <= -0.437\ngini = 0.385\nsamples = 273\nvalue = [202, 71]\nclass = 0", fillcolor="#eead7f"] ;
151 -> 195 ;
196 [label="F7 <= -0.09\ngini = 0.496\nsamples = 68\nvalue = [37, 31]\nclass = 0", fillcolor="#fbebdf"] ;
195 -> 196 ;
197 [label="AF4 <= -0.013\ngini = 0.454\nsamples = 46\nvalue = [16, 30]\nclass = 1", fillcolor="#a3d1f3"] ;
196 -> 197 ;
198 [label="FC5 <= -0.01\ngini = 0.305\nsamples = 32\nvalue = [6, 26]\nclass = 1", fillcolor="#67b4eb"] ;
197 -> 198 ;
199 [label="AF4 <= -0.015\ngini = 0.185\nsamples = 29\nvalue = [3, 26]\nclass = 1", fillcolor="#50a8e8"] ;
198 -> 199 ;
200 [label="gini = 0.0\nsamples = 1\nvalue = [1, 0]\nclass = 0", fillcolor="#e58139"] ;
199 -> 200 ;
201 [label="T7 <= -0.692\ngini = 0.133\nsamples = 28\nvalue = [2, 26]\nclass = 1", fillcolor="#48a5e7"] ;
199 -> 201 ;
202 [label="gini = 0.0\nsamples = 1\nvalue = [1, 0]\nclass = 0", fillcolor="#e58139"] ;
201 -> 202 ;
203 [label="FC6 <= -0.052\ngini = 0.071\nsamples = 27\nvalue = [1, 26]\nclass = 1", fillcolor="#41a1e6"] ;
201 -> 203 ;
204 [label="gini = 0.0\nsamples = 25\nvalue = [0, 25]\nclass = 1", fillcolor="#399de5"] ;
203 -> 204 ;
205 [label="O1 <= -0.012\ngini = 0.5\nsamples = 2\nvalue = [1, 1]\nclass = 0", fillcolor="#ffffff"] ;
203 -> 205 ;
206 [label="gini = 0.0\nsamples = 1\nvalue = [1, 0]\nclass = 0", fillcolor="#e58139"] ;
205 -> 206 ;
207 [label="gini = 0.0\nsamples = 1\nvalue = [0, 1]\nclass = 1", fillcolor="#399de5"] ;
205 -> 207 ;
208 [label="gini = 0.0\nsamples = 3\nvalue = [3, 0]\nclass = 0", fillcolor="#e58139"] ;
198 -> 208 ;
209 [label="T7 <= -0.279\ngini = 0.408\nsamples = 14\nvalue = [10, 4]\nclass = 0", fillcolor="#efb388"] ;
197 -> 209 ;
210 [label="gini = 0.0\nsamples = 9\nvalue = [9, 0]\nclass = 0", fillcolor="#e58139"] ;
209 -> 210 ;
211 [label="FC6 <= -0.187\ngini = 0.32\nsamples = 5\nvalue = [1, 4]\nclass = 1", fillcolor="#6ab6ec"] ;
209 -> 211 ;
212 [label="gini = 0.0\nsamples = 4\nvalue = [0, 4]\nclass = 1", fillcolor="#399de5"] ;
211 -> 212 ;
213 [label="gini = 0.0\nsamples = 1\nvalue = [1, 0]\nclass = 0", fillcolor="#e58139"] ;
211 -> 213 ;
214 [label="FC6 <= -0.472\ngini = 0.087\nsamples = 22\nvalue = [21, 1]\nclass = 0", fillcolor="#e68742"] ;
196 -> 214 ;
215 [label="gini = 0.0\nsamples = 1\nvalue = [0, 1]\nclass = 1", fillcolor="#399de5"] ;
214 -> 215 ;
216 [label="gini = 0.0\nsamples = 21\nvalue = [21, 0]\nclass = 0", fillcolor="#e58139"] ;
214 -> 216 ;
217 [label="P7 <= -0.013\ngini = 0.314\nsamples = 205\nvalue = [165, 40]\nclass = 0", fillcolor="#eba069"] ;
195 -> 217 ;
218 [label="gini = 0.0\nsamples = 52\nvalue = [52, 0]\nclass = 0", fillcolor="#e58139"] ;
217 -> 218 ;
219 [label="P7 <= -0.01\ngini = 0.386\nsamples = 153\nvalue = [113, 40]\nclass = 0", fillcolor="#eeae7f"] ;
217 -> 219 ;
220 [label="AF3 <= -0.018\ngini = 0.485\nsamples = 70\nvalue = [41, 29]\nclass = 0", fillcolor="#f7dac5"] ;
219 -> 220 ;
221 [label="O2 <= -0.452\ngini = 0.271\nsamples = 31\nvalue = [26, 5]\nclass = 0", fillcolor="#ea995f"] ;
220 -> 221 ;
222 [label="O2 <= -0.618\ngini = 0.375\nsamples = 4\nvalue = [1, 3]\nclass = 1", fillcolor="#7bbeee"] ;
221 -> 222 ;
223 [label="gini = 0.0\nsamples = 1\nvalue = [1, 0]\nclass = 0", fillcolor="#e58139"] ;
222 -> 223 ;
224 [label="gini = 0.0\nsamples = 3\nvalue = [0, 3]\nclass = 1", fillcolor="#399de5"] ;
222 -> 224 ;
225 [label="FC6 <= -0.085\ngini = 0.137\nsamples = 27\nvalue = [25, 2]\nclass = 0", fillcolor="#e78b49"] ;
221 -> 225 ;
226 [label="P8 <= -0.006\ngini = 0.074\nsamples = 26\nvalue = [25, 1]\nclass = 0", fillcolor="#e68641"] ;
225 -> 226 ;
227 [label="gini = 0.0\nsamples = 25\nvalue = [25, 0]\nclass = 0", fillcolor="#e58139"] ;
226 -> 227 ;
228 [label="gini = 0.0\nsamples = 1\nvalue = [0, 1]\nclass = 1", fillcolor="#399de5"] ;
226 -> 228 ;
229 [label="gini = 0.0\nsamples = 1\nvalue = [0, 1]\nclass = 1", fillcolor="#399de5"] ;
225 -> 229 ;
230 [label="T8 <= -0.493\ngini = 0.473\nsamples = 39\nvalue = [15, 24]\nclass = 1", fillcolor="#b5daf5"] ;
220 -> 230 ;
231 [label="F8 <= -0.024\ngini = 0.198\nsamples = 9\nvalue = [8, 1]\nclass = 0", fillcolor="#e89152"] ;
230 -> 231 ;
232 [label="gini = 0.0\nsamples = 1\nvalue = [0, 1]\nclass = 1", fillcolor="#399de5"] ;
231 -> 232 ;
233 [label="gini = 0.0\nsamples = 8\nvalue = [8, 0]\nclass = 0", fillcolor="#e58139"] ;
231 -> 233 ;
234 [label="F3 <= -0.313\ngini = 0.358\nsamples = 30\nvalue = [7, 23]\nclass = 1", fillcolor="#75bbed"] ;
230 -> 234 ;
235 [label="FC5 <= -0.008\ngini = 0.095\nsamples = 20\nvalue = [1, 19]\nclass = 1", fillcolor="#43a2e6"] ;
234 -> 235 ;
236 [label="gini = 0.0\nsamples = 19\nvalue = [0, 19]\nclass = 1", fillcolor="#399de5"] ;
235 -> 236 ;
237 [label="gini = 0.0\nsamples = 1\nvalue = [1, 0]\nclass = 0", fillcolor="#e58139"] ;
235 -> 237 ;
238 [label="F7 <= -0.391\ngini = 0.48\nsamples = 10\nvalue = [6, 4]\nclass = 0", fillcolor="#f6d5bd"] ;
234 -> 238 ;
239 [label="gini = 0.0\nsamples = 5\nvalue = [5, 0]\nclass = 0", fillcolor="#e58139"] ;
238 -> 239 ;
240 [label="AF4 <= -0.014\ngini = 0.32\nsamples = 5\nvalue = [1, 4]\nclass = 1", fillcolor="#6ab6ec"] ;
238 -> 240 ;
241 [label="gini = 0.0\nsamples = 1\nvalue = [1, 0]\nclass = 0", fillcolor="#e58139"] ;
240 -> 241 ;
242 [label="gini = 0.0\nsamples = 4\nvalue = [0, 4]\nclass = 1", fillcolor="#399de5"] ;
240 -> 242 ;
243 [label="T7 <= 0.134\ngini = 0.23\nsamples = 83\nvalue = [72, 11]\nclass = 0", fillcolor="#e99457"] ;
219 -> 243 ;
244 [label="AF4 <= -0.014\ngini = 0.18\nsamples = 80\nvalue = [72, 8]\nclass = 0", fillcolor="#e88f4f"] ;
243 -> 244 ;
245 [label="FC6 <= -0.364\ngini = 0.494\nsamples = 9\nvalue = [5, 4]\nclass = 0", fillcolor="#fae6d7"] ;
244 -> 245 ;
246 [label="gini = 0.0\nsamples = 4\nvalue = [0, 4]\nclass = 1", fillcolor="#399de5"] ;
245 -> 246 ;
247 [label="gini = 0.0\nsamples = 5\nvalue = [5, 0]\nclass = 0", fillcolor="#e58139"] ;
245 -> 247 ;
248 [label="T8 <= -0.668\ngini = 0.106\nsamples = 71\nvalue = [67, 4]\nclass = 0", fillcolor="#e78945"] ;
244 -> 248 ;
249 [label="gini = 0.0\nsamples = 1\nvalue = [0, 1]\nclass = 1", fillcolor="#399de5"] ;
248 -> 249 ;
250 [label="T7 <= -0.56\ngini = 0.082\nsamples = 70\nvalue = [67, 3]\nclass = 0", fillcolor="#e68742"] ;
248 -> 250 ;
251 [label="T7 <= -0.641\ngini = 0.5\nsamples = 2\nvalue = [1, 1]\nclass = 0", fillcolor="#ffffff"] ;
250 -> 251 ;
252 [label="gini = 0.0\nsamples = 1\nvalue = [1, 0]\nclass = 0", fillcolor="#e58139"] ;
251 -> 252 ;
253 [label="gini = 0.0\nsamples = 1\nvalue = [0, 1]\nclass = 1", fillcolor="#399de5"] ;
251 -> 253 ;
254 [label="F8 <= -0.01\ngini = 0.057\nsamples = 68\nvalue = [66, 2]\nclass = 0", fillcolor="#e6853f"] ;
250 -> 254 ;
255 [label="FC5 <= -0.013\ngini = 0.03\nsamples = 65\nvalue = [64, 1]\nclass = 0", fillcolor="#e5833c"] ;
254 -> 255 ;
256 [label="P8 <= -0.015\ngini = 0.32\nsamples = 5\nvalue = [4, 1]\nclass = 0", fillcolor="#eca06a"] ;
255 -> 256 ;
257 [label="gini = 0.0\nsamples = 1\nvalue = [0, 1]\nclass = 1", fillcolor="#399de5"] ;
256 -> 257 ;
258 [label="gini = 0.0\nsamples = 4\nvalue = [4, 0]\nclass = 0", fillcolor="#e58139"] ;
256 -> 258 ;
259 [label="gini = 0.0\nsamples = 60\nvalue = [60, 0]\nclass = 0", fillcolor="#e58139"] ;
255 -> 259 ;
260 [label="F7 <= -0.162\ngini = 0.444\nsamples = 3\nvalue = [2, 1]\nclass = 0", fillcolor="#f2c09c"] ;
254 -> 260 ;
261 [label="gini = 0.0\nsamples = 2\nvalue = [2, 0]\nclass = 0", fillcolor="#e58139"] ;
260 -> 261 ;
262 [label="gini = 0.0\nsamples = 1\nvalue = [0, 1]\nclass = 1", fillcolor="#399de5"] ;
260 -> 262 ;
263 [label="gini = 0.0\nsamples = 3\nvalue = [0, 3]\nclass = 1", fillcolor="#399de5"] ;
243 -> 263 ;
264 [label="F7 <= -0.648\ngini = 0.44\nsamples = 49\nvalue = [16, 33]\nclass = 1", fillcolor="#99cdf2"] ;
150 -> 264 ;
265 [label="O2 <= -0.452\ngini = 0.175\nsamples = 31\nvalue = [3, 28]\nclass = 1", fillcolor="#4ea8e8"] ;
264 -> 265 ;
266 [label="AF4 <= -0.014\ngini = 0.5\nsamples = 6\nvalue = [3, 3]\nclass = 0", fillcolor="#ffffff"] ;
265 -> 266 ;
267 [label="gini = 0.0\nsamples = 3\nvalue = [3, 0]\nclass = 0", fillcolor="#e58139"] ;
266 -> 267 ;
268 [label="gini = 0.0\nsamples = 3\nvalue = [0, 3]\nclass = 1", fillcolor="#399de5"] ;
266 -> 268 ;
269 [label="gini = 0.0\nsamples = 25\nvalue = [0, 25]\nclass = 1", fillcolor="#399de5"] ;
265 -> 269 ;
270 [label="FC6 <= -0.811\ngini = 0.401\nsamples = 18\nvalue = [13, 5]\nclass = 0", fillcolor="#efb185"] ;
264 -> 270 ;
271 [label="gini = 0.0\nsamples = 2\nvalue = [0, 2]\nclass = 1", fillcolor="#399de5"] ;
270 -> 271 ;
272 [label="O2 <= -0.496\ngini = 0.305\nsamples = 16\nvalue = [13, 3]\nclass = 0", fillcolor="#eb9e67"] ;
270 -> 272 ;
273 [label="gini = 0.0\nsamples = 2\nvalue = [0, 2]\nclass = 1", fillcolor="#399de5"] ;
272 -> 273 ;
274 [label="AF4 <= -0.011\ngini = 0.133\nsamples = 14\nvalue = [13, 1]\nclass = 0", fillcolor="#e78b48"] ;
272 -> 274 ;
275 [label="gini = 0.0\nsamples = 13\nvalue = [13, 0]\nclass = 0", fillcolor="#e58139"] ;
274 -> 275 ;
276 [label="gini = 0.0\nsamples = 1\nvalue = [0, 1]\nclass = 1", fillcolor="#399de5"] ;
274 -> 276 ;
277 [label="gini = 0.0\nsamples = 15\nvalue = [0, 15]\nclass = 1", fillcolor="#399de5"] ;
149 -> 277 ;
278 [label="FC5 <= -0.012\ngini = 0.369\nsamples = 41\nvalue = [10, 31]\nclass = 1", fillcolor="#79bded"] ;
148 -> 278 ;
279 [label="FC6 <= -0.18\ngini = 0.426\nsamples = 13\nvalue = [9, 4]\nclass = 0", fillcolor="#f1b991"] ;
278 -> 279 ;
280 [label="AF4 <= -0.013\ngini = 0.444\nsamples = 6\nvalue = [2, 4]\nclass = 1", fillcolor="#9ccef2"] ;
279 -> 280 ;
281 [label="gini = 0.0\nsamples = 3\nvalue = [0, 3]\nclass = 1", fillcolor="#399de5"] ;
280 -> 281 ;
282 [label="P7 <= -0.01\ngini = 0.444\nsamples = 3\nvalue = [2, 1]\nclass = 0", fillcolor="#f2c09c"] ;
280 -> 282 ;
283 [label="gini = 0.0\nsamples = 2\nvalue = [2, 0]\nclass = 0", fillcolor="#e58139"] ;
282 -> 283 ;
284 [label="gini = 0.0\nsamples = 1\nvalue = [0, 1]\nclass = 1", fillcolor="#399de5"] ;
282 -> 284 ;
285 [label="gini = 0.0\nsamples = 7\nvalue = [7, 0]\nclass = 0", fillcolor="#e58139"] ;
279 -> 285 ;
286 [label="AF3 <= -0.015\ngini = 0.069\nsamples = 28\nvalue = [1, 27]\nclass = 1", fillcolor="#40a1e6"] ;
278 -> 286 ;
287 [label="gini = 0.0\nsamples = 27\nvalue = [0, 27]\nclass = 1", fillcolor="#399de5"] ;
286 -> 287 ;
288 [label="gini = 0.0\nsamples = 1\nvalue = [1, 0]\nclass = 0", fillcolor="#e58139"] ;
286 -> 288 ;
289 [label="F8 <= -0.023\ngini = 0.44\nsamples = 141\nvalue = [46, 95]\nclass = 1", fillcolor="#99ccf2"] ;
147 -> 289 ;
290 [label="F7 <= 0.011\ngini = 0.131\nsamples = 57\nvalue = [4, 53]\nclass = 1", fillcolor="#48a4e7"] ;
289 -> 290 ;
291 [label="T8 <= -0.096\ngini = 0.038\nsamples = 51\nvalue = [1, 50]\nclass = 1", fillcolor="#3d9fe6"] ;
290 -> 291 ;
292 [label="gini = 0.0\nsamples = 44\nvalue = [0, 44]\nclass = 1", fillcolor="#399de5"] ;
291 -> 292 ;
293 [label="FC5 <= -0.012\ngini = 0.245\nsamples = 7\nvalue = [1, 6]\nclass = 1", fillcolor="#5aade9"] ;
291 -> 293 ;
294 [label="gini = 0.0\nsamples = 6\nvalue = [0, 6]\nclass = 1", fillcolor="#399de5"] ;
293 -> 294 ;
295 [label="gini = 0.0\nsamples = 1\nvalue = [1, 0]\nclass = 0", fillcolor="#e58139"] ;
293 -> 295 ;
296 [label="FC5 <= -0.01\ngini = 0.5\nsamples = 6\nvalue = [3, 3]\nclass = 0", fillcolor="#ffffff"] ;
290 -> 296 ;
297 [label="gini = 0.0\nsamples = 3\nvalue = [3, 0]\nclass = 0", fillcolor="#e58139"] ;
296 -> 297 ;
298 [label="gini = 0.0\nsamples = 3\nvalue = [0, 3]\nclass = 1", fillcolor="#399de5"] ;
296 -> 298 ;
299 [label="F7 <= -0.296\ngini = 0.5\nsamples = 84\nvalue = [42, 42]\nclass = 0", fillcolor="#ffffff"] ;
289 -> 299 ;
300 [label="FC5 <= -0.012\ngini = 0.405\nsamples = 39\nvalue = [28, 11]\nclass = 0", fillcolor="#efb287"] ;
299 -> 300 ;
301 [label="F7 <= -0.575\ngini = 0.463\nsamples = 11\nvalue = [4, 7]\nclass = 1", fillcolor="#aad5f4"] ;
300 -> 301 ;
302 [label="F7 <= -1.055\ngini = 0.32\nsamples = 5\nvalue = [4, 1]\nclass = 0", fillcolor="#eca06a"] ;
301 -> 302 ;
303 [label="gini = 0.0\nsamples = 1\nvalue = [0, 1]\nclass = 1", fillcolor="#399de5"] ;
302 -> 303 ;
304 [label="gini = 0.0\nsamples = 4\nvalue = [4, 0]\nclass = 0", fillcolor="#e58139"] ;
302 -> 304 ;
305 [label="gini = 0.0\nsamples = 6\nvalue = [0, 6]\nclass = 1", fillcolor="#399de5"] ;
301 -> 305 ;
306 [label="F8 <= -0.023\ngini = 0.245\nsamples = 28\nvalue = [24, 4]\nclass = 0", fillcolor="#e9965a"] ;
300 -> 306 ;
307 [label="gini = 0.0\nsamples = 2\nvalue = [0, 2]\nclass = 1", fillcolor="#399de5"] ;
306 -> 307 ;
308 [label="FC6 <= -0.486\ngini = 0.142\nsamples = 26\nvalue = [24, 2]\nclass = 0", fillcolor="#e78c49"] ;
306 -> 308 ;
309 [label="FC5 <= -0.01\ngini = 0.408\nsamples = 7\nvalue = [5, 2]\nclass = 0", fillcolor="#efb388"] ;
308 -> 309 ;
310 [label="gini = 0.0\nsamples = 5\nvalue = [5, 0]\nclass = 0", fillcolor="#e58139"] ;
309 -> 310 ;
311 [label="gini = 0.0\nsamples = 2\nvalue = [0, 2]\nclass = 1", fillcolor="#399de5"] ;
309 -> 311 ;
312 [label="gini = 0.0\nsamples = 19\nvalue = [19, 0]\nclass = 0", fillcolor="#e58139"] ;
308 -> 312 ;
313 [label="F7 <= 0.065\ngini = 0.429\nsamples = 45\nvalue = [14, 31]\nclass = 1", fillcolor="#92c9f1"] ;
299 -> 313 ;
314 [label="P7 <= -0.015\ngini = 0.355\nsamples = 39\nvalue = [9, 30]\nclass = 1", fillcolor="#74baed"] ;
313 -> 314 ;
315 [label="gini = 0.0\nsamples = 3\nvalue = [3, 0]\nclass = 0", fillcolor="#e58139"] ;
314 -> 315 ;
316 [label="F8 <= -0.022\ngini = 0.278\nsamples = 36\nvalue = [6, 30]\nclass = 1", fillcolor="#61b1ea"] ;
314 -> 316 ;
317 [label="gini = 0.0\nsamples = 2\nvalue = [2, 0]\nclass = 0", fillcolor="#e58139"] ;
316 -> 317 ;
318 [label="T8 <= 0.248\ngini = 0.208\nsamples = 34\nvalue = [4, 30]\nclass = 1", fillcolor="#53aae8"] ;
316 -> 318 ;
319 [label="F3 <= -0.114\ngini = 0.165\nsamples = 33\nvalue = [3, 30]\nclass = 1", fillcolor="#4da7e8"] ;
318 -> 319 ;
320 [label="gini = 0.0\nsamples = 23\nvalue = [0, 23]\nclass = 1", fillcolor="#399de5"] ;
319 -> 320 ;
321 [label="FC6 <= -0.262\ngini = 0.42\nsamples = 10\nvalue = [3, 7]\nclass = 1", fillcolor="#8ec7f0"] ;
319 -> 321 ;
322 [label="gini = 0.0\nsamples = 6\nvalue = [0, 6]\nclass = 1", fillcolor="#399de5"] ;
321 -> 322 ;
323 [label="FC6 <= -0.052\ngini = 0.375\nsamples = 4\nvalue = [3, 1]\nclass = 0", fillcolor="#eeab7b"] ;
321 -> 323 ;
324 [label="gini = 0.0\nsamples = 3\nvalue = [3, 0]\nclass = 0", fillcolor="#e58139"] ;
323 -> 324 ;
325 [label="gini = 0.0\nsamples = 1\nvalue = [0, 1]\nclass = 1", fillcolor="#399de5"] ;
323 -> 325 ;
326 [label="gini = 0.0\nsamples = 1\nvalue = [1, 0]\nclass = 0", fillcolor="#e58139"] ;
318 -> 326 ;
327 [label="T8 <= -0.129\ngini = 0.278\nsamples = 6\nvalue = [5, 1]\nclass = 0", fillcolor="#ea9a61"] ;
313 -> 327 ;
328 [label="gini = 0.0\nsamples = 5\nvalue = [5, 0]\nclass = 0", fillcolor="#e58139"] ;
327 -> 328 ;
329 [label="gini = 0.0\nsamples = 1\nvalue = [0, 1]\nclass = 1", fillcolor="#399de5"] ;
327 -> 329 ;
330 [label="T8 <= -0.451\ngini = 0.314\nsamples = 87\nvalue = [70, 17]\nclass = 0", fillcolor="#eba069"] ;
146 -> 330 ;
331 [label="FC6 <= -0.255\ngini = 0.397\nsamples = 11\nvalue = [3, 8]\nclass = 1", fillcolor="#83c2ef"] ;
330 -> 331 ;
332 [label="F4 <= -0.344\ngini = 0.198\nsamples = 9\nvalue = [1, 8]\nclass = 1", fillcolor="#52a9e8"] ;
331 -> 332 ;
333 [label="gini = 0.0\nsamples = 7\nvalue = [0, 7]\nclass = 1", fillcolor="#399de5"] ;
332 -> 333 ;
334 [label="O2 <= -0.399\ngini = 0.5\nsamples = 2\nvalue = [1, 1]\nclass = 0", fillcolor="#ffffff"] ;
332 -> 334 ;
335 [label="gini = 0.0\nsamples = 1\nvalue = [0, 1]\nclass = 1", fillcolor="#399de5"] ;
334 -> 335 ;
336 [label="gini = 0.0\nsamples = 1\nvalue = [1, 0]\nclass = 0", fillcolor="#e58139"] ;
334 -> 336 ;
337 [label="gini = 0.0\nsamples = 2\nvalue = [2, 0]\nclass = 0", fillcolor="#e58139"] ;
331 -> 337 ;
338 [label="F7 <= -0.252\ngini = 0.209\nsamples = 76\nvalue = [67, 9]\nclass = 0", fillcolor="#e89254"] ;
330 -> 338 ;
339 [label="gini = 0.0\nsamples = 46\nvalue = [46, 0]\nclass = 0", fillcolor="#e58139"] ;
338 -> 339 ;
340 [label="AF4 <= -0.012\ngini = 0.42\nsamples = 30\nvalue = [21, 9]\nclass = 0", fillcolor="#f0b78e"] ;
338 -> 340 ;
341 [label="gini = 0.0\nsamples = 7\nvalue = [0, 7]\nclass = 1", fillcolor="#399de5"] ;
340 -> 341 ;
342 [label="AF3 <= -0.007\ngini = 0.159\nsamples = 23\nvalue = [21, 2]\nclass = 0", fillcolor="#e78d4c"] ;
340 -> 342 ;
343 [label="F7 <= 0.139\ngini = 0.087\nsamples = 22\nvalue = [21, 1]\nclass = 0", fillcolor="#e68742"] ;
342 -> 343 ;
344 [label="gini = 0.0\nsamples = 21\nvalue = [21, 0]\nclass = 0", fillcolor="#e58139"] ;
343 -> 344 ;
345 [label="gini = 0.0\nsamples = 1\nvalue = [0, 1]\nclass = 1", fillcolor="#399de5"] ;
343 -> 345 ;
346 [label="gini = 0.0\nsamples = 1\nvalue = [0, 1]\nclass = 1", fillcolor="#399de5"] ;
342 -> 346 ;
347 [label="P7 <= -0.011\ngini = 0.389\nsamples = 3271\nvalue = [864, 2407]\nclass = 1", fillcolor="#80c0ee"] ;
107 -> 347 ;
348 [label="FC6 <= -1.28\ngini = 0.274\nsamples = 1722\nvalue = [282, 1440]\nclass = 1", fillcolor="#60b0ea"] ;
347 -> 348 ;
349 [label="gini = 0.0\nsamples = 17\nvalue = [17, 0]\nclass = 0", fillcolor="#e58139"] ;
348 -> 349 ;
350 [label="O1 <= -0.009\ngini = 0.263\nsamples = 1705\nvalue = [265, 1440]\nclass = 1", fillcolor="#5dafea"] ;
348 -> 350 ;
351 [label="P7 <= -0.014\ngini = 0.198\nsamples = 1119\nvalue = [125, 994]\nclass = 1", fillcolor="#52a9e8"] ;
350 -> 351 ;
352 [label="F4 <= -0.272\ngini = 0.077\nsamples = 399\nvalue = [16, 383]\nclass = 1", fillcolor="#41a1e6"] ;
351 -> 352 ;
353 [label="F3 <= -0.033\ngini = 0.282\nsamples = 53\nvalue = [9, 44]\nclass = 1", fillcolor="#61b1ea"] ;
352 -> 353 ;
354 [label="O2 <= 0.415\ngini = 0.156\nsamples = 47\nvalue = [4, 43]\nclass = 1", fillcolor="#4ba6e7"] ;
353 -> 354 ;
355 [label="T8 <= -0.048\ngini = 0.122\nsamples = 46\nvalue = [3, 43]\nclass = 1", fillcolor="#47a4e7"] ;
354 -> 355 ;
356 [label="F8 <= -0.032\ngini = 0.049\nsamples = 40\nvalue = [1, 39]\nclass = 1", fillcolor="#3ea0e6"] ;
355 -> 356 ;
357 [label="F8 <= -0.032\ngini = 0.278\nsamples = 6\nvalue = [1, 5]\nclass = 1", fillcolor="#61b1ea"] ;
356 -> 357 ;
358 [label="gini = 0.0\nsamples = 5\nvalue = [0, 5]\nclass = 1", fillcolor="#399de5"] ;
357 -> 358 ;
359 [label="gini = 0.0\nsamples = 1\nvalue = [1, 0]\nclass = 0", fillcolor="#e58139"] ;
357 -> 359 ;
360 [label="gini = 0.0\nsamples = 34\nvalue = [0, 34]\nclass = 1", fillcolor="#399de5"] ;
356 -> 360 ;
361 [label="AF4 <= -0.012\ngini = 0.444\nsamples = 6\nvalue = [2, 4]\nclass = 1", fillcolor="#9ccef2"] ;
355 -> 361 ;
362 [label="gini = 0.0\nsamples = 4\nvalue = [0, 4]\nclass = 1", fillcolor="#399de5"] ;
361 -> 362 ;
363 [label="gini = 0.0\nsamples = 2\nvalue = [2, 0]\nclass = 0", fillcolor="#e58139"] ;
361 -> 363 ;
364 [label="gini = 0.0\nsamples = 1\nvalue = [1, 0]\nclass = 0", fillcolor="#e58139"] ;
354 -> 364 ;
365 [label="AF3 <= -0.009\ngini = 0.278\nsamples = 6\nvalue = [5, 1]\nclass = 0", fillcolor="#ea9a61"] ;
353 -> 365 ;
366 [label="gini = 0.0\nsamples = 5\nvalue = [5, 0]\nclass = 0", fillcolor="#e58139"] ;
365 -> 366 ;
367 [label="gini = 0.0\nsamples = 1\nvalue = [0, 1]\nclass = 1", fillcolor="#399de5"] ;
365 -> 367 ;
368 [label="AF3 <= 0.026\ngini = 0.04\nsamples = 346\nvalue = [7, 339]\nclass = 1", fillcolor="#3d9fe6"] ;
352 -> 368 ;
369 [label="AF4 <= -0.015\ngini = 0.034\nsamples = 345\nvalue = [6, 339]\nclass = 1", fillcolor="#3d9fe5"] ;
368 -> 369 ;
370 [label="O1 <= -0.014\ngini = 0.5\nsamples = 2\nvalue = [1, 1]\nclass = 0", fillcolor="#ffffff"] ;
369 -> 370 ;
371 [label="gini = 0.0\nsamples = 1\nvalue = [0, 1]\nclass = 1", fillcolor="#399de5"] ;
370 -> 371 ;
372 [label="gini = 0.0\nsamples = 1\nvalue = [1, 0]\nclass = 0", fillcolor="#e58139"] ;
370 -> 372 ;
373 [label="O1 <= -0.011\ngini = 0.029\nsamples = 343\nvalue = [5, 338]\nclass = 1", fillcolor="#3c9ee5"] ;
369 -> 373 ;
374 [label="gini = 0.0\nsamples = 260\nvalue = [0, 260]\nclass = 1", fillcolor="#399de5"] ;
373 -> 374 ;
375 [label="AF4 <= -0.011\ngini = 0.113\nsamples = 83\nvalue = [5, 78]\nclass = 1", fillcolor="#46a3e7"] ;
373 -> 375 ;
376 [label="F7 <= -0.402\ngini = 0.444\nsamples = 12\nvalue = [4, 8]\nclass = 1", fillcolor="#9ccef2"] ;
375 -> 376 ;
377 [label="gini = 0.0\nsamples = 7\nvalue = [0, 7]\nclass = 1", fillcolor="#399de5"] ;
376 -> 377 ;
378 [label="F8 <= -0.003\ngini = 0.32\nsamples = 5\nvalue = [4, 1]\nclass = 0", fillcolor="#eca06a"] ;
376 -> 378 ;
379 [label="gini = 0.0\nsamples = 4\nvalue = [4, 0]\nclass = 0", fillcolor="#e58139"] ;
378 -> 379 ;
380 [label="gini = 0.0\nsamples = 1\nvalue = [0, 1]\nclass = 1", fillcolor="#399de5"] ;
378 -> 380 ;
381 [label="P8 <= -0.005\ngini = 0.028\nsamples = 71\nvalue = [1, 70]\nclass = 1", fillcolor="#3c9ee5"] ;
375 -> 381 ;
382 [label="gini = 0.0\nsamples = 68\nvalue = [0, 68]\nclass = 1", fillcolor="#399de5"] ;
381 -> 382 ;
383 [label="F8 <= 0.017\ngini = 0.444\nsamples = 3\nvalue = [1, 2]\nclass = 1", fillcolor="#9ccef2"] ;
381 -> 383 ;
384 [label="gini = 0.0\nsamples = 1\nvalue = [1, 0]\nclass = 0", fillcolor="#e58139"] ;
383 -> 384 ;
385 [label="gini = 0.0\nsamples = 2\nvalue = [0, 2]\nclass = 1", fillcolor="#399de5"] ;
383 -> 385 ;
386 [label="gini = 0.0\nsamples = 1\nvalue = [1, 0]\nclass = 0", fillcolor="#e58139"] ;
368 -> 386 ;
387 [label="AF3 <= -0.011\ngini = 0.257\nsamples = 720\nvalue = [109, 611]\nclass = 1", fillcolor="#5caeea"] ;
351 -> 387 ;
388 [label="F3 <= 0.031\ngini = 0.322\nsamples = 441\nvalue = [89, 352]\nclass = 1", fillcolor="#6bb6ec"] ;
387 -> 388 ;
389 [label="T8 <= 0.1\ngini = 0.278\nsamples = 408\nvalue = [68, 340]\nclass = 1", fillcolor="#61b1ea"] ;
388 -> 389 ;
390 [label="FC5 <= -0.011\ngini = 0.236\nsamples = 365\nvalue = [50, 315]\nclass = 1", fillcolor="#58ade9"] ;
389 -> 390 ;
391 [label="P7 <= -0.014\ngini = 0.072\nsamples = 133\nvalue = [5, 128]\nclass = 1", fillcolor="#41a1e6"] ;
390 -> 391 ;
392 [label="O1 <= -0.011\ngini = 0.278\nsamples = 18\nvalue = [3, 15]\nclass = 1", fillcolor="#61b1ea"] ;
391 -> 392 ;
393 [label="FC6 <= -0.54\ngini = 0.124\nsamples = 15\nvalue = [1, 14]\nclass = 1", fillcolor="#47a4e7"] ;
392 -> 393 ;
394 [label="gini = 0.0\nsamples = 1\nvalue = [1, 0]\nclass = 0", fillcolor="#e58139"] ;
393 -> 394 ;
395 [label="gini = 0.0\nsamples = 14\nvalue = [0, 14]\nclass = 1", fillcolor="#399de5"] ;
393 -> 395 ;
396 [label="AF3 <= -0.018\ngini = 0.444\nsamples = 3\nvalue = [2, 1]\nclass = 0", fillcolor="#f2c09c"] ;
392 -> 396 ;
397 [label="gini = 0.0\nsamples = 2\nvalue = [2, 0]\nclass = 0", fillcolor="#e58139"] ;
396 -> 397 ;
398 [label="gini = 0.0\nsamples = 1\nvalue = [0, 1]\nclass = 1", fillcolor="#399de5"] ;
396 -> 398 ;
399 [label="AF3 <= -0.023\ngini = 0.034\nsamples = 115\nvalue = [2, 113]\nclass = 1", fillcolor="#3d9fe5"] ;
391 -> 399 ;
400 [label="F3 <= -0.362\ngini = 0.444\nsamples = 3\nvalue = [1, 2]\nclass = 1", fillcolor="#9ccef2"] ;
399 -> 400 ;
401 [label="gini = 0.0\nsamples = 2\nvalue = [0, 2]\nclass = 1", fillcolor="#399de5"] ;
400 -> 401 ;
402 [label="gini = 0.0\nsamples = 1\nvalue = [1, 0]\nclass = 0", fillcolor="#e58139"] ;
400 -> 402 ;
403 [label="P7 <= -0.011\ngini = 0.018\nsamples = 112\nvalue = [1, 111]\nclass = 1", fillcolor="#3b9ee5"] ;
399 -> 403 ;
404 [label="gini = 0.0\nsamples = 104\nvalue = [0, 104]\nclass = 1", fillcolor="#399de5"] ;
403 -> 404 ;
405 [label="O2 <= 0.021\ngini = 0.219\nsamples = 8\nvalue = [1, 7]\nclass = 1", fillcolor="#55abe9"] ;
403 -> 405 ;
406 [label="gini = 0.0\nsamples = 6\nvalue = [0, 6]\nclass = 1", fillcolor="#399de5"] ;
405 -> 406 ;
407 [label="P8 <= -0.004\ngini = 0.5\nsamples = 2\nvalue = [1, 1]\nclass = 0", fillcolor="#ffffff"] ;
405 -> 407 ;
408 [label="gini = 0.0\nsamples = 1\nvalue = [1, 0]\nclass = 0", fillcolor="#e58139"] ;
407 -> 408 ;
409 [label="gini = 0.0\nsamples = 1\nvalue = [0, 1]\nclass = 1", fillcolor="#399de5"] ;
407 -> 409 ;
410 [label="O1 <= -0.011\ngini = 0.313\nsamples = 232\nvalue = [45, 187]\nclass = 1", fillcolor="#69b5eb"] ;
390 -> 410 ;
411 [label="F4 <= -0.241\ngini = 0.259\nsamples = 196\nvalue = [30, 166]\nclass = 1", fillcolor="#5dafea"] ;
410 -> 411 ;
412 [label="P8 <= -0.013\ngini = 0.41\nsamples = 73\nvalue = [21, 52]\nclass = 1", fillcolor="#89c5f0"] ;
411 -> 412 ;
413 [label="FC5 <= -0.011\ngini = 0.249\nsamples = 48\nvalue = [7, 41]\nclass = 1", fillcolor="#5baee9"] ;
412 -> 413 ;
414 [label="T8 <= -0.332\ngini = 0.5\nsamples = 8\nvalue = [4, 4]\nclass = 0", fillcolor="#ffffff"] ;
413 -> 414 ;
415 [label="O1 <= -0.015\ngini = 0.32\nsamples = 5\nvalue = [4, 1]\nclass = 0", fillcolor="#eca06a"] ;
414 -> 415 ;
416 [label="gini = 0.0\nsamples = 1\nvalue = [0, 1]\nclass = 1", fillcolor="#399de5"] ;
415 -> 416 ;
417 [label="gini = 0.0\nsamples = 4\nvalue = [4, 0]\nclass = 0", fillcolor="#e58139"] ;
415 -> 417 ;
418 [label="gini = 0.0\nsamples = 3\nvalue = [0, 3]\nclass = 1", fillcolor="#399de5"] ;
414 -> 418 ;
419 [label="T7 <= -0.19\ngini = 0.139\nsamples = 40\nvalue = [3, 37]\nclass = 1", fillcolor="#49a5e7"] ;
413 -> 419 ;
420 [label="gini = 0.0\nsamples = 29\nvalue = [0, 29]\nclass = 1", fillcolor="#399de5"] ;
419 -> 420 ;
421 [label="AF4 <= -0.014\ngini = 0.397\nsamples = 11\nvalue = [3, 8]\nclass = 1", fillcolor="#83c2ef"] ;
419 -> 421 ;
422 [label="gini = 0.0\nsamples = 2\nvalue = [2, 0]\nclass = 0", fillcolor="#e58139"] ;
421 -> 422 ;
423 [label="F7 <= -0.219\ngini = 0.198\nsamples = 9\nvalue = [1, 8]\nclass = 1", fillcolor="#52a9e8"] ;
421 -> 423 ;
424 [label="gini = 0.0\nsamples = 1\nvalue = [1, 0]\nclass = 0", fillcolor="#e58139"] ;
423 -> 424 ;
425 [label="gini = 0.0\nsamples = 8\nvalue = [0, 8]\nclass = 1", fillcolor="#399de5"] ;
423 -> 425 ;
426 [label="F8 <= -0.028\ngini = 0.493\nsamples = 25\nvalue = [14, 11]\nclass = 0", fillcolor="#f9e4d5"] ;
412 -> 426 ;
427 [label="gini = 0.0\nsamples = 5\nvalue = [0, 5]\nclass = 1", fillcolor="#399de5"] ;
426 -> 427 ;
428 [label="F7 <= -0.0\ngini = 0.42\nsamples = 20\nvalue = [14, 6]\nclass = 0", fillcolor="#f0b78e"] ;
426 -> 428 ;
429 [label="P8 <= -0.009\ngini = 0.291\nsamples = 17\nvalue = [14, 3]\nclass = 0", fillcolor="#eb9c63"] ;
428 -> 429 ;
430 [label="F7 <= -0.067\ngini = 0.133\nsamples = 14\nvalue = [13, 1]\nclass = 0", fillcolor="#e78b48"] ;
429 -> 430 ;
431 [label="gini = 0.0\nsamples = 12\nvalue = [12, 0]\nclass = 0", fillcolor="#e58139"] ;
430 -> 431 ;
432 [label="AF3 <= -0.014\ngini = 0.5\nsamples = 2\nvalue = [1, 1]\nclass = 0", fillcolor="#ffffff"] ;
430 -> 432 ;
433 [label="gini = 0.0\nsamples = 1\nvalue = [0, 1]\nclass = 1", fillcolor="#399de5"] ;
432 -> 433 ;
434 [label="gini = 0.0\nsamples = 1\nvalue = [1, 0]\nclass = 0", fillcolor="#e58139"] ;
432 -> 434 ;
435 [label="P8 <= -0.007\ngini = 0.444\nsamples = 3\nvalue = [1, 2]\nclass = 1", fillcolor="#9ccef2"] ;
429 -> 435 ;
436 [label="gini = 0.0\nsamples = 2\nvalue = [0, 2]\nclass = 1", fillcolor="#399de5"] ;
435 -> 436 ;
437 [label="gini = 0.0\nsamples = 1\nvalue = [1, 0]\nclass = 0", fillcolor="#e58139"] ;
435 -> 437 ;
438 [label="gini = 0.0\nsamples = 3\nvalue = [0, 3]\nclass = 1", fillcolor="#399de5"] ;
428 -> 438 ;
439 [label="F7 <= -0.81\ngini = 0.136\nsamples = 123\nvalue = [9, 114]\nclass = 1", fillcolor="#49a5e7"] ;
411 -> 439 ;
440 [label="gini = 0.0\nsamples = 1\nvalue = [1, 0]\nclass = 0", fillcolor="#e58139"] ;
439 -> 440 ;
441 [label="F3 <= -0.552\ngini = 0.123\nsamples = 122\nvalue = [8, 114]\nclass = 1", fillcolor="#47a4e7"] ;
439 -> 441 ;
442 [label="gini = 0.0\nsamples = 1\nvalue = [1, 0]\nclass = 0", fillcolor="#e58139"] ;
441 -> 442 ;
443 [label="FC5 <= -0.006\ngini = 0.109\nsamples = 121\nvalue = [7, 114]\nclass = 1", fillcolor="#45a3e7"] ;
441 -> 443 ;
444 [label="F8 <= -0.028\ngini = 0.082\nsamples = 117\nvalue = [5, 112]\nclass = 1", fillcolor="#42a1e6"] ;
443 -> 444 ;
445 [label="P8 <= -0.011\ngini = 0.332\nsamples = 19\nvalue = [4, 15]\nclass = 1", fillcolor="#6eb7ec"] ;
444 -> 445 ;
446 [label="T7 <= -0.146\ngini = 0.117\nsamples = 16\nvalue = [1, 15]\nclass = 1", fillcolor="#46a4e7"] ;
445 -> 446 ;
447 [label="gini = 0.0\nsamples = 15\nvalue = [0, 15]\nclass = 1", fillcolor="#399de5"] ;
446 -> 447 ;
448 [label="gini = 0.0\nsamples = 1\nvalue = [1, 0]\nclass = 0", fillcolor="#e58139"] ;
446 -> 448 ;
449 [label="gini = 0.0\nsamples = 3\nvalue = [3, 0]\nclass = 0", fillcolor="#e58139"] ;
445 -> 449 ;
450 [label="FC5 <= -0.008\ngini = 0.02\nsamples = 98\nvalue = [1, 97]\nclass = 1", fillcolor="#3b9ee5"] ;
444 -> 450 ;
451 [label="gini = 0.0\nsamples = 89\nvalue = [0, 89]\nclass = 1", fillcolor="#399de5"] ;
450 -> 451 ;
452 [label="F7 <= -0.313\ngini = 0.198\nsamples = 9\nvalue = [1, 8]\nclass = 1", fillcolor="#52a9e8"] ;
450 -> 452 ;
453 [label="gini = 0.0\nsamples = 1\nvalue = [1, 0]\nclass = 0", fillcolor="#e58139"] ;
452 -> 453 ;
454 [label="gini = 0.0\nsamples = 8\nvalue = [0, 8]\nclass = 1", fillcolor="#399de5"] ;
452 -> 454 ;
455 [label="T8 <= -0.378\ngini = 0.5\nsamples = 4\nvalue = [2, 2]\nclass = 0", fillcolor="#ffffff"] ;
443 -> 455 ;
456 [label="gini = 0.0\nsamples = 2\nvalue = [2, 0]\nclass = 0", fillcolor="#e58139"] ;
455 -> 456 ;
457 [label="gini = 0.0\nsamples = 2\nvalue = [0, 2]\nclass = 1", fillcolor="#399de5"] ;
455 -> 457 ;
458 [label="F3 <= -0.077\ngini = 0.486\nsamples = 36\nvalue = [15, 21]\nclass = 1", fillcolor="#c6e3f8"] ;
410 -> 458 ;
459 [label="T7 <= -0.382\ngini = 0.33\nsamples = 24\nvalue = [5, 19]\nclass = 1", fillcolor="#6db7ec"] ;
458 -> 459 ;
460 [label="F4 <= -0.29\ngini = 0.375\nsamples = 4\nvalue = [3, 1]\nclass = 0", fillcolor="#eeab7b"] ;
459 -> 460 ;
461 [label="gini = 0.0\nsamples = 1\nvalue = [0, 1]\nclass = 1", fillcolor="#399de5"] ;
460 -> 461 ;
462 [label="gini = 0.0\nsamples = 3\nvalue = [3, 0]\nclass = 0", fillcolor="#e58139"] ;
460 -> 462 ;
463 [label="F7 <= -0.04\ngini = 0.18\nsamples = 20\nvalue = [2, 18]\nclass = 1", fillcolor="#4fa8e8"] ;
459 -> 463 ;
464 [label="AF3 <= -0.012\ngini = 0.1\nsamples = 19\nvalue = [1, 18]\nclass = 1", fillcolor="#44a2e6"] ;
463 -> 464 ;
465 [label="gini = 0.0\nsamples = 18\nvalue = [0, 18]\nclass = 1", fillcolor="#399de5"] ;
464 -> 465 ;
466 [label="gini = 0.0\nsamples = 1\nvalue = [1, 0]\nclass = 0", fillcolor="#e58139"] ;
464 -> 466 ;
467 [label="gini = 0.0\nsamples = 1\nvalue = [1, 0]\nclass = 0", fillcolor="#e58139"] ;
463 -> 467 ;
468 [label="O2 <= -0.612\ngini = 0.278\nsamples = 12\nvalue = [10, 2]\nclass = 0", fillcolor="#ea9a61"] ;
458 -> 468 ;
469 [label="gini = 0.0\nsamples = 2\nvalue = [0, 2]\nclass = 1", fillcolor="#399de5"] ;
468 -> 469 ;
470 [label="gini = 0.0\nsamples = 10\nvalue = [10, 0]\nclass = 0", fillcolor="#e58139"] ;
468 -> 470 ;
471 [label="F3 <= -0.316\ngini = 0.487\nsamples = 43\nvalue = [18, 25]\nclass = 1", fillcolor="#c8e4f8"] ;
389 -> 471 ;
472 [label="FC6 <= -0.397\ngini = 0.105\nsamples = 18\nvalue = [1, 17]\nclass = 1", fillcolor="#45a3e7"] ;
471 -> 472 ;
473 [label="gini = 0.0\nsamples = 1\nvalue = [1, 0]\nclass = 0", fillcolor="#e58139"] ;
472 -> 473 ;
474 [label="gini = 0.0\nsamples = 17\nvalue = [0, 17]\nclass = 1", fillcolor="#399de5"] ;
472 -> 474 ;
475 [label="T7 <= -0.22\ngini = 0.435\nsamples = 25\nvalue = [17, 8]\nclass = 0", fillcolor="#f1bc96"] ;
471 -> 475 ;
476 [label="O1 <= -0.015\ngini = 0.124\nsamples = 15\nvalue = [14, 1]\nclass = 0", fillcolor="#e78a47"] ;
475 -> 476 ;
477 [label="gini = 0.0\nsamples = 1\nvalue = [0, 1]\nclass = 1", fillcolor="#399de5"] ;
476 -> 477 ;
478 [label="gini = 0.0\nsamples = 14\nvalue = [14, 0]\nclass = 0", fillcolor="#e58139"] ;
476 -> 478 ;
479 [label="F3 <= -0.022\ngini = 0.42\nsamples = 10\nvalue = [3, 7]\nclass = 1", fillcolor="#8ec7f0"] ;
475 -> 479 ;
480 [label="gini = 0.0\nsamples = 6\nvalue = [0, 6]\nclass = 1", fillcolor="#399de5"] ;
479 -> 480 ;
481 [label="F8 <= -0.023\ngini = 0.375\nsamples = 4\nvalue = [3, 1]\nclass = 0", fillcolor="#eeab7b"] ;
479 -> 481 ;
482 [label="gini = 0.0\nsamples = 1\nvalue = [0, 1]\nclass = 1", fillcolor="#399de5"] ;
481 -> 482 ;
483 [label="gini = 0.0\nsamples = 3\nvalue = [3, 0]\nclass = 0", fillcolor="#e58139"] ;
481 -> 483 ;
484 [label="P8 <= -0.015\ngini = 0.463\nsamples = 33\nvalue = [21, 12]\nclass = 0", fillcolor="#f4c9aa"] ;
388 -> 484 ;
485 [label="gini = 0.0\nsamples = 6\nvalue = [0, 6]\nclass = 1", fillcolor="#399de5"] ;
484 -> 485 ;
486 [label="F4 <= -0.117\ngini = 0.346\nsamples = 27\nvalue = [21, 6]\nclass = 0", fillcolor="#eca572"] ;
484 -> 486 ;
487 [label="gini = 0.0\nsamples = 13\nvalue = [13, 0]\nclass = 0", fillcolor="#e58139"] ;
486 -> 487 ;
488 [label="T7 <= -0.146\ngini = 0.49\nsamples = 14\nvalue = [8, 6]\nclass = 0", fillcolor="#f8e0ce"] ;
486 -> 488 ;
489 [label="F3 <= 0.042\ngini = 0.375\nsamples = 8\nvalue = [2, 6]\nclass = 1", fillcolor="#7bbeee"] ;
488 -> 489 ;
490 [label="O2 <= -0.067\ngini = 0.444\nsamples = 3\nvalue = [2, 1]\nclass = 0", fillcolor="#f2c09c"] ;
489 -> 490 ;
491 [label="gini = 0.0\nsamples = 1\nvalue = [0, 1]\nclass = 1", fillcolor="#399de5"] ;
490 -> 491 ;
492 [label="gini = 0.0\nsamples = 2\nvalue = [2, 0]\nclass = 0", fillcolor="#e58139"] ;
490 -> 492 ;
493 [label="gini = 0.0\nsamples = 5\nvalue = [0, 5]\nclass = 1", fillcolor="#399de5"] ;
489 -> 493 ;
494 [label="gini = 0.0\nsamples = 6\nvalue = [6, 0]\nclass = 0", fillcolor="#e58139"] ;
488 -> 494 ;
495 [label="F8 <= 0.039\ngini = 0.133\nsamples = 279\nvalue = [20, 259]\nclass = 1", fillcolor="#48a5e7"] ;
387 -> 495 ;
496 [label="O2 <= -0.407\ngini = 0.11\nsamples = 274\nvalue = [16, 258]\nclass = 1", fillcolor="#45a3e7"] ;
495 -> 496 ;
497 [label="P8 <= -0.008\ngini = 0.307\nsamples = 58\nvalue = [11, 47]\nclass = 1", fillcolor="#67b4eb"] ;
496 -> 497 ;
498 [label="FC5 <= -0.007\ngini = 0.226\nsamples = 54\nvalue = [7, 47]\nclass = 1", fillcolor="#56ace9"] ;
497 -> 498 ;
499 [label="F3 <= 0.343\ngini = 0.127\nsamples = 44\nvalue = [3, 41]\nclass = 1", fillcolor="#47a4e7"] ;
498 -> 499 ;
500 [label="AF3 <= -0.011\ngini = 0.089\nsamples = 43\nvalue = [2, 41]\nclass = 1", fillcolor="#43a2e6"] ;
499 -> 500 ;
501 [label="AF4 <= -0.01\ngini = 0.408\nsamples = 7\nvalue = [2, 5]\nclass = 1", fillcolor="#88c4ef"] ;
500 -> 501 ;
502 [label="gini = 0.0\nsamples = 5\nvalue = [0, 5]\nclass = 1", fillcolor="#399de5"] ;
501 -> 502 ;
503 [label="gini = 0.0\nsamples = 2\nvalue = [2, 0]\nclass = 0", fillcolor="#e58139"] ;
501 -> 503 ;
504 [label="gini = 0.0\nsamples = 36\nvalue = [0, 36]\nclass = 1", fillcolor="#399de5"] ;
500 -> 504 ;
505 [label="gini = 0.0\nsamples = 1\nvalue = [1, 0]\nclass = 0", fillcolor="#e58139"] ;
499 -> 505 ;
506 [label="AF4 <= -0.007\ngini = 0.48\nsamples = 10\nvalue = [4, 6]\nclass = 1", fillcolor="#bddef6"] ;
498 -> 506 ;
507 [label="F3 <= -0.166\ngini = 0.32\nsamples = 5\nvalue = [4, 1]\nclass = 0", fillcolor="#eca06a"] ;
506 -> 507 ;
508 [label="gini = 0.0\nsamples = 1\nvalue = [0, 1]\nclass = 1", fillcolor="#399de5"] ;
507 -> 508 ;
509 [label="gini = 0.0\nsamples = 4\nvalue = [4, 0]\nclass = 0", fillcolor="#e58139"] ;
507 -> 509 ;
510 [label="gini = 0.0\nsamples = 5\nvalue = [0, 5]\nclass = 1", fillcolor="#399de5"] ;
506 -> 510 ;
511 [label="gini = 0.0\nsamples = 4\nvalue = [4, 0]\nclass = 0", fillcolor="#e58139"] ;
497 -> 511 ;
512 [label="F7 <= -0.4\ngini = 0.045\nsamples = 216\nvalue = [5, 211]\nclass = 1", fillcolor="#3e9fe6"] ;
496 -> 512 ;
513 [label="FC5 <= -0.011\ngini = 0.32\nsamples = 10\nvalue = [2, 8]\nclass = 1", fillcolor="#6ab6ec"] ;
512 -> 513 ;
514 [label="gini = 0.0\nsamples = 7\nvalue = [0, 7]\nclass = 1", fillcolor="#399de5"] ;
513 -> 514 ;
515 [label="F4 <= -0.0\ngini = 0.444\nsamples = 3\nvalue = [2, 1]\nclass = 0", fillcolor="#f2c09c"] ;
513 -> 515 ;
516 [label="gini = 0.0\nsamples = 2\nvalue = [2, 0]\nclass = 0", fillcolor="#e58139"] ;
515 -> 516 ;
517 [label="gini = 0.0\nsamples = 1\nvalue = [0, 1]\nclass = 1", fillcolor="#399de5"] ;
515 -> 517 ;
518 [label="F7 <= 0.05\ngini = 0.029\nsamples = 206\nvalue = [3, 203]\nclass = 1", fillcolor="#3c9ee5"] ;
512 -> 518 ;
519 [label="FC5 <= -0.005\ngini = 0.011\nsamples = 182\nvalue = [1, 181]\nclass = 1", fillcolor="#3a9ee5"] ;
518 -> 519 ;
520 [label="gini = 0.0\nsamples = 170\nvalue = [0, 170]\nclass = 1", fillcolor="#399de5"] ;
519 -> 520 ;
521 [label="F7 <= -0.263\ngini = 0.153\nsamples = 12\nvalue = [1, 11]\nclass = 1", fillcolor="#4ba6e7"] ;
519 -> 521 ;
522 [label="gini = 0.0\nsamples = 1\nvalue = [1, 0]\nclass = 0", fillcolor="#e58139"] ;
521 -> 522 ;
523 [label="gini = 0.0\nsamples = 11\nvalue = [0, 11]\nclass = 1", fillcolor="#399de5"] ;
521 -> 523 ;
524 [label="T7 <= -0.471\ngini = 0.153\nsamples = 24\nvalue = [2, 22]\nclass = 1", fillcolor="#4ba6e7"] ;
518 -> 524 ;
525 [label="AF3 <= 0.005\ngini = 0.48\nsamples = 5\nvalue = [2, 3]\nclass = 1", fillcolor="#bddef6"] ;
524 -> 525 ;
526 [label="gini = 0.0\nsamples = 2\nvalue = [2, 0]\nclass = 0", fillcolor="#e58139"] ;
525 -> 526 ;
527 [label="gini = 0.0\nsamples = 3\nvalue = [0, 3]\nclass = 1", fillcolor="#399de5"] ;
525 -> 527 ;
528 [label="gini = 0.0\nsamples = 19\nvalue = [0, 19]\nclass = 1", fillcolor="#399de5"] ;
524 -> 528 ;
529 [label="T7 <= -0.486\ngini = 0.32\nsamples = 5\nvalue = [4, 1]\nclass = 0", fillcolor="#eca06a"] ;
495 -> 529 ;
530 [label="gini = 0.0\nsamples = 1\nvalue = [0, 1]\nclass = 1", fillcolor="#399de5"] ;
529 -> 530 ;
531 [label="gini = 0.0\nsamples = 4\nvalue = [4, 0]\nclass = 0", fillcolor="#e58139"] ;
529 -> 531 ;
532 [label="AF4 <= -0.009\ngini = 0.364\nsamples = 586\nvalue = [140, 446]\nclass = 1", fillcolor="#77bced"] ;
350 -> 532 ;
533 [label="FC5 <= -0.009\ngini = 0.499\nsamples = 224\nvalue = [108, 116]\nclass = 1", fillcolor="#f1f8fd"] ;
532 -> 533 ;
534 [label="AF4 <= -0.013\ngini = 0.464\nsamples = 172\nvalue = [63, 109]\nclass = 1", fillcolor="#abd6f4"] ;
533 -> 534 ;
535 [label="T7 <= -0.102\ngini = 0.184\nsamples = 39\nvalue = [35, 4]\nclass = 0", fillcolor="#e88f50"] ;
534 -> 535 ;
536 [label="AF3 <= -0.014\ngini = 0.056\nsamples = 35\nvalue = [34, 1]\nclass = 0", fillcolor="#e6853f"] ;
535 -> 536 ;
537 [label="gini = 0.0\nsamples = 34\nvalue = [34, 0]\nclass = 0", fillcolor="#e58139"] ;
536 -> 537 ;
538 [label="gini = 0.0\nsamples = 1\nvalue = [0, 1]\nclass = 1", fillcolor="#399de5"] ;
536 -> 538 ;
539 [label="P7 <= -0.012\ngini = 0.375\nsamples = 4\nvalue = [1, 3]\nclass = 1", fillcolor="#7bbeee"] ;
535 -> 539 ;
540 [label="gini = 0.0\nsamples = 3\nvalue = [0, 3]\nclass = 1", fillcolor="#399de5"] ;
539 -> 540 ;
541 [label="gini = 0.0\nsamples = 1\nvalue = [1, 0]\nclass = 0", fillcolor="#e58139"] ;
539 -> 541 ;
542 [label="F7 <= -0.442\ngini = 0.332\nsamples = 133\nvalue = [28, 105]\nclass = 1", fillcolor="#6eb7ec"] ;
534 -> 542 ;
543 [label="P8 <= -0.002\ngini = 0.091\nsamples = 84\nvalue = [4, 80]\nclass = 1", fillcolor="#43a2e6"] ;
542 -> 543 ;
544 [label="F8 <= -0.026\ngini = 0.049\nsamples = 79\nvalue = [2, 77]\nclass = 1", fillcolor="#3ea0e6"] ;
543 -> 544 ;
545 [label="FC6 <= -0.303\ngini = 0.32\nsamples = 5\nvalue = [1, 4]\nclass = 1", fillcolor="#6ab6ec"] ;
544 -> 545 ;
546 [label="gini = 0.0\nsamples = 4\nvalue = [0, 4]\nclass = 1", fillcolor="#399de5"] ;
545 -> 546 ;
547 [label="gini = 0.0\nsamples = 1\nvalue = [1, 0]\nclass = 0", fillcolor="#e58139"] ;
545 -> 547 ;
548 [label="P8 <= -0.018\ngini = 0.027\nsamples = 74\nvalue = [1, 73]\nclass = 1", fillcolor="#3c9ee5"] ;
544 -> 548 ;
549 [label="P7 <= -0.012\ngini = 0.375\nsamples = 4\nvalue = [1, 3]\nclass = 1", fillcolor="#7bbeee"] ;
548 -> 549 ;
550 [label="gini = 0.0\nsamples = 3\nvalue = [0, 3]\nclass = 1", fillcolor="#399de5"] ;
549 -> 550 ;
551 [label="gini = 0.0\nsamples = 1\nvalue = [1, 0]\nclass = 0", fillcolor="#e58139"] ;
549 -> 551 ;
552 [label="gini = 0.0\nsamples = 70\nvalue = [0, 70]\nclass = 1", fillcolor="#399de5"] ;
548 -> 552 ;
553 [label="F7 <= -0.776\ngini = 0.48\nsamples = 5\nvalue = [2, 3]\nclass = 1", fillcolor="#bddef6"] ;
543 -> 553 ;
554 [label="gini = 0.0\nsamples = 3\nvalue = [0, 3]\nclass = 1", fillcolor="#399de5"] ;
553 -> 554 ;
555 [label="gini = 0.0\nsamples = 2\nvalue = [2, 0]\nclass = 0", fillcolor="#e58139"] ;
553 -> 555 ;
556 [label="P7 <= -0.014\ngini = 0.5\nsamples = 49\nvalue = [24, 25]\nclass = 1", fillcolor="#f7fbfe"] ;
542 -> 556 ;
557 [label="T7 <= -0.486\ngini = 0.255\nsamples = 20\nvalue = [17, 3]\nclass = 0", fillcolor="#ea975c"] ;
556 -> 557 ;
558 [label="gini = 0.0\nsamples = 3\nvalue = [0, 3]\nclass = 1", fillcolor="#399de5"] ;
557 -> 558 ;
559 [label="gini = 0.0\nsamples = 17\nvalue = [17, 0]\nclass = 0", fillcolor="#e58139"] ;
557 -> 559 ;
560 [label="F7 <= -0.073\ngini = 0.366\nsamples = 29\nvalue = [7, 22]\nclass = 1", fillcolor="#78bced"] ;
556 -> 560 ;
561 [label="FC6 <= 0.077\ngini = 0.26\nsamples = 26\nvalue = [4, 22]\nclass = 1", fillcolor="#5dafea"] ;
560 -> 561 ;
562 [label="T7 <= -0.475\ngini = 0.087\nsamples = 22\nvalue = [1, 21]\nclass = 1", fillcolor="#42a2e6"] ;
561 -> 562 ;
563 [label="gini = 0.0\nsamples = 1\nvalue = [1, 0]\nclass = 0", fillcolor="#e58139"] ;
562 -> 563 ;
564 [label="gini = 0.0\nsamples = 21\nvalue = [0, 21]\nclass = 1", fillcolor="#399de5"] ;
562 -> 564 ;
565 [label="AF4 <= -0.01\ngini = 0.375\nsamples = 4\nvalue = [3, 1]\nclass = 0", fillcolor="#eeab7b"] ;
561 -> 565 ;
566 [label="gini = 0.0\nsamples = 3\nvalue = [3, 0]\nclass = 0", fillcolor="#e58139"] ;
565 -> 566 ;
567 [label="gini = 0.0\nsamples = 1\nvalue = [0, 1]\nclass = 1", fillcolor="#399de5"] ;
565 -> 567 ;
568 [label="gini = 0.0\nsamples = 3\nvalue = [3, 0]\nclass = 0", fillcolor="#e58139"] ;
560 -> 568 ;
569 [label="F7 <= -0.587\ngini = 0.233\nsamples = 52\nvalue = [45, 7]\nclass = 0", fillcolor="#e99558"] ;
533 -> 569 ;
570 [label="gini = 0.0\nsamples = 2\nvalue = [0, 2]\nclass = 1", fillcolor="#399de5"] ;
569 -> 570 ;
571 [label="F7 <= -0.073\ngini = 0.18\nsamples = 50\nvalue = [45, 5]\nclass = 0", fillcolor="#e88f4f"] ;
569 -> 571 ;
572 [label="T7 <= -0.611\ngini = 0.049\nsamples = 40\nvalue = [39, 1]\nclass = 0", fillcolor="#e6843e"] ;
571 -> 572 ;
573 [label="gini = 0.0\nsamples = 1\nvalue = [0, 1]\nclass = 1", fillcolor="#399de5"] ;
572 -> 573 ;
574 [label="gini = 0.0\nsamples = 39\nvalue = [39, 0]\nclass = 0", fillcolor="#e58139"] ;
572 -> 574 ;
575 [label="F3 <= 0.048\ngini = 0.48\nsamples = 10\nvalue = [6, 4]\nclass = 0", fillcolor="#f6d5bd"] ;
571 -> 575 ;
576 [label="P7 <= -0.012\ngini = 0.375\nsamples = 8\nvalue = [6, 2]\nclass = 0", fillcolor="#eeab7b"] ;
575 -> 576 ;
577 [label="P8 <= -0.006\ngini = 0.245\nsamples = 7\nvalue = [6, 1]\nclass = 0", fillcolor="#e9965a"] ;
576 -> 577 ;
578 [label="gini = 0.0\nsamples = 6\nvalue = [6, 0]\nclass = 0", fillcolor="#e58139"] ;
577 -> 578 ;
579 [label="gini = 0.0\nsamples = 1\nvalue = [0, 1]\nclass = 1", fillcolor="#399de5"] ;
577 -> 579 ;
580 [label="gini = 0.0\nsamples = 1\nvalue = [0, 1]\nclass = 1", fillcolor="#399de5"] ;
576 -> 580 ;
581 [label="gini = 0.0\nsamples = 2\nvalue = [0, 2]\nclass = 1", fillcolor="#399de5"] ;
575 -> 581 ;
582 [label="F7 <= -0.185\ngini = 0.161\nsamples = 362\nvalue = [32, 330]\nclass = 1", fillcolor="#4ca7e8"] ;
532 -> 582 ;
583 [label="AF4 <= 0.011\ngini = 0.044\nsamples = 267\nvalue = [6, 261]\nclass = 1", fillcolor="#3e9fe6"] ;
582 -> 583 ;
584 [label="FC5 <= -0.008\ngini = 0.037\nsamples = 266\nvalue = [5, 261]\nclass = 1", fillcolor="#3d9fe5"] ;
583 -> 584 ;
585 [label="O1 <= -0.009\ngini = 0.009\nsamples = 221\nvalue = [1, 220]\nclass = 1", fillcolor="#3a9de5"] ;
584 -> 585 ;
586 [label="FC6 <= 0.675\ngini = 0.153\nsamples = 12\nvalue = [1, 11]\nclass = 1", fillcolor="#4ba6e7"] ;
585 -> 586 ;
587 [label="gini = 0.0\nsamples = 11\nvalue = [0, 11]\nclass = 1", fillcolor="#399de5"] ;
586 -> 587 ;
588 [label="gini = 0.0\nsamples = 1\nvalue = [1, 0]\nclass = 0", fillcolor="#e58139"] ;
586 -> 588 ;
589 [label="gini = 0.0\nsamples = 209\nvalue = [0, 209]\nclass = 1", fillcolor="#399de5"] ;
585 -> 589 ;
590 [label="AF4 <= -0.008\ngini = 0.162\nsamples = 45\nvalue = [4, 41]\nclass = 1", fillcolor="#4ca7e8"] ;
584 -> 590 ;
591 [label="gini = 0.0\nsamples = 4\nvalue = [4, 0]\nclass = 0", fillcolor="#e58139"] ;
590 -> 591 ;
592 [label="gini = 0.0\nsamples = 41\nvalue = [0, 41]\nclass = 1", fillcolor="#399de5"] ;
590 -> 592 ;
593 [label="gini = 0.0\nsamples = 1\nvalue = [1, 0]\nclass = 0", fillcolor="#e58139"] ;
583 -> 593 ;
594 [label="F8 <= -0.003\ngini = 0.398\nsamples = 95\nvalue = [26, 69]\nclass = 1", fillcolor="#84c2ef"] ;
582 -> 594 ;
595 [label="FC6 <= -0.282\ngini = 0.048\nsamples = 41\nvalue = [1, 40]\nclass = 1", fillcolor="#3e9fe6"] ;
594 -> 595 ;
596 [label="gini = 0.0\nsamples = 1\nvalue = [1, 0]\nclass = 0", fillcolor="#e58139"] ;
595 -> 596 ;
597 [label="gini = 0.0\nsamples = 40\nvalue = [0, 40]\nclass = 1", fillcolor="#399de5"] ;
595 -> 597 ;
598 [label="AF3 <= 0.009\ngini = 0.497\nsamples = 54\nvalue = [25, 29]\nclass = 1", fillcolor="#e4f1fb"] ;
594 -> 598 ;
599 [label="F7 <= 0.111\ngini = 0.077\nsamples = 25\nvalue = [24, 1]\nclass = 0", fillcolor="#e68641"] ;
598 -> 599 ;
600 [label="gini = 0.0\nsamples = 24\nvalue = [24, 0]\nclass = 0", fillcolor="#e58139"] ;
599 -> 600 ;
601 [label="gini = 0.0\nsamples = 1\nvalue = [0, 1]\nclass = 1", fillcolor="#399de5"] ;
599 -> 601 ;
602 [label="F3 <= 0.462\ngini = 0.067\nsamples = 29\nvalue = [1, 28]\nclass = 1", fillcolor="#40a0e6"] ;
598 -> 602 ;
603 [label="gini = 0.0\nsamples = 28\nvalue = [0, 28]\nclass = 1", fillcolor="#399de5"] ;
602 -> 603 ;
604 [label="gini = 0.0\nsamples = 1\nvalue = [1, 0]\nclass = 0", fillcolor="#e58139"] ;
602 -> 604 ;
605 [label="AF3 <= -0.007\ngini = 0.469\nsamples = 1549\nvalue = [582, 967]\nclass = 1", fillcolor="#b0d8f5"] ;
347 -> 605 ;
606 [label="F3 <= -0.287\ngini = 0.493\nsamples = 1195\nvalue = [526, 669]\nclass = 1", fillcolor="#d5eaf9"] ;
605 -> 606 ;
607 [label="T7 <= -0.545\ngini = 0.409\nsamples = 296\nvalue = [85, 211]\nclass = 1", fillcolor="#89c4ef"] ;
606 -> 607 ;
608 [label="P7 <= -0.01\ngini = 0.266\nsamples = 38\nvalue = [32, 6]\nclass = 0", fillcolor="#ea995e"] ;
607 -> 608 ;
609 [label="T8 <= -0.385\ngini = 0.494\nsamples = 9\nvalue = [5, 4]\nclass = 0", fillcolor="#fae6d7"] ;
608 -> 609 ;
610 [label="gini = 0.0\nsamples = 4\nvalue = [4, 0]\nclass = 0", fillcolor="#e58139"] ;
609 -> 610 ;
611 [label="AF3 <= -0.021\ngini = 0.32\nsamples = 5\nvalue = [1, 4]\nclass = 1", fillcolor="#6ab6ec"] ;
609 -> 611 ;
612 [label="gini = 0.0\nsamples = 1\nvalue = [1, 0]\nclass = 0", fillcolor="#e58139"] ;
611 -> 612 ;
613 [label="gini = 0.0\nsamples = 4\nvalue = [0, 4]\nclass = 1", fillcolor="#399de5"] ;
611 -> 613 ;
614 [label="F7 <= -0.832\ngini = 0.128\nsamples = 29\nvalue = [27, 2]\nclass = 0", fillcolor="#e78a48"] ;
608 -> 614 ;
615 [label="T8 <= -0.176\ngini = 0.444\nsamples = 3\nvalue = [1, 2]\nclass = 1", fillcolor="#9ccef2"] ;
614 -> 615 ;
616 [label="gini = 0.0\nsamples = 1\nvalue = [1, 0]\nclass = 0", fillcolor="#e58139"] ;
615 -> 616 ;
617 [label="gini = 0.0\nsamples = 2\nvalue = [0, 2]\nclass = 1", fillcolor="#399de5"] ;
615 -> 617 ;
618 [label="gini = 0.0\nsamples = 26\nvalue = [26, 0]\nclass = 0", fillcolor="#e58139"] ;
614 -> 618 ;
619 [label="FC5 <= -0.009\ngini = 0.326\nsamples = 258\nvalue = [53, 205]\nclass = 1", fillcolor="#6cb6ec"] ;
607 -> 619 ;
620 [label="AF4 <= -0.013\ngini = 0.267\nsamples = 227\nvalue = [36, 191]\nclass = 1", fillcolor="#5eafea"] ;
619 -> 620 ;
621 [label="O1 <= -0.01\ngini = 0.482\nsamples = 37\nvalue = [15, 22]\nclass = 1", fillcolor="#c0e0f7"] ;
620 -> 621 ;
622 [label="T8 <= -0.446\ngini = 0.278\nsamples = 24\nvalue = [4, 20]\nclass = 1", fillcolor="#61b1ea"] ;
621 -> 622 ;
623 [label="gini = 0.0\nsamples = 2\nvalue = [2, 0]\nclass = 0", fillcolor="#e58139"] ;
622 -> 623 ;
624 [label="FC6 <= -0.004\ngini = 0.165\nsamples = 22\nvalue = [2, 20]\nclass = 1", fillcolor="#4da7e8"] ;
622 -> 624 ;
625 [label="F3 <= -0.691\ngini = 0.091\nsamples = 21\nvalue = [1, 20]\nclass = 1", fillcolor="#43a2e6"] ;
624 -> 625 ;
626 [label="gini = 0.0\nsamples = 1\nvalue = [1, 0]\nclass = 0", fillcolor="#e58139"] ;
625 -> 626 ;
627 [label="gini = 0.0\nsamples = 20\nvalue = [0, 20]\nclass = 1", fillcolor="#399de5"] ;
625 -> 627 ;
628 [label="gini = 0.0\nsamples = 1\nvalue = [1, 0]\nclass = 0", fillcolor="#e58139"] ;
624 -> 628 ;
629 [label="P8 <= -0.01\ngini = 0.26\nsamples = 13\nvalue = [11, 2]\nclass = 0", fillcolor="#ea985d"] ;
621 -> 629 ;
630 [label="AF4 <= -0.014\ngini = 0.444\nsamples = 3\nvalue = [1, 2]\nclass = 1", fillcolor="#9ccef2"] ;
629 -> 630 ;
631 [label="gini = 0.0\nsamples = 1\nvalue = [1, 0]\nclass = 0", fillcolor="#e58139"] ;
630 -> 631 ;
632 [label="gini = 0.0\nsamples = 2\nvalue = [0, 2]\nclass = 1", fillcolor="#399de5"] ;
630 -> 632 ;
633 [label="gini = 0.0\nsamples = 10\nvalue = [10, 0]\nclass = 0", fillcolor="#e58139"] ;
629 -> 633 ;
634 [label="FC6 <= 0.05\ngini = 0.197\nsamples = 190\nvalue = [21, 169]\nclass = 1", fillcolor="#52a9e8"] ;
620 -> 634 ;
635 [label="F8 <= -0.034\ngini = 0.109\nsamples = 138\nvalue = [8, 130]\nclass = 1", fillcolor="#45a3e7"] ;
634 -> 635 ;
636 [label="gini = 0.0\nsamples = 1\nvalue = [1, 0]\nclass = 0", fillcolor="#e58139"] ;
635 -> 636 ;
637 [label="T8 <= -0.511\ngini = 0.097\nsamples = 137\nvalue = [7, 130]\nclass = 1", fillcolor="#44a2e6"] ;
635 -> 637 ;
638 [label="gini = 0.0\nsamples = 1\nvalue = [1, 0]\nclass = 0", fillcolor="#e58139"] ;
637 -> 638 ;
639 [label="O2 <= -0.422\ngini = 0.084\nsamples = 136\nvalue = [6, 130]\nclass = 1", fillcolor="#42a2e6"] ;
637 -> 639 ;
640 [label="FC6 <= -0.472\ngini = 0.287\nsamples = 23\nvalue = [4, 19]\nclass = 1", fillcolor="#63b2ea"] ;
639 -> 640 ;
641 [label="gini = 0.0\nsamples = 2\nvalue = [2, 0]\nclass = 0", fillcolor="#e58139"] ;
640 -> 641 ;
642 [label="T7 <= -0.362\ngini = 0.172\nsamples = 21\nvalue = [2, 19]\nclass = 1", fillcolor="#4ea7e8"] ;
640 -> 642 ;
643 [label="gini = 0.0\nsamples = 1\nvalue = [1, 0]\nclass = 0", fillcolor="#e58139"] ;
642 -> 643 ;
644 [label="F7 <= -0.832\ngini = 0.095\nsamples = 20\nvalue = [1, 19]\nclass = 1", fillcolor="#43a2e6"] ;
642 -> 644 ;
645 [label="FC6 <= -0.248\ngini = 0.444\nsamples = 3\nvalue = [1, 2]\nclass = 1", fillcolor="#9ccef2"] ;
644 -> 645 ;
646 [label="gini = 0.0\nsamples = 2\nvalue = [0, 2]\nclass = 1", fillcolor="#399de5"] ;
645 -> 646 ;
647 [label="gini = 0.0\nsamples = 1\nvalue = [1, 0]\nclass = 0", fillcolor="#e58139"] ;
645 -> 647 ;
648 [label="gini = 0.0\nsamples = 17\nvalue = [0, 17]\nclass = 1", fillcolor="#399de5"] ;
644 -> 648 ;
649 [label="AF4 <= -0.013\ngini = 0.035\nsamples = 113\nvalue = [2, 111]\nclass = 1", fillcolor="#3d9fe5"] ;
639 -> 649 ;
650 [label="AF4 <= -0.013\ngini = 0.32\nsamples = 5\nvalue = [1, 4]\nclass = 1", fillcolor="#6ab6ec"] ;
649 -> 650 ;
651 [label="gini = 0.0\nsamples = 4\nvalue = [0, 4]\nclass = 1", fillcolor="#399de5"] ;
650 -> 651 ;
652 [label="gini = 0.0\nsamples = 1\nvalue = [1, 0]\nclass = 0", fillcolor="#e58139"] ;
650 -> 652 ;
653 [label="T8 <= 0.235\ngini = 0.018\nsamples = 108\nvalue = [1, 107]\nclass = 1", fillcolor="#3b9ee5"] ;
649 -> 653 ;
654 [label="gini = 0.0\nsamples = 98\nvalue = [0, 98]\nclass = 1", fillcolor="#399de5"] ;
653 -> 654 ;
655 [label="AF3 <= -0.016\ngini = 0.18\nsamples = 10\nvalue = [1, 9]\nclass = 1", fillcolor="#4fa8e8"] ;
653 -> 655 ;
656 [label="gini = 0.0\nsamples = 1\nvalue = [1, 0]\nclass = 0", fillcolor="#e58139"] ;
655 -> 656 ;
657 [label="gini = 0.0\nsamples = 9\nvalue = [0, 9]\nclass = 1", fillcolor="#399de5"] ;
655 -> 657 ;
658 [label="F4 <= -0.203\ngini = 0.375\nsamples = 52\nvalue = [13, 39]\nclass = 1", fillcolor="#7bbeee"] ;
634 -> 658 ;
659 [label="O1 <= -0.011\ngini = 0.499\nsamples = 21\nvalue = [10, 11]\nclass = 1", fillcolor="#edf6fd"] ;
658 -> 659 ;
660 [label="T8 <= 0.397\ngini = 0.219\nsamples = 8\nvalue = [7, 1]\nclass = 0", fillcolor="#e99355"] ;
659 -> 660 ;
661 [label="gini = 0.0\nsamples = 7\nvalue = [7, 0]\nclass = 0", fillcolor="#e58139"] ;
660 -> 661 ;
662 [label="gini = 0.0\nsamples = 1\nvalue = [0, 1]\nclass = 1", fillcolor="#399de5"] ;
660 -> 662 ;
663 [label="FC5 <= -0.012\ngini = 0.355\nsamples = 13\nvalue = [3, 10]\nclass = 1", fillcolor="#74baed"] ;
659 -> 663 ;
664 [label="T7 <= -0.22\ngini = 0.375\nsamples = 4\nvalue = [3, 1]\nclass = 0", fillcolor="#eeab7b"] ;
663 -> 664 ;
665 [label="gini = 0.0\nsamples = 3\nvalue = [3, 0]\nclass = 0", fillcolor="#e58139"] ;
664 -> 665 ;
666 [label="gini = 0.0\nsamples = 1\nvalue = [0, 1]\nclass = 1", fillcolor="#399de5"] ;
664 -> 666 ;
667 [label="gini = 0.0\nsamples = 9\nvalue = [0, 9]\nclass = 1", fillcolor="#399de5"] ;
663 -> 667 ;
668 [label="P7 <= -0.009\ngini = 0.175\nsamples = 31\nvalue = [3, 28]\nclass = 1", fillcolor="#4ea8e8"] ;
658 -> 668 ;
669 [label="T8 <= 0.612\ngini = 0.124\nsamples = 30\nvalue = [2, 28]\nclass = 1", fillcolor="#47a4e7"] ;
668 -> 669 ;
670 [label="T7 <= 0.134\ngini = 0.067\nsamples = 29\nvalue = [1, 28]\nclass = 1", fillcolor="#40a0e6"] ;
669 -> 670 ;
671 [label="gini = 0.0\nsamples = 27\nvalue = [0, 27]\nclass = 1", fillcolor="#399de5"] ;
670 -> 671 ;
672 [label="AF3 <= -0.017\ngini = 0.5\nsamples = 2\nvalue = [1, 1]\nclass = 0", fillcolor="#ffffff"] ;
670 -> 672 ;
673 [label="gini = 0.0\nsamples = 1\nvalue = [1, 0]\nclass = 0", fillcolor="#e58139"] ;
672 -> 673 ;
674 [label="gini = 0.0\nsamples = 1\nvalue = [0, 1]\nclass = 1", fillcolor="#399de5"] ;
672 -> 674 ;
675 [label="gini = 0.0\nsamples = 1\nvalue = [1, 0]\nclass = 0", fillcolor="#e58139"] ;
669 -> 675 ;
676 [label="gini = 0.0\nsamples = 1\nvalue = [1, 0]\nclass = 0", fillcolor="#e58139"] ;
668 -> 676 ;
677 [label="T7 <= -0.198\ngini = 0.495\nsamples = 31\nvalue = [17, 14]\nclass = 0", fillcolor="#fae9dc"] ;
619 -> 677 ;
678 [label="O1 <= -0.008\ngini = 0.444\nsamples = 18\nvalue = [6, 12]\nclass = 1", fillcolor="#9ccef2"] ;
677 -> 678 ;
679 [label="T8 <= -0.425\ngini = 0.496\nsamples = 11\nvalue = [6, 5]\nclass = 0", fillcolor="#fbeade"] ;
678 -> 679 ;
680 [label="gini = 0.0\nsamples = 4\nvalue = [0, 4]\nclass = 1", fillcolor="#399de5"] ;
679 -> 680 ;
681 [label="P7 <= -0.011\ngini = 0.245\nsamples = 7\nvalue = [6, 1]\nclass = 0", fillcolor="#e9965a"] ;
679 -> 681 ;
682 [label="gini = 0.0\nsamples = 1\nvalue = [0, 1]\nclass = 1", fillcolor="#399de5"] ;
681 -> 682 ;
683 [label="gini = 0.0\nsamples = 6\nvalue = [6, 0]\nclass = 0", fillcolor="#e58139"] ;
681 -> 683 ;
684 [label="gini = 0.0\nsamples = 7\nvalue = [0, 7]\nclass = 1", fillcolor="#399de5"] ;
678 -> 684 ;
685 [label="O1 <= -0.011\ngini = 0.26\nsamples = 13\nvalue = [11, 2]\nclass = 0", fillcolor="#ea985d"] ;
677 -> 685 ;
686 [label="F8 <= -0.008\ngini = 0.444\nsamples = 3\nvalue = [1, 2]\nclass = 1", fillcolor="#9ccef2"] ;
685 -> 686 ;
687 [label="gini = 0.0\nsamples = 2\nvalue = [0, 2]\nclass = 1", fillcolor="#399de5"] ;
686 -> 687 ;
688 [label="gini = 0.0\nsamples = 1\nvalue = [1, 0]\nclass = 0", fillcolor="#e58139"] ;
686 -> 688 ;
689 [label="gini = 0.0\nsamples = 10\nvalue = [10, 0]\nclass = 0", fillcolor="#e58139"] ;
685 -> 689 ;
690 [label="O1 <= -0.012\ngini = 0.5\nsamples = 899\nvalue = [441, 458]\nclass = 1", fillcolor="#f8fbfe"] ;
606 -> 690 ;
691 [label="FC6 <= -0.581\ngini = 0.405\nsamples = 195\nvalue = [55, 140]\nclass = 1", fillcolor="#87c4ef"] ;
690 -> 691 ;
692 [label="AF4 <= -0.013\ngini = 0.087\nsamples = 22\nvalue = [21, 1]\nclass = 0", fillcolor="#e68742"] ;
691 -> 692 ;
693 [label="gini = 0.0\nsamples = 1\nvalue = [0, 1]\nclass = 1", fillcolor="#399de5"] ;
692 -> 693 ;
694 [label="gini = 0.0\nsamples = 21\nvalue = [21, 0]\nclass = 0", fillcolor="#e58139"] ;
692 -> 694 ;
695 [label="F7 <= -0.289\ngini = 0.316\nsamples = 173\nvalue = [34, 139]\nclass = 1", fillcolor="#69b5eb"] ;
691 -> 695 ;
696 [label="O2 <= -0.207\ngini = 0.466\nsamples = 73\nvalue = [27, 46]\nclass = 1", fillcolor="#add7f4"] ;
695 -> 696 ;
697 [label="P7 <= -0.01\ngini = 0.444\nsamples = 30\nvalue = [20, 10]\nclass = 0", fillcolor="#f2c09c"] ;
696 -> 697 ;
698 [label="F4 <= -0.241\ngini = 0.473\nsamples = 13\nvalue = [5, 8]\nclass = 1", fillcolor="#b5daf5"] ;
697 -> 698 ;
699 [label="gini = 0.0\nsamples = 4\nvalue = [4, 0]\nclass = 0", fillcolor="#e58139"] ;
698 -> 699 ;
700 [label="P8 <= -0.012\ngini = 0.198\nsamples = 9\nvalue = [1, 8]\nclass = 1", fillcolor="#52a9e8"] ;
698 -> 700 ;
701 [label="gini = 0.0\nsamples = 8\nvalue = [0, 8]\nclass = 1", fillcolor="#399de5"] ;
700 -> 701 ;
702 [label="gini = 0.0\nsamples = 1\nvalue = [1, 0]\nclass = 0", fillcolor="#e58139"] ;
700 -> 702 ;
703 [label="P8 <= -0.018\ngini = 0.208\nsamples = 17\nvalue = [15, 2]\nclass = 0", fillcolor="#e89253"] ;
697 -> 703 ;
704 [label="gini = 0.0\nsamples = 1\nvalue = [0, 1]\nclass = 1", fillcolor="#399de5"] ;
703 -> 704 ;
705 [label="F8 <= -0.017\ngini = 0.117\nsamples = 16\nvalue = [15, 1]\nclass = 0", fillcolor="#e78946"] ;
703 -> 705 ;
706 [label="O2 <= -0.312\ngini = 0.444\nsamples = 3\nvalue = [2, 1]\nclass = 0", fillcolor="#f2c09c"] ;
705 -> 706 ;
707 [label="gini = 0.0\nsamples = 2\nvalue = [2, 0]\nclass = 0", fillcolor="#e58139"] ;
706 -> 707 ;
708 [label="gini = 0.0\nsamples = 1\nvalue = [0, 1]\nclass = 1", fillcolor="#399de5"] ;
706 -> 708 ;
709 [label="gini = 0.0\nsamples = 13\nvalue = [13, 0]\nclass = 0", fillcolor="#e58139"] ;
705 -> 709 ;
710 [label="F4 <= -0.265\ngini = 0.273\nsamples = 43\nvalue = [7, 36]\nclass = 1", fillcolor="#5fb0ea"] ;
696 -> 710 ;
711 [label="gini = 0.0\nsamples = 4\nvalue = [4, 0]\nclass = 0", fillcolor="#e58139"] ;
710 -> 711 ;
712 [label="F4 <= -0.198\ngini = 0.142\nsamples = 39\nvalue = [3, 36]\nclass = 1", fillcolor="#49a5e7"] ;
710 -> 712 ;
713 [label="P8 <= -0.011\ngini = 0.444\nsamples = 6\nvalue = [2, 4]\nclass = 1", fillcolor="#9ccef2"] ;
712 -> 713 ;
714 [label="gini = 0.0\nsamples = 4\nvalue = [0, 4]\nclass = 1", fillcolor="#399de5"] ;
713 -> 714 ;
715 [label="gini = 0.0\nsamples = 2\nvalue = [2, 0]\nclass = 0", fillcolor="#e58139"] ;
713 -> 715 ;
716 [label="T8 <= -0.506\ngini = 0.059\nsamples = 33\nvalue = [1, 32]\nclass = 1", fillcolor="#3fa0e6"] ;
712 -> 716 ;
717 [label="O1 <= -0.014\ngini = 0.5\nsamples = 2\nvalue = [1, 1]\nclass = 0", fillcolor="#ffffff"] ;
716 -> 717 ;
718 [label="gini = 0.0\nsamples = 1\nvalue = [0, 1]\nclass = 1", fillcolor="#399de5"] ;
717 -> 718 ;
719 [label="gini = 0.0\nsamples = 1\nvalue = [1, 0]\nclass = 0", fillcolor="#e58139"] ;
717 -> 719 ;
720 [label="gini = 0.0\nsamples = 31\nvalue = [0, 31]\nclass = 1", fillcolor="#399de5"] ;
716 -> 720 ;
721 [label="AF4 <= -0.009\ngini = 0.13\nsamples = 100\nvalue = [7, 93]\nclass = 1", fillcolor="#48a4e7"] ;
695 -> 721 ;
722 [label="T8 <= -0.554\ngini = 0.081\nsamples = 95\nvalue = [4, 91]\nclass = 1", fillcolor="#42a1e6"] ;
721 -> 722 ;
723 [label="gini = 0.0\nsamples = 1\nvalue = [1, 0]\nclass = 0", fillcolor="#e58139"] ;
722 -> 723 ;
724 [label="FC6 <= 0.281\ngini = 0.062\nsamples = 94\nvalue = [3, 91]\nclass = 1", fillcolor="#40a0e6"] ;
722 -> 724 ;
725 [label="AF3 <= -0.008\ngini = 0.042\nsamples = 93\nvalue = [2, 91]\nclass = 1", fillcolor="#3d9fe6"] ;
724 -> 725 ;
726 [label="FC6 <= -0.547\ngini = 0.022\nsamples = 92\nvalue = [1, 91]\nclass = 1", fillcolor="#3b9ee5"] ;
725 -> 726 ;
727 [label="FC5 <= -0.008\ngini = 0.5\nsamples = 2\nvalue = [1, 1]\nclass = 0", fillcolor="#ffffff"] ;
726 -> 727 ;
728 [label="gini = 0.0\nsamples = 1\nvalue = [1, 0]\nclass = 0", fillcolor="#e58139"] ;
727 -> 728 ;
729 [label="gini = 0.0\nsamples = 1\nvalue = [0, 1]\nclass = 1", fillcolor="#399de5"] ;
727 -> 729 ;
730 [label="gini = 0.0\nsamples = 90\nvalue = [0, 90]\nclass = 1", fillcolor="#399de5"] ;
726 -> 730 ;
731 [label="gini = 0.0\nsamples = 1\nvalue = [1, 0]\nclass = 0", fillcolor="#e58139"] ;
725 -> 731 ;
732 [label="gini = 0.0\nsamples = 1\nvalue = [1, 0]\nclass = 0", fillcolor="#e58139"] ;
724 -> 732 ;
733 [label="O1 <= -0.013\ngini = 0.48\nsamples = 5\nvalue = [3, 2]\nclass = 0", fillcolor="#f6d5bd"] ;
721 -> 733 ;
734 [label="gini = 0.0\nsamples = 3\nvalue = [3, 0]\nclass = 0", fillcolor="#e58139"] ;
733 -> 734 ;
735 [label="gini = 0.0\nsamples = 2\nvalue = [0, 2]\nclass = 1", fillcolor="#399de5"] ;
733 -> 735 ;
736 [label="AF3 <= -0.013\ngini = 0.495\nsamples = 704\nvalue = [386, 318]\nclass = 0", fillcolor="#fae9dc"] ;
690 -> 736 ;
737 [label="O1 <= -0.005\ngini = 0.424\nsamples = 328\nvalue = [228, 100]\nclass = 0", fillcolor="#f0b890"] ;
736 -> 737 ;
738 [label="F8 <= 0.005\ngini = 0.406\nsamples = 318\nvalue = [228, 90]\nclass = 0", fillcolor="#efb387"] ;
737 -> 738 ;
739 [label="F7 <= -0.877\ngini = 0.39\nsamples = 309\nvalue = [227, 82]\nclass = 0", fillcolor="#eeaf81"] ;
738 -> 739 ;
740 [label="F8 <= -0.018\ngini = 0.198\nsamples = 9\nvalue = [1, 8]\nclass = 1", fillcolor="#52a9e8"] ;
739 -> 740 ;
741 [label="gini = 0.0\nsamples = 8\nvalue = [0, 8]\nclass = 1", fillcolor="#399de5"] ;
740 -> 741 ;
742 [label="gini = 0.0\nsamples = 1\nvalue = [1, 0]\nclass = 0", fillcolor="#e58139"] ;
740 -> 742 ;
743 [label="F4 <= -0.062\ngini = 0.372\nsamples = 300\nvalue = [226, 74]\nclass = 0", fillcolor="#eeaa7a"] ;
739 -> 743 ;
744 [label="AF4 <= -0.012\ngini = 0.443\nsamples = 184\nvalue = [123, 61]\nclass = 0", fillcolor="#f2bf9b"] ;
743 -> 744 ;
745 [label="FC6 <= -0.886\ngini = 0.315\nsamples = 97\nvalue = [78, 19]\nclass = 0", fillcolor="#eba069"] ;
744 -> 745 ;
746 [label="gini = 0.0\nsamples = 5\nvalue = [0, 5]\nclass = 1", fillcolor="#399de5"] ;
745 -> 746 ;
747 [label="T8 <= 0.026\ngini = 0.258\nsamples = 92\nvalue = [78, 14]\nclass = 0", fillcolor="#ea985d"] ;
745 -> 747 ;
748 [label="FC5 <= -0.006\ngini = 0.217\nsamples = 89\nvalue = [78, 11]\nclass = 0", fillcolor="#e99355"] ;
747 -> 748 ;
749 [label="P8 <= -0.022\ngini = 0.171\nsamples = 85\nvalue = [77, 8]\nclass = 0", fillcolor="#e88e4e"] ;
748 -> 749 ;
750 [label="gini = 0.0\nsamples = 1\nvalue = [0, 1]\nclass = 1", fillcolor="#399de5"] ;
749 -> 750 ;
751 [label="F8 <= -0.035\ngini = 0.153\nsamples = 84\nvalue = [77, 7]\nclass = 0", fillcolor="#e78c4b"] ;
749 -> 751 ;
752 [label="gini = 0.0\nsamples = 1\nvalue = [0, 1]\nclass = 1", fillcolor="#399de5"] ;
751 -> 752 ;
753 [label="FC6 <= -0.628\ngini = 0.134\nsamples = 83\nvalue = [77, 6]\nclass = 0", fillcolor="#e78b48"] ;
751 -> 753 ;
754 [label="T8 <= -0.318\ngini = 0.469\nsamples = 8\nvalue = [5, 3]\nclass = 0", fillcolor="#f5cdb0"] ;
753 -> 754 ;
755 [label="gini = 0.0\nsamples = 5\nvalue = [5, 0]\nclass = 0", fillcolor="#e58139"] ;
754 -> 755 ;
756 [label="gini = 0.0\nsamples = 3\nvalue = [0, 3]\nclass = 1", fillcolor="#399de5"] ;
754 -> 756 ;
757 [label="F7 <= -0.748\ngini = 0.077\nsamples = 75\nvalue = [72, 3]\nclass = 0", fillcolor="#e68641"] ;
753 -> 757 ;
758 [label="F7 <= -0.771\ngini = 0.444\nsamples = 3\nvalue = [2, 1]\nclass = 0", fillcolor="#f2c09c"] ;
757 -> 758 ;
759 [label="gini = 0.0\nsamples = 2\nvalue = [2, 0]\nclass = 0", fillcolor="#e58139"] ;
758 -> 759 ;
760 [label="gini = 0.0\nsamples = 1\nvalue = [0, 1]\nclass = 1", fillcolor="#399de5"] ;
758 -> 760 ;
761 [label="F8 <= -0.031\ngini = 0.054\nsamples = 72\nvalue = [70, 2]\nclass = 0", fillcolor="#e6853f"] ;
757 -> 761 ;
762 [label="F7 <= -0.48\ngini = 0.444\nsamples = 3\nvalue = [2, 1]\nclass = 0", fillcolor="#f2c09c"] ;
761 -> 762 ;
763 [label="gini = 0.0\nsamples = 2\nvalue = [2, 0]\nclass = 0", fillcolor="#e58139"] ;
762 -> 763 ;
764 [label="gini = 0.0\nsamples = 1\nvalue = [0, 1]\nclass = 1", fillcolor="#399de5"] ;
762 -> 764 ;
765 [label="T7 <= -0.493\ngini = 0.029\nsamples = 69\nvalue = [68, 1]\nclass = 0", fillcolor="#e5833c"] ;
761 -> 765 ;
766 [label="AF4 <= -0.013\ngini = 0.444\nsamples = 3\nvalue = [2, 1]\nclass = 0", fillcolor="#f2c09c"] ;
765 -> 766 ;
767 [label="gini = 0.0\nsamples = 2\nvalue = [2, 0]\nclass = 0", fillcolor="#e58139"] ;
766 -> 767 ;
768 [label="gini = 0.0\nsamples = 1\nvalue = [0, 1]\nclass = 1", fillcolor="#399de5"] ;
766 -> 768 ;
769 [label="gini = 0.0\nsamples = 66\nvalue = [66, 0]\nclass = 0", fillcolor="#e58139"] ;
765 -> 769 ;
770 [label="FC6 <= -0.153\ngini = 0.375\nsamples = 4\nvalue = [1, 3]\nclass = 1", fillcolor="#7bbeee"] ;
748 -> 770 ;
771 [label="gini = 0.0\nsamples = 3\nvalue = [0, 3]\nclass = 1", fillcolor="#399de5"] ;
770 -> 771 ;
772 [label="gini = 0.0\nsamples = 1\nvalue = [1, 0]\nclass = 0", fillcolor="#e58139"] ;
770 -> 772 ;
773 [label="gini = 0.0\nsamples = 3\nvalue = [0, 3]\nclass = 1", fillcolor="#399de5"] ;
747 -> 773 ;
774 [label="T8 <= -0.345\ngini = 0.499\nsamples = 87\nvalue = [45, 42]\nclass = 0", fillcolor="#fdf7f2"] ;
744 -> 774 ;
775 [label="P8 <= -0.018\ngini = 0.219\nsamples = 16\nvalue = [14, 2]\nclass = 0", fillcolor="#e99355"] ;
774 -> 775 ;
776 [label="gini = 0.0\nsamples = 2\nvalue = [0, 2]\nclass = 1", fillcolor="#399de5"] ;
775 -> 776 ;
777 [label="gini = 0.0\nsamples = 14\nvalue = [14, 0]\nclass = 0", fillcolor="#e58139"] ;
775 -> 777 ;
778 [label="F7 <= -0.341\ngini = 0.492\nsamples = 71\nvalue = [31, 40]\nclass = 1", fillcolor="#d2e9f9"] ;
774 -> 778 ;
779 [label="FC6 <= -0.173\ngini = 0.459\nsamples = 28\nvalue = [18, 10]\nclass = 0", fillcolor="#f3c7a7"] ;
778 -> 779 ;
780 [label="F7 <= -0.43\ngini = 0.48\nsamples = 15\nvalue = [6, 9]\nclass = 1", fillcolor="#bddef6"] ;
779 -> 780 ;
781 [label="F4 <= -0.272\ngini = 0.198\nsamples = 9\nvalue = [1, 8]\nclass = 1", fillcolor="#52a9e8"] ;
780 -> 781 ;
782 [label="gini = 0.0\nsamples = 1\nvalue = [1, 0]\nclass = 0", fillcolor="#e58139"] ;
781 -> 782 ;
783 [label="gini = 0.0\nsamples = 8\nvalue = [0, 8]\nclass = 1", fillcolor="#399de5"] ;
781 -> 783 ;
784 [label="FC5 <= -0.01\ngini = 0.278\nsamples = 6\nvalue = [5, 1]\nclass = 0", fillcolor="#ea9a61"] ;
780 -> 784 ;
785 [label="gini = 0.0\nsamples = 5\nvalue = [5, 0]\nclass = 0", fillcolor="#e58139"] ;
784 -> 785 ;
786 [label="gini = 0.0\nsamples = 1\nvalue = [0, 1]\nclass = 1", fillcolor="#399de5"] ;
784 -> 786 ;
787 [label="FC6 <= 0.118\ngini = 0.142\nsamples = 13\nvalue = [12, 1]\nclass = 0", fillcolor="#e78c49"] ;
779 -> 787 ;
788 [label="gini = 0.0\nsamples = 11\nvalue = [11, 0]\nclass = 0", fillcolor="#e58139"] ;
787 -> 788 ;
789 [label="P7 <= -0.01\ngini = 0.5\nsamples = 2\nvalue = [1, 1]\nclass = 0", fillcolor="#ffffff"] ;
787 -> 789 ;
790 [label="gini = 0.0\nsamples = 1\nvalue = [1, 0]\nclass = 0", fillcolor="#e58139"] ;
789 -> 790 ;
791 [label="gini = 0.0\nsamples = 1\nvalue = [0, 1]\nclass = 1", fillcolor="#399de5"] ;
789 -> 791 ;
792 [label="F3 <= -0.096\ngini = 0.422\nsamples = 43\nvalue = [13, 30]\nclass = 1", fillcolor="#8fc7f0"] ;
778 -> 792 ;
793 [label="gini = 0.0\nsamples = 17\nvalue = [0, 17]\nclass = 1", fillcolor="#399de5"] ;
792 -> 793 ;
794 [label="FC6 <= -0.223\ngini = 0.5\nsamples = 26\nvalue = [13, 13]\nclass = 0", fillcolor="#ffffff"] ;
792 -> 794 ;
795 [label="O1 <= -0.009\ngini = 0.278\nsamples = 12\nvalue = [2, 10]\nclass = 1", fillcolor="#61b1ea"] ;
794 -> 795 ;
796 [label="gini = 0.0\nsamples = 10\nvalue = [0, 10]\nclass = 1", fillcolor="#399de5"] ;
795 -> 796 ;
797 [label="gini = 0.0\nsamples = 2\nvalue = [2, 0]\nclass = 0", fillcolor="#e58139"] ;
795 -> 797 ;
798 [label="AF4 <= -0.009\ngini = 0.337\nsamples = 14\nvalue = [11, 3]\nclass = 0", fillcolor="#eca36f"] ;
794 -> 798 ;
799 [label="FC5 <= -0.007\ngini = 0.153\nsamples = 12\nvalue = [11, 1]\nclass = 0", fillcolor="#e78c4b"] ;
798 -> 799 ;
800 [label="gini = 0.0\nsamples = 11\nvalue = [11, 0]\nclass = 0", fillcolor="#e58139"] ;
799 -> 800 ;
801 [label="gini = 0.0\nsamples = 1\nvalue = [0, 1]\nclass = 1", fillcolor="#399de5"] ;
799 -> 801 ;
802 [label="gini = 0.0\nsamples = 2\nvalue = [0, 2]\nclass = 1", fillcolor="#399de5"] ;
798 -> 802 ;
803 [label="AF4 <= -0.008\ngini = 0.199\nsamples = 116\nvalue = [103, 13]\nclass = 0", fillcolor="#e89152"] ;
743 -> 803 ;
804 [label="O1 <= -0.012\ngini = 0.136\nsamples = 109\nvalue = [101, 8]\nclass = 0", fillcolor="#e78b49"] ;
803 -> 804 ;
805 [label="gini = 0.0\nsamples = 2\nvalue = [0, 2]\nclass = 1", fillcolor="#399de5"] ;
804 -> 805 ;
806 [label="P8 <= -0.013\ngini = 0.106\nsamples = 107\nvalue = [101, 6]\nclass = 0", fillcolor="#e78845"] ;
804 -> 806 ;
807 [label="O2 <= -0.285\ngini = 0.444\nsamples = 9\nvalue = [6, 3]\nclass = 0", fillcolor="#f2c09c"] ;
806 -> 807 ;
808 [label="gini = 0.0\nsamples = 5\nvalue = [5, 0]\nclass = 0", fillcolor="#e58139"] ;
807 -> 808 ;
809 [label="T7 <= -0.367\ngini = 0.375\nsamples = 4\nvalue = [1, 3]\nclass = 1", fillcolor="#7bbeee"] ;
807 -> 809 ;
810 [label="gini = 0.0\nsamples = 1\nvalue = [1, 0]\nclass = 0", fillcolor="#e58139"] ;
809 -> 810 ;
811 [label="gini = 0.0\nsamples = 3\nvalue = [0, 3]\nclass = 1", fillcolor="#399de5"] ;
809 -> 811 ;
812 [label="T8 <= 0.518\ngini = 0.059\nsamples = 98\nvalue = [95, 3]\nclass = 0", fillcolor="#e6853f"] ;
806 -> 812 ;
813 [label="P7 <= -0.011\ngini = 0.041\nsamples = 96\nvalue = [94, 2]\nclass = 0", fillcolor="#e6843d"] ;
812 -> 813 ;
814 [label="P8 <= -0.01\ngini = 0.346\nsamples = 9\nvalue = [7, 2]\nclass = 0", fillcolor="#eca572"] ;
813 -> 814 ;
815 [label="gini = 0.0\nsamples = 2\nvalue = [0, 2]\nclass = 1", fillcolor="#399de5"] ;
814 -> 815 ;
816 [label="gini = 0.0\nsamples = 7\nvalue = [7, 0]\nclass = 0", fillcolor="#e58139"] ;
814 -> 816 ;
817 [label="gini = 0.0\nsamples = 87\nvalue = [87, 0]\nclass = 0", fillcolor="#e58139"] ;
813 -> 817 ;
818 [label="F7 <= -0.52\ngini = 0.5\nsamples = 2\nvalue = [1, 1]\nclass = 0", fillcolor="#ffffff"] ;
812 -> 818 ;
819 [label="gini = 0.0\nsamples = 1\nvalue = [0, 1]\nclass = 1", fillcolor="#399de5"] ;
818 -> 819 ;
820 [label="gini = 0.0\nsamples = 1\nvalue = [1, 0]\nclass = 0", fillcolor="#e58139"] ;
818 -> 820 ;
821 [label="P7 <= -0.01\ngini = 0.408\nsamples = 7\nvalue = [2, 5]\nclass = 1", fillcolor="#88c4ef"] ;
803 -> 821 ;
822 [label="gini = 0.0\nsamples = 2\nvalue = [2, 0]\nclass = 0", fillcolor="#e58139"] ;
821 -> 822 ;
823 [label="gini = 0.0\nsamples = 5\nvalue = [0, 5]\nclass = 1", fillcolor="#399de5"] ;
821 -> 823 ;
824 [label="F7 <= -0.598\ngini = 0.198\nsamples = 9\nvalue = [1, 8]\nclass = 1", fillcolor="#52a9e8"] ;
738 -> 824 ;
825 [label="gini = 0.0\nsamples = 1\nvalue = [1, 0]\nclass = 0", fillcolor="#e58139"] ;
824 -> 825 ;
826 [label="gini = 0.0\nsamples = 8\nvalue = [0, 8]\nclass = 1", fillcolor="#399de5"] ;
824 -> 826 ;
827 [label="gini = 0.0\nsamples = 10\nvalue = [0, 10]\nclass = 1", fillcolor="#399de5"] ;
737 -> 827 ;
828 [label="O2 <= -0.329\ngini = 0.487\nsamples = 376\nvalue = [158, 218]\nclass = 1", fillcolor="#c9e4f8"] ;
736 -> 828 ;
829 [label="F3 <= -0.119\ngini = 0.426\nsamples = 78\nvalue = [54, 24]\nclass = 0", fillcolor="#f1b991"] ;
828 -> 829 ;
830 [label="F7 <= -0.045\ngini = 0.469\nsamples = 16\nvalue = [6, 10]\nclass = 1", fillcolor="#b0d8f5"] ;
829 -> 830 ;
831 [label="AF4 <= -0.009\ngini = 0.444\nsamples = 9\nvalue = [6, 3]\nclass = 0", fillcolor="#f2c09c"] ;
830 -> 831 ;
832 [label="gini = 0.0\nsamples = 6\nvalue = [6, 0]\nclass = 0", fillcolor="#e58139"] ;
831 -> 832 ;
833 [label="gini = 0.0\nsamples = 3\nvalue = [0, 3]\nclass = 1", fillcolor="#399de5"] ;
831 -> 833 ;
834 [label="gini = 0.0\nsamples = 7\nvalue = [0, 7]\nclass = 1", fillcolor="#399de5"] ;
830 -> 834 ;
835 [label="FC5 <= -0.011\ngini = 0.35\nsamples = 62\nvalue = [48, 14]\nclass = 0", fillcolor="#eda673"] ;
829 -> 835 ;
836 [label="F3 <= 0.071\ngini = 0.32\nsamples = 5\nvalue = [1, 4]\nclass = 1", fillcolor="#6ab6ec"] ;
835 -> 836 ;
837 [label="gini = 0.0\nsamples = 4\nvalue = [0, 4]\nclass = 1", fillcolor="#399de5"] ;
836 -> 837 ;
838 [label="gini = 0.0\nsamples = 1\nvalue = [1, 0]\nclass = 0", fillcolor="#e58139"] ;
836 -> 838 ;
839 [label="T8 <= 0.06\ngini = 0.289\nsamples = 57\nvalue = [47, 10]\nclass = 0", fillcolor="#eb9c63"] ;
835 -> 839 ;
840 [label="FC6 <= -0.621\ngini = 0.183\nsamples = 49\nvalue = [44, 5]\nclass = 0", fillcolor="#e88f50"] ;
839 -> 840 ;
841 [label="AF4 <= -0.01\ngini = 0.5\nsamples = 6\nvalue = [3, 3]\nclass = 0", fillcolor="#ffffff"] ;
840 -> 841 ;
842 [label="gini = 0.0\nsamples = 3\nvalue = [0, 3]\nclass = 1", fillcolor="#399de5"] ;
841 -> 842 ;
843 [label="gini = 0.0\nsamples = 3\nvalue = [3, 0]\nclass = 0", fillcolor="#e58139"] ;
841 -> 843 ;
844 [label="T8 <= -0.614\ngini = 0.089\nsamples = 43\nvalue = [41, 2]\nclass = 0", fillcolor="#e68743"] ;
840 -> 844 ;
845 [label="gini = 0.0\nsamples = 1\nvalue = [0, 1]\nclass = 1", fillcolor="#399de5"] ;
844 -> 845 ;
846 [label="T8 <= 0.04\ngini = 0.046\nsamples = 42\nvalue = [41, 1]\nclass = 0", fillcolor="#e6843e"] ;
844 -> 846 ;
847 [label="gini = 0.0\nsamples = 39\nvalue = [39, 0]\nclass = 0", fillcolor="#e58139"] ;
846 -> 847 ;
848 [label="FC5 <= -0.006\ngini = 0.444\nsamples = 3\nvalue = [2, 1]\nclass = 0", fillcolor="#f2c09c"] ;
846 -> 848 ;
849 [label="gini = 0.0\nsamples = 2\nvalue = [2, 0]\nclass = 0", fillcolor="#e58139"] ;
848 -> 849 ;
850 [label="gini = 0.0\nsamples = 1\nvalue = [0, 1]\nclass = 1", fillcolor="#399de5"] ;
848 -> 850 ;
851 [label="F8 <= -0.005\ngini = 0.469\nsamples = 8\nvalue = [3, 5]\nclass = 1", fillcolor="#b0d8f5"] ;
839 -> 851 ;
852 [label="gini = 0.0\nsamples = 5\nvalue = [0, 5]\nclass = 1", fillcolor="#399de5"] ;
851 -> 852 ;
853 [label="gini = 0.0\nsamples = 3\nvalue = [3, 0]\nclass = 0", fillcolor="#e58139"] ;
851 -> 853 ;
854 [label="F8 <= -0.01\ngini = 0.454\nsamples = 298\nvalue = [104, 194]\nclass = 1", fillcolor="#a3d2f3"] ;
828 -> 854 ;
855 [label="F3 <= 0.204\ngini = 0.356\nsamples = 173\nvalue = [40, 133]\nclass = 1", fillcolor="#75baed"] ;
854 -> 855 ;
856 [label="T7 <= -0.266\ngini = 0.293\nsamples = 157\nvalue = [28, 129]\nclass = 1", fillcolor="#64b2eb"] ;
855 -> 856 ;
857 [label="O2 <= -0.137\ngini = 0.456\nsamples = 54\nvalue = [19, 35]\nclass = 1", fillcolor="#a4d2f3"] ;
856 -> 857 ;
858 [label="F7 <= -0.268\ngini = 0.219\nsamples = 8\nvalue = [7, 1]\nclass = 0", fillcolor="#e99355"] ;
857 -> 858 ;
859 [label="gini = 0.0\nsamples = 1\nvalue = [0, 1]\nclass = 1", fillcolor="#399de5"] ;
858 -> 859 ;
860 [label="gini = 0.0\nsamples = 7\nvalue = [7, 0]\nclass = 0", fillcolor="#e58139"] ;
858 -> 860 ;
861 [label="F8 <= -0.017\ngini = 0.386\nsamples = 46\nvalue = [12, 34]\nclass = 1", fillcolor="#7fc0ee"] ;
857 -> 861 ;
862 [label="F7 <= -0.0\ngini = 0.153\nsamples = 24\nvalue = [2, 22]\nclass = 1", fillcolor="#4ba6e7"] ;
861 -> 862 ;
863 [label="gini = 0.0\nsamples = 21\nvalue = [0, 21]\nclass = 1", fillcolor="#399de5"] ;
862 -> 863 ;
864 [label="P8 <= -0.01\ngini = 0.444\nsamples = 3\nvalue = [2, 1]\nclass = 0", fillcolor="#f2c09c"] ;
862 -> 864 ;
865 [label="gini = 0.0\nsamples = 1\nvalue = [0, 1]\nclass = 1", fillcolor="#399de5"] ;
864 -> 865 ;
866 [label="gini = 0.0\nsamples = 2\nvalue = [2, 0]\nclass = 0", fillcolor="#e58139"] ;
864 -> 866 ;
867 [label="AF3 <= -0.012\ngini = 0.496\nsamples = 22\nvalue = [10, 12]\nclass = 1", fillcolor="#deeffb"] ;
861 -> 867 ;
868 [label="gini = 0.0\nsamples = 5\nvalue = [5, 0]\nclass = 0", fillcolor="#e58139"] ;
867 -> 868 ;
869 [label="O1 <= -0.011\ngini = 0.415\nsamples = 17\nvalue = [5, 12]\nclass = 1", fillcolor="#8bc6f0"] ;
867 -> 869 ;
870 [label="gini = 0.0\nsamples = 3\nvalue = [3, 0]\nclass = 0", fillcolor="#e58139"] ;
869 -> 870 ;
871 [label="AF4 <= -0.011\ngini = 0.245\nsamples = 14\nvalue = [2, 12]\nclass = 1", fillcolor="#5aade9"] ;
869 -> 871 ;
872 [label="gini = 0.0\nsamples = 1\nvalue = [1, 0]\nclass = 0", fillcolor="#e58139"] ;
871 -> 872 ;
873 [label="F4 <= 0.222\ngini = 0.142\nsamples = 13\nvalue = [1, 12]\nclass = 1", fillcolor="#49a5e7"] ;
871 -> 873 ;
874 [label="gini = 0.0\nsamples = 12\nvalue = [0, 12]\nclass = 1", fillcolor="#399de5"] ;
873 -> 874 ;
875 [label="gini = 0.0\nsamples = 1\nvalue = [1, 0]\nclass = 0", fillcolor="#e58139"] ;
873 -> 875 ;
876 [label="F4 <= 0.278\ngini = 0.159\nsamples = 103\nvalue = [9, 94]\nclass = 1", fillcolor="#4ca6e7"] ;
856 -> 876 ;
877 [label="FC5 <= -0.014\ngini = 0.145\nsamples = 102\nvalue = [8, 94]\nclass = 1", fillcolor="#4aa5e7"] ;
876 -> 877 ;
878 [label="gini = 0.0\nsamples = 1\nvalue = [1, 0]\nclass = 0", fillcolor="#e58139"] ;
877 -> 878 ;
879 [label="T7 <= -0.016\ngini = 0.129\nsamples = 101\nvalue = [7, 94]\nclass = 1", fillcolor="#48a4e7"] ;
877 -> 879 ;
880 [label="AF4 <= -0.012\ngini = 0.07\nsamples = 82\nvalue = [3, 79]\nclass = 1", fillcolor="#41a1e6"] ;
879 -> 880 ;
881 [label="O1 <= -0.009\ngini = 0.444\nsamples = 3\nvalue = [1, 2]\nclass = 1", fillcolor="#9ccef2"] ;
880 -> 881 ;
882 [label="gini = 0.0\nsamples = 1\nvalue = [1, 0]\nclass = 0", fillcolor="#e58139"] ;
881 -> 882 ;
883 [label="gini = 0.0\nsamples = 2\nvalue = [0, 2]\nclass = 1", fillcolor="#399de5"] ;
881 -> 883 ;
884 [label="T8 <= -0.237\ngini = 0.049\nsamples = 79\nvalue = [2, 77]\nclass = 1", fillcolor="#3ea0e6"] ;
880 -> 884 ;
885 [label="T8 <= -0.257\ngini = 0.298\nsamples = 11\nvalue = [2, 9]\nclass = 1", fillcolor="#65b3eb"] ;
884 -> 885 ;
886 [label="gini = 0.0\nsamples = 8\nvalue = [0, 8]\nclass = 1", fillcolor="#399de5"] ;
885 -> 886 ;
887 [label="AF4 <= -0.01\ngini = 0.444\nsamples = 3\nvalue = [2, 1]\nclass = 0", fillcolor="#f2c09c"] ;
885 -> 887 ;
888 [label="gini = 0.0\nsamples = 2\nvalue = [2, 0]\nclass = 0", fillcolor="#e58139"] ;
887 -> 888 ;
889 [label="gini = 0.0\nsamples = 1\nvalue = [0, 1]\nclass = 1", fillcolor="#399de5"] ;
887 -> 889 ;
890 [label="gini = 0.0\nsamples = 68\nvalue = [0, 68]\nclass = 1", fillcolor="#399de5"] ;
884 -> 890 ;
891 [label="T8 <= 0.196\ngini = 0.332\nsamples = 19\nvalue = [4, 15]\nclass = 1", fillcolor="#6eb7ec"] ;
879 -> 891 ;
892 [label="O2 <= -0.249\ngini = 0.208\nsamples = 17\nvalue = [2, 15]\nclass = 1", fillcolor="#53aae8"] ;
891 -> 892 ;
893 [label="gini = 0.0\nsamples = 1\nvalue = [1, 0]\nclass = 0", fillcolor="#e58139"] ;
892 -> 893 ;
894 [label="FC6 <= 0.193\ngini = 0.117\nsamples = 16\nvalue = [1, 15]\nclass = 1", fillcolor="#46a4e7"] ;
892 -> 894 ;
895 [label="gini = 0.0\nsamples = 15\nvalue = [0, 15]\nclass = 1", fillcolor="#399de5"] ;
894 -> 895 ;
896 [label="gini = 0.0\nsamples = 1\nvalue = [1, 0]\nclass = 0", fillcolor="#e58139"] ;
894 -> 896 ;
897 [label="gini = 0.0\nsamples = 2\nvalue = [2, 0]\nclass = 0", fillcolor="#e58139"] ;
891 -> 897 ;
898 [label="gini = 0.0\nsamples = 1\nvalue = [1, 0]\nclass = 0", fillcolor="#e58139"] ;
876 -> 898 ;
899 [label="FC5 <= -0.01\ngini = 0.375\nsamples = 16\nvalue = [12, 4]\nclass = 0", fillcolor="#eeab7b"] ;
855 -> 899 ;
900 [label="gini = 0.0\nsamples = 9\nvalue = [9, 0]\nclass = 0", fillcolor="#e58139"] ;
899 -> 900 ;
901 [label="P7 <= -0.01\ngini = 0.49\nsamples = 7\nvalue = [3, 4]\nclass = 1", fillcolor="#cee6f8"] ;
899 -> 901 ;
902 [label="gini = 0.0\nsamples = 3\nvalue = [3, 0]\nclass = 0", fillcolor="#e58139"] ;
901 -> 902 ;
903 [label="gini = 0.0\nsamples = 4\nvalue = [0, 4]\nclass = 1", fillcolor="#399de5"] ;
901 -> 903 ;
904 [label="FC6 <= -0.37\ngini = 0.5\nsamples = 125\nvalue = [64, 61]\nclass = 0", fillcolor="#fef9f6"] ;
854 -> 904 ;
905 [label="F8 <= -0.009\ngini = 0.198\nsamples = 18\nvalue = [2, 16]\nclass = 1", fillcolor="#52a9e8"] ;
904 -> 905 ;
906 [label="gini = 0.0\nsamples = 2\nvalue = [2, 0]\nclass = 0", fillcolor="#e58139"] ;
905 -> 906 ;
907 [label="gini = 0.0\nsamples = 16\nvalue = [0, 16]\nclass = 1", fillcolor="#399de5"] ;
905 -> 907 ;
